tree
version=v4
num_class=1
num_tree_per_iteration=1
label_index=0
max_feature_idx=17
objective=binary sigmoid:1
feature_names=daytimeevening_attendance displaced educational_special_needs gender scholarship_holder international is_single age_at_enrollment admission_grade previous_qualification_grade application_mode_risk previous_qualification_risk mothers_qualification_level fathers_qualification_level mothers_occupation_level fathers_occupation_level application_order course_encoded
feature_infos=[0:1] [0:1] none [0:1] [0:1] [0:1] [0:1] [17:62] [95:190] [95:190] [0:2] [0:2] [0:5] [0:5] [0:3] [0:3] [0:9] [0.14778325123152711:0.56140350877192979]
tree_sizes=1939 1733 1385 1405 1338 2240 2408 2195 2739 1528 2409 1912 2353 1992 2266 2267 2282 2075 2820 3156

Tree=0
num_leaves=17
num_cat=0
split_feature=4 17 17 11 3 3 1 12 17 17 9 9 12 12 3 12
split_gain=446.303 171.51 55.0072 40.2937 31.9857 13.8068 6.3693 11.9478 5.56523 2.83129 2.84593 1.31029 0.851598 1.65782 0.745726 0.00297631
threshold=1.0000000180025095e-35 0.28652253661694499 0.21159309440559443 1.0000000180025095e-35 1.0000000180025095e-35 1.0000000180025095e-35 1.0000000180025095e-35 2.5000000000000004 0.40142496392496402 0.40142496392496402 132.50000000000003 120.50000000000001 1.5000000000000002 1.0000000180025095e-35 1.0000000180025095e-35 4.5000000000000009
decision_type=2 2 2 2 2 2 2 2 2 2 2 2 2 2 2 2
left_child=1 3 -2 -1 6 8 7 -5 -3 11 -11 -4 13 -8 -13 -14
right_child=2 5 9 4 -6 -7 12 -9 -10 10 -12 14 15 -15 -16 -17
leaf_value=-0.39709895483657659 -0.95515895920503746 -0.55068674945389728 -0.74790850888939275 -0.59975193923431269 -0.55367266323532938 -0.37682320394428809 -0.74790850888939275 -0.74790850888939275 -0.42255036523321421 -0.74790850888939275 -0.64752035223968452 -0.78790509991822066 -0.74606082185030309 -0.80038899752834991 -0.74790850888939275 -0.74790850888939275
leaf_weight=29.901416599750519 75.600203260779381 169.10486735403538 15.780802994966505 36.148147091269493 67.570480868220329 304.59940215945244 17.015855878591537 25.88477411866188 136.83409053087234 22.395843654870987 22.619391709566116 58.311292856931686 36.432181417942047 38.242622822523117 25.159133583307266 21.377018958330154
leaf_count=77 332 535 55 115 211 821 62 100 383 84 73 230 131 154 94 82
internal_value=-0.556826 -0.490928 -0.813008 -0.638162 -0.676459 -0.428453 -0.735057 -0.678766 -0.486675 -0.747909 -0.698029 -0.756182 -0.749727 -0.773498 -0.775189 -0.747909
internal_weight=1102.98 883.111 219.867 272.572 242.671 610.538 175.101 62.0329 305.939 144.266 45.0152 99.2512 113.068 55.2585 83.4704 57.8092
internal_count=3539 2671 868 932 855 1739 644 215 918 536 157 379 429 216 324 213
is_linear=0
shrinkage=1


Tree=1
num_leaves=17
num_cat=0
split_feature=7 17 4 4 4 8 17 8 17 17 9 9 8 8 8 9
split_gain=371.986 100.138 40.4984 34.7804 32.6982 15.3798 7.70753 4.21685 5.99766 6.71068 2.42706 2.06532 1.62142 0.390391 1.28861 0.265717
threshold=22.500000000000004 0.28652253661694499 1.0000000180025095e-35 1.0000000180025095e-35 1.0000000180025095e-35 143.45000000000002 0.21159309440559443 132.25000000000003 0.16829722002135797 0.25676347173144881 134.50000000000003 138.30000000000004 141.05000000000004 130.25000000000003 124.95000000000002 126.30000000000001
decision_type=2 2 2 2 2 2 2 2 2 2 2 2 2 2 2 2
left_child=1 4 5 -2 7 -3 -6 8 10 -10 15 -9 -13 14 -4 -1
right_child=3 2 13 -5 6 -7 -8 11 9 -11 -12 12 -14 -15 -16 -17
leaf_value=0 0.31238213125133402 0.1588087020682995 0 0.024833230992727585 -0.18196322942157511 0 0 0 0.10627412587891076 0 0 -0.10557334476087314 0 -0.022444906622951209 0.052834009346258266 -0.085367426758171286
leaf_weight=13.819167718291284 403.43307101726532 314.21625965833664 39.113845601677895 33.870569109916687 65.684624135494232 34.299364417791367 23.81333926320076 15.523222431540487 55.237326979637146 26.745438441634178 28.387059330940247 21.382172867655754 19.94806881248951 32.307396873831749 18.967738851904869 15.045059859752653
leaf_count=52 968 881 150 120 314 111 93 55 178 99 99 90 74 128 63 64
internal_value=0.143427 0.0494933 0.112492 0.294455 -0.0408298 0.144457 -0.143976 0 0.0254369 0.0646846 0 -0.0393306 -0.064894 0 0 -0.0591344
internal_weight=1161.79 724.49 438.905 437.304 285.585 348.516 89.498 196.088 139.234 81.9828 57.2513 56.8535 41.3302 90.389 58.0816 28.8642
internal_count=3539 2451 1333 1088 1118 992 407 711 492 277 215 219 164 341 213 116
is_linear=0
shrinkage=0.206344


Tree=2
num_leaves=13
num_cat=0
split_feature=7 17 17 8 3 8 17 16 7 7 9 9
split_gain=218.453 63.5603 12.9896 13.1331 12.2807 7.05796 4.08178 3.28139 1.87709 1.45446 0.447059 1.00988
threshold=22.500000000000004 0.28652253661694499 0.40142496392496402 130.25000000000003 1.0000000180025095e-35 113.35000000000001 0.16829722002135797 4.5000000000000009 18.500000000000004 20.500000000000004 134.50000000000003 146.50000000000003
decision_type=2 2 2 2 2 2 2 2 2 2 2 2
left_child=1 4 3 -3 5 -1 -6 9 -4 -7 -5 -12
right_child=-2 2 8 10 6 7 -8 -9 -10 -11 11 -13
leaf_value=0 0.22332575989567266 0.080389127285842021 0.039699843606213155 0 0 -0.093074157926300277 0.076030055819015493 0 0.16390048282368658 0 -0.039907350801177285 0
leaf_weight=22.221900269389153 456.41627000272274 177.84061761200428 53.777303785085678 20.930834203958511 20.907005131244659 151.42255866527557 38.255667299032211 24.804186224937439 123.32648083567619 23.023921594023705 38.263329327106476 33.868561550974846
leaf_count=82 1088 530 159 64 81 647 117 100 329 91 136 115
internal_value=0.110633 0.0373341 0.0867776 0.0467881 -0.0349675 -0.0605886 0.0292829 -0.0747129 0.137008 -0.0846779 0 -0.0161678
internal_weight=1185.06 728.642 448.007 270.903 280.635 221.473 59.1627 199.251 177.104 174.446 93.0627 72.1319
internal_count=3539 2451 1333 845 1118 920 198 838 488 738 315 251
is_linear=0
shrinkage=0.206344


Tree=3
num_leaves=13
num_cat=0
split_feature=7 4 4 8 15 3 3 8 16 8 8 8
split_gain=136.392 62.6468 17.138 12.0733 6.80245 3.26473 1.93169 1.60347 0.896406 0.692773 0.692112 0.556872
threshold=23.500000000000004 1.0000000180025095e-35 1.0000000180025095e-35 132.45000000000002 1.5000000000000002 1.0000000180025095e-35 1.0000000180025095e-35 115.25000000000001 2.5000000000000004 155.40000000000003 142.90000000000003 149.95000000000002
decision_type=2 2 2 2 2 2 2 2 2 2 2 2
left_child=1 3 9 5 7 -1 8 -3 11 -2 -8 -5
right_child=2 4 -4 6 -6 -7 10 -9 -10 -11 -12 -13
leaf_value=0.054899681731283394 0.20058273766394552 0 0 -0.032310704438953085 0 0.12161045872458601 0.052690901812965318 -0.094033616025204117 0.0011819801286003402 0.017261328045747686 0 0
leaf_weight=261.19613017141819 372.38035662472248 22.825385421514511 32.88615694642067 58.559306293725967 18.36556102335453 167.02141617238522 40.231314390897751 136.8044797629118 16.936955064535141 23.804674610495567 18.984737560153008 18.864561125636101
leaf_count=823 837 91 107 213 68 441 113 602 57 61 60 66
internal_value=0.0882275 0.0326139 0.182144 0.0670467 -0.0692887 0.0854341 0.00349888 -0.0846022 0 0.19433 0.0374769 -0.0220977
internal_weight=1188.86 759.79 429.071 581.794 177.995 428.218 153.577 159.63 94.3608 396.185 59.2161 77.4239
internal_count=3539 2534 1005 1773 761 1264 509 693 336 898 173 279
is_linear=0
shrinkage=0.206344


Tree=4
num_leaves=12
num_cat=0
split_feature=7 17 17 17 3 3 17 7 3 17 17
split_gain=91.073 32.6785 11.9309 11.7619 7.42692 3.66162 3.87666 3.35116 2.56263 1.86934 0.611722
threshold=21.500000000000004 0.40142496392496402 0.21159309440559443 0.16829722002135797 1.0000000180025095e-35 1.0000000180025095e-35 0.36835729284445168 28.500000000000004 1.0000000180025095e-35 0.28652253661694499 0.35554587688734035
decision_type=2 2 2 2 2 2 2 2 2 2 2
left_child=1 2 8 7 -5 6 9 -2 -1 -4 -11
right_child=3 -3 5 4 -6 -7 -8 -9 -10 10 -12
leaf_value=-0.06228374530210385 -0.017879171729410691 0.098763093393515855 0 0.099215900665719434 0.18694009467651057 0.041672996039068176 -0.06136480346608416 0.077199238720459792 0 0.040892726106627662 0
leaf_weight=139.77337361872196 21.00755774974823 167.72906439006329 68.573155209422112 218.60995535552502 239.31171391904354 133.41601055860519 37.571138054132462 22.090312138199806 28.516435176134109 75.037867978215218 28.856898739933968
leaf_count=626 69 457 268 564 542 393 136 53 99 238 94
internal_value=0.0719064 0.0194064 -0.00305066 0.139253 0.149351 0.0149567 0 0 -0.0507828 0.0110103 0.0310123
internal_weight=1180.49 679.474 511.745 501.02 457.922 343.455 210.039 43.0979 168.29 172.468 103.895
internal_count=3539 2311 1854 1228 1106 1129 736 122 725 600 332
is_linear=0
shrinkage=0.206344


Tree=5
num_leaves=22
num_cat=0
split_feature=4 10 17 17 8 8 17 9 7 9 8 17 9 14 15 7 9 8 9 9 9
split_gain=74.0512 38.788 16.1953 15.0327 7.11029 5.98673 2.5313 6.89369 2.33716 3.57634 1.91753 1.20601 2.33649 0.990874 0.68363 1.45689 2.46312 1.18065 0.248313 1.72925 0.0489053
threshold=1.0000000180025095e-35 1.0000000180025095e-35 0.21159309440559443 0.33534094111017193 142.75000000000003 143.45000000000002 0.16829722002135797 134.50000000000003 18.500000000000004 112.50000000000001 121.75000000000001 0.21159309440559443 142.50000000000003 1.5000000000000002 1.5000000000000002 24.500000000000004 119.05000000000001 134.05000000000004 142.50000000000003 136.50000000000003 133.45000000000002
decision_type=2 2 2 2 2 2 2 2 2 2 2 2 2 2 2 2 2 2 2 2 2
left_child=1 4 -2 6 -1 8 10 13 20 -10 -3 -9 -13 -8 15 16 -4 -18 19 -12 -5
right_child=2 3 14 5 -6 -7 7 11 9 -11 18 12 -14 -15 -16 -17 17 -19 -20 -21 -22
leaf_value=0.16517915249136311 -0.14075266633466615 -0.063516036128342945 0 0.014240598636727881 0.020956774727452197 0 0.064085935653612452 0 0 0.10639761769611011 0 -0.071854020071046895 0 0 0.010509967099636097 0 -0.063139050145180092 0 -0.0011795727149597427 0.066655521489928024 0
leaf_weight=250.79730854928493 58.48581650853157 21.716587856411934 16.053673714399338 39.733278974890709 48.710661306977272 38.745347365736961 108.73711793124676 17.747030913829803 19.967730522155762 249.00244274735451 17.903534814715385 29.360505327582359 30.813264146447182 28.823334440588951 18.711774185299873 22.595237150788307 60.553160846233368 29.874986231327057 18.878214284777641 18.257739469408989 24.484761878848076
leaf_count=572 332 87 53 109 127 118 322 59 56 633 71 111 104 91 59 68 240 116 78 61 72
internal_value=0.0581892 0.0829402 -0.0482962 0.0506397 0.148057 0.0790086 0.0080476 0.0233646 0.0879217 0.0995867 -0.0106236 -0.00740146 -0.0302401 0.0542731 0 -0.0144151 -0.028817 -0.0461273 0 0.0169168 0.00970626
internal_weight=1169.95 963.679 206.275 664.171 299.508 371.934 292.237 215.481 333.188 268.97 76.7561 77.9208 60.1738 137.56 147.789 129.077 106.482 90.4281 55.0395 36.1613 64.218
internal_count=3539 2671 868 1972 699 988 984 687 870 689 297 274 215 413 536 477 409 356 210 132 181
is_linear=0
shrinkage=0.206344


Tree=6
num_leaves=24
num_cat=0
split_feature=7 3 3 13 8 7 12 8 8 16 7 8 13 8 13 16 12 12 8 8 10 7 8
split_gain=47.4785 9.90628 6.88232 5.22614 4.69211 5.00991 3.0885 5.32431 2.77063 3.97408 3.0372 1.42329 1.32326 1.17981 3.42354 1.38601 2.72066 0.280667 0.253132 0.193229 0.177749 0.167274 0.0293021
threshold=24.500000000000004 1.0000000180025095e-35 1.0000000180025095e-35 1.5000000000000002 129.25000000000003 38.500000000000007 3.5000000000000004 141.75000000000003 132.05000000000004 2.5000000000000004 20.500000000000004 126.95000000000002 1.0000000180025095e-35 114.65000000000002 1.5000000000000002 4.5000000000000009 1.5000000000000002 2.5000000000000004 127.75000000000001 126.35000000000001 1.5000000000000002 31.500000000000004 118.25000000000001
decision_type=2 2 2 2 2 2 2 2 2 2 2 2 2 2 2 2 2 2 2 2 2 2 2
left_child=1 8 3 4 5 -2 7 -3 10 12 13 -12 -10 17 15 16 18 -1 22 -16 -4 -6 -15
right_child=2 6 20 -5 21 -7 -8 -9 9 -11 11 -13 -14 14 19 -17 -18 -19 -20 -21 -22 -23 -24
leaf_value=0.03711095493791277 0.087012050029335 0.069749810220485889 0.16145233552894522 0.12719566571580138 -0.017877468398234831 0 0 0 0 0.0015926742919227027 0 0.10241013466363864 -0.059510634662064001 0 0 0 0 0 0 0.027659616561837269 0.0084075880530688363 0 -0.07573996507259044
leaf_weight=33.79904805123806 60.601595222949982 204.24547575414181 155.61610846221447 52.12802466750145 22.189247384667397 21.310776129364967 55.728197500109673 20.79916712641716 26.262281075119972 25.23447784781456 61.873931616544724 20.113793596625328 88.315862447023392 15.822903648018835 47.997140154242516 19.333244517445564 39.656101569533348 24.250223517417908 19.095318704843521 27.944524198770523 27.443717673420906 25.819801390171051 57.475489303469658
leaf_count=103 151 570 360 121 69 62 163 72 98 95 193 51 347 60 170 74 147 83 74 98 70 72 236
internal_value=0.0479647 0.0165888 0.110405 0.0611403 0.0197848 0.0550935 0.0476405 0.0584166 0 -0.0252707 0.00875992 0.0436551 -0.0473901 0 -0.00802608 -0.0310675 -0.0393745 0.0246001 -0.0587823 0.0133601 0.148806 -0.00197183 -0.0670287
internal_weight=1153.06 787.947 365.109 182.049 129.921 81.9124 280.773 225.045 507.174 139.813 367.362 81.9877 114.578 285.374 227.325 151.383 132.05 58.0493 92.3937 75.9417 183.06 48.009 73.2984
internal_count=3539 2634 905 475 354 213 805 642 1829 540 1289 244 445 1045 859 591 517 186 370 268 430 141 296
is_linear=0
shrinkage=0.206344


Tree=7
num_leaves=21
num_cat=0
split_feature=14 17 10 14 8 17 8 16 3 8 15 10 16 13 17 17 13 8 13 8
split_gain=36.1959 34.0195 8.81447 7.1969 6.07705 5.21642 4.45264 3.85125 7.50757 5.17148 4.34243 2.31587 3.04603 2.04171 0.920902 0.907371 0.698199 3.79329 0.147924 0.106158
threshold=1.0000000180025095e-35 0.33534094111017193 1.0000000180025095e-35 2.5000000000000004 131.75000000000003 0.16829722002135797 142.10000000000002 2.5000000000000004 1.0000000180025095e-35 110.45000000000002 1.5000000000000002 1.0000000180025095e-35 4.5000000000000009 1.5000000000000002 0.28652253661694499 0.41492342782665365 1.0000000180025095e-35 118.85000000000001 1.5000000000000002 132.45000000000002
decision_type=2 2 2 2 2 2 2 2 2 2 2 2 2 2 2 2 2 2 2 2
left_child=-1 3 6 5 16 11 -3 8 9 -7 13 -2 -13 -11 -10 -6 -4 18 -18 -9
right_child=1 2 4 -5 15 7 -8 19 14 10 -12 12 -14 -15 -16 -17 17 -19 -20 -21
leaf_value=0.21765379103801427 0 0.12516786702980606 0.093257462788492507 0.11456217456745273 -0.014881340244337569 0 0 0.055457920680897665 0.046453019623100063 -0.089461783544634521 0 -0.081455828886709172 0 0 0 0.022516592581014298 -0.0044670382172682195 0.055811539576404369 0.010434008004307429 0
leaf_weight=49.745322018861771 36.450951024889946 147.82410277426243 81.565872743725777 16.006100162863731 72.458019658923149 23.72398653626442 32.377151325345039 42.937043517827988 49.911902606487274 96.273042842745781 29.777991250157356 84.060234278440475 22.643679425120354 36.037221297621727 30.403610691428185 43.56400902569294 54.240449175238609 129.83753894269466 47.096887081861496 13.875250056385992
leaf_count=112 107 363 212 39 241 69 87 135 138 391 102 399 96 131 89 121 167 361 130 49
internal_value=0.0403437 0.0304142 0.0631831 -0.00713423 0.0395559 -0.0154834 0.108695 0 -0.0113425 -0.0390232 -0.0556549 -0.0481876 -0.0634695 -0.0719803 0.029392 0 0.0544922 0.0325108 0 0.0474848
internal_weight=1140.81 1091.07 608.964 482.101 428.763 466.095 180.201 322.94 266.128 185.812 162.088 143.155 106.704 132.31 80.3155 116.022 312.741 231.175 101.337 56.8123
internal_count=3539 3427 1682 1745 1232 1706 450 1104 920 693 624 602 495 522 227 362 870 658 297 184
is_linear=0
shrinkage=0.206344


Tree=8
num_leaves=27
num_cat=0
split_feature=7 0 17 14 17 10 8 9 9 3 7 7 9 17 17 8 9 14 9 9 9 9 9 3 8 8
split_gain=24.5453 23.6494 16.5858 7.73706 6.63725 4.62686 4.3964 4.22736 4.09145 2.6555 2.79593 1.68608 1.62407 1.07686 5.41281 3.61382 1.55521 0.799922 1.73612 1.11144 1.42249 0.63734 0.412955 0.365992 0.0760705 0.383019
threshold=24.500000000000004 1.0000000180025095e-35 0.16829722002135797 1.0000000180025095e-35 0.40142496392496402 1.5000000000000002 109.95000000000002 139.50000000000003 133.05000000000004 1.0000000180025095e-35 20.500000000000004 18.500000000000004 129.50000000000003 0.35554587688734035 0.28652253661694499 118.25000000000001 131.50000000000003 1.5000000000000002 126.30000000000001 136.50000000000003 140.40000000000003 145.35000000000002 132.50000000000003 1.0000000180025095e-35 131.75000000000003 124.05000000000001
decision_type=2 2 2 2 2 2 2 2 2 2 2 2 2 2 2 2 2 2 2 2 2 2 2 2 2 2
left_child=2 7 17 -4 6 -3 -5 8 23 10 13 -6 -11 14 15 -8 -16 18 -1 -20 -21 22 -14 -2 25 -12
right_child=1 5 3 4 11 -7 9 -9 -10 12 24 -13 21 -15 16 -17 -18 -19 19 20 -22 -23 -24 -25 -26 -27
leaf_value=0 -0.023187479577998403 0.1300276129534032 0.1526305510599181 0.074180555820659702 0 0 0 -0.066510684764707617 0.08114043417550057 0.037294443003658029 0 0.062550850573559469 0 -0.069389796584525404 0.056437202209644245 -0.07221276845152523 0 0 -0.1353312219669931 0 -0.044928372172939275 0.021613662166739902 -0.026167129033226624 0.0021428572959256149 0 0.034383167830468561
leaf_weight=16.452525347471237 28.086706683039665 205.49593134224415 23.255782961845398 33.090934664011002 52.717193245887756 27.973578318953514 16.420612394809723 26.91783481836319 34.562723189592361 69.129177823662758 22.666775196790695 142.42198777198792 19.289070814847946 50.014065861701965 28.720554977655411 69.129144996404648 36.376010626554489 23.669260412454605 28.050357952713966 12.482590049505232 29.352242961525917 24.291663333773613 47.58070994913578 23.783638045191765 19.533831268548965 15.84689277410507
leaf_count=74 86 508 54 92 156 75 63 87 86 188 75 379 56 181 81 322 129 99 150 56 142 71 151 63 72 43
internal_value=0.0344121 0.0810363 0.0112464 0.025426 0.0178112 0.118516 0 0 0.0257741 -0.00176949 -0.0182528 0.0499272 0.0131784 -0.0319445 -0.00689312 -0.0493711 0.020428 -0.0578997 -0.0682314 -0.0823911 -0.001289 0 -0.0151312 0 0 0.0090897
internal_weight=1127.31 346.82 780.491 670.484 647.229 233.47 452.089 113.351 86.4331 418.999 258.708 195.139 160.291 200.66 150.646 85.5498 65.0966 110.007 86.3377 69.8852 41.8348 91.1614 66.8698 51.8703 58.0475 38.5137
internal_count=3539 905 2634 2113 2059 583 1524 322 235 1432 966 535 466 776 595 385 210 521 422 348 198 278 207 149 190 118
is_linear=0
shrinkage=0.206344


Tree=9
num_leaves=15
num_cat=0
split_feature=4 10 13 12 8 9 9 8 8 9 8 8 9 12
split_gain=34.5081 6.13124 5.65196 4.92847 4.36802 4.60507 5.40826 4.01165 3.98217 3.59408 1.15333 2.21278 0.561671 0.164302
threshold=1.0000000180025095e-35 1.0000000180025095e-35 1.5000000000000002 3.5000000000000004 142.35000000000005 138.30000000000004 115.50000000000001 145.10000000000002 109.95000000000002 112.50000000000001 149.95000000000002 129.25000000000003 148.45000000000002 2.5000000000000004
decision_type=2 2 2 2 2 2 2 2 2 2 2 2 2 2
left_child=1 4 8 7 5 6 -1 9 -2 -3 11 -5 -11 -6
right_child=2 3 -4 10 13 -7 -8 -9 -10 12 -12 -13 -14 -15
leaf_value=0 0 0 0 0 0 0 0.12150457114225337 0 -0.077401868708704233 0.051673721186416784 0.040700269292068152 -0.054868048399609209 0 0.018858786548327611
leaf_weight=20.920374169945717 16.223364114761353 27.631775334477425 48.502693697810173 71.057970106601715 27.878060102462769 44.038736432790756 152.44816415011883 36.139900296926498 133.14600701630116 440.68208360671997 16.526806741952896 37.447503492236137 20.971664562821388 18.982182800769806
leaf_count=60 55 83 200 215 82 123 387 120 613 1305 48 136 65 47
internal_value=0.0289134 0.0468395 -0.0444097 0.0308807 0.0788778 0.0917129 0.108009 0.0397379 -0.0649108 0.0452126 0 -0.0137321 0.0499733 0
internal_weight=1112.6 914.725 197.872 650.458 264.268 217.407 173.369 525.425 149.369 489.286 125.032 108.505 461.654 46.8602
internal_count=3539 2671 868 1972 699 570 447 1573 668 1453 399 351 1370 129
is_linear=0
shrinkage=0.206344


Tree=10
num_leaves=24
num_cat=0
split_feature=4 7 13 0 9 16 8 13 8 8 9 12 12 9 9 9 7 13 13 13 9 9 7
split_gain=22.0476 4.58265 7.32209 5.72766 5.29852 4.06499 4.82834 3.94473 2.97087 2.91119 2.84797 4.56559 2.09282 1.94608 1.56407 1.23608 1.08991 0.784107 1.13375 0.308421 0.965745 0.165573 0.00106416
threshold=1.0000000180025095e-35 21.500000000000004 1.0000000180025095e-35 1.0000000180025095e-35 116.50000000000001 2.5000000000000004 123.05000000000001 1.5000000000000002 110.45000000000002 122.05000000000001 139.50000000000003 1.0000000180025095e-35 4.5000000000000009 142.50000000000003 123.50000000000001 135.50000000000003 27.500000000000004 4.5000000000000009 1.5000000000000002 3.5000000000000004 129.50000000000003 145.35000000000002 36.500000000000007
decision_type=2 2 2 2 2 2 2 2 2 2 2 2 2 2 2 2 2 2 2 2 2 2 2
left_child=1 2 15 10 -5 9 -7 8 -2 12 11 22 14 19 -4 -1 21 18 -6 20 -11 -10 -3
right_child=7 3 5 4 17 6 -8 -9 16 13 -12 -13 -14 -15 -16 -17 -18 -19 -20 -21 -22 -23 -24
leaf_value=0.094203841020195897 0 0 0 0 0.054863177581291216 0 0.075775016009005047 0 -0.079248426811476702 0 -0.036061791923730824 0.082669645930041932 -0.0014169827998960014 0 0.057962633034526923 0 0 0 0.14390421131893391 0 -0.05605427553898297 0 -0.0014589345908238055
leaf_weight=61.210814893245697 17.661966368556023 24.644646987318993 47.904440343379974 28.83403292298317 155.22879339754581 51.512358531355858 64.471880555152893 48.502693697810173 91.712069325149059 23.817842334508896 25.848061770200729 40.449865907430649 26.296946614980698 52.465156644582748 49.350462973117828 32.511183097958565 15.031121850013731 33.493673756718636 67.501806735992432 20.382177144289017 80.758266597986221 20.926251120865345 20.599676907062531
leaf_count=164 60 67 142 84 420 160 198 200 463 72 80 102 85 182 137 105 48 93 167 67 282 97 64
internal_value=0.0236549 0.0381699 0.0191591 0.0578651 0.0742218 0.00258359 0.0380092 -0.0345642 -0.0523619 -0.00492254 0 0.0316904 0.0100157 -0.0258262 0.0321946 0.072532 -0.0640665 0.0836975 0.0905809 -0.0400621 -0.0451719 -0.0711225 0
internal_weight=1101.12 907.282 510.682 396.601 285.058 416.96 115.984 193.834 145.331 300.975 111.542 85.6942 123.552 177.423 97.2549 93.722 127.669 256.224 222.731 124.958 104.576 112.638 45.2443
internal_count=3539 2671 1594 1077 764 1325 358 868 668 967 313 233 364 603 279 269 608 680 587 421 354 560 131
is_linear=0
shrinkage=0.206344


Tree=11
num_leaves=18
num_cat=0
split_feature=3 15 7 15 0 7 7 12 12 7 13 6 7 13 7 7 12
split_gain=11.9622 7.34144 6.47684 4.54435 2.71793 3.08072 2.81189 2.03778 2.48552 1.80889 1.80034 1.26172 1.18193 0.688517 0.0969961 2.06291 0.0632734
threshold=1.0000000180025095e-35 1.0000000180025095e-35 24.500000000000004 2.5000000000000004 1.0000000180025095e-35 27.500000000000004 25.500000000000004 1.0000000180025095e-35 1.5000000000000002 18.500000000000004 1.5000000000000002 1.0000000180025095e-35 32.500000000000007 1.0000000180025095e-35 19.500000000000004 18.500000000000004 4.5000000000000009
decision_type=2 2 2 2 2 2 2 2 2 2 2 2 2 2 2 2 2
left_child=1 -1 10 4 5 -3 7 9 14 -6 13 -7 -8 -2 15 -9 -10
right_child=2 3 -4 -5 6 11 12 8 16 -11 -12 -13 -14 -15 -16 -17 -18
leaf_value=0.11674364100786128 0.022297133785233052 0 0.084439728501483236 0.095243848149543051 0 -0.11384372966512125 0.051399375327501641 -0.040373050155308503 0 0.040009471619764397 0.036242573238880922 0 0 -0.0069955809655068736 -0.05938695771871607 0 -0.0060922201713386496
leaf_weight=22.076392635703087 48.233737498521805 27.464637070894241 156.52087546885014 16.8735681027174 22.097097620368004 25.324789002537727 49.380406871438026 55.369153365492821 142.58603716641665 51.760121934115887 124.80160889029503 16.345573872327805 38.036583691835403 101.35274238884449 62.831621915102005 57.427386321127415 71.89832004904747
leaf_count=55 138 80 430 42 93 87 130 243 522 175 350 48 109 317 238 223 259
internal_value=0.019713 0 0.0465024 -0.00191126 -0.0076669 -0.0466944 0 -0.00901627 -0.0173471 0.00964706 0.0179042 -0.0817974 0.0304984 0 -0.0355978 -0.0055833 0
internal_weight=1090.38 659.472 430.909 637.395 620.522 69.135 551.387 463.97 390.113 73.8572 274.388 41.6704 87.417 149.586 175.628 112.797 214.484
internal_count=3539 2304 1235 2249 2207 215 1992 1753 1485 268 805 135 239 455 704 466 781
is_linear=0
shrinkage=0.206344


Tree=12
num_leaves=24
num_cat=0
split_feature=17 4 17 3 12 17 6 17 9 7 16 7 9 7 9 16 9 7 17 17 12 7 9
split_gain=15.2546 8.13805 4.29284 4.01469 3.89913 4.09964 2.62498 2.42024 2.70501 3.62331 2.41123 1.56825 1.47804 4.20479 2.82491 1.40545 1.17369 1.15098 1.29804 0.875474 0.759963 0.268656 0.0315365
threshold=0.40142496392496402 1.0000000180025095e-35 0.21159309440559443 1.0000000180025095e-35 3.5000000000000004 0.16829722002135797 1.0000000180025095e-35 0.38483522548092092 117.20000000000002 19.500000000000004 4.5000000000000009 18.500000000000004 133.05000000000004 20.500000000000004 140.40000000000003 1.5000000000000002 117.20000000000002 19.500000000000004 0.28652253661694499 0.25676347173144881 1.5000000000000002 21.500000000000004 140.40000000000003
decision_type=2 2 2 2 2 2 2 2 2 2 2 2 2 2 2 2 2 2 2 2 2 2 2
left_child=1 3 20 10 5 -5 -2 8 -7 -10 12 -8 15 19 -15 16 -1 22 -19 -14 -3 -6 -4
right_child=6 2 17 4 21 7 11 -9 9 -11 -12 -13 13 14 -16 -17 -18 18 -20 -21 -22 -23 -24
leaf_value=0 0 -0.12434938290265125 0.0062223482856094614 0 -0.020008093171145706 0 0 0 0 0.10428065935972504 0.051962535711865106 0.071881802951535262 0 0.062780197200839882 0 0 -0.046353550884144216 0 -0.059362929130273995 -0.043448585455187975 0 0 0
leaf_weight=22.068476185202599 48.65564689040184 30.877799585461617 33.993197306990623 21.68403460085392 27.886239290237427 21.76541893184185 53.808399051427841 28.020657494664192 44.840819805860519 87.367305070161819 29.809925556182861 217.07490393519402 43.256875187158585 61.939682379364967 22.559519216418266 55.985530346632004 89.165895715355873 15.641339763998984 28.902441188693047 46.854189202189445 16.172625377774239 17.461374640464783 16.165105044841766
leaf_count=65 143 228 135 71 90 62 159 86 124 227 90 587 179 168 69 185 297 59 115 177 104 49 70
internal_value=0.0165666 0 -0.0437749 0.0108798 0.03129 0.0448181 0.0543705 0.0565914 0.0667016 0.0777458 0 0.0624287 -0.00770197 0 0.0385441 -0.0222667 -0.0357559 0 -0.0329159 -0.0240396 -0.0977061 0 0
internal_weight=1081.96 762.418 141.753 620.666 249.026 203.678 319.539 181.994 153.974 132.208 371.64 270.883 341.83 174.61 84.4992 167.22 111.234 94.7021 44.5438 90.1111 47.0504 45.3476 50.1583
internal_count=3539 2650 711 1939 709 570 889 499 413 351 1230 746 1140 593 237 547 362 379 174 356 332 139 205
is_linear=0
shrinkage=0.206344


Tree=13
num_leaves=19
num_cat=0
split_feature=14 17 16 7 17 15 13 17 7 13 17 13 17 13 17 13 7 17
split_gain=14.6308 10.184 3.97229 5.01581 3.64992 2.83287 2.38716 2.40961 1.96227 2.2249 1.7629 1.56092 1.01462 2.94819 0.963355 0.800397 0.186653 0.0524003
threshold=1.0000000180025095e-35 0.33534094111017193 2.5000000000000004 25.500000000000004 0.51757543139695261 1.5000000000000002 4.5000000000000009 0.35554587688734035 21.500000000000004 1.5000000000000002 0.16829722002135797 1.5000000000000002 0.40142496392496402 1.0000000180025095e-35 0.38483522548092092 2.5000000000000004 32.500000000000007 0.40142496392496402
decision_type=2 2 2 2 2 2 2 2 2 2 2 2 2 2 2 2 2 2
left_child=-1 2 3 5 6 11 7 -3 12 14 -4 -2 15 -14 -10 -9 -5 -8
right_child=1 4 10 16 -6 -7 17 8 9 -11 -12 -13 13 -15 -16 -17 -18 -19
leaf_value=0.13254751765431447 -0.068529925749225853 0.073564893900563574 0 0.012728736321066665 0.070457665729281249 0 -0.016163490930537729 -0.029169961573355094 0.032791145393790772 0.077473948635237641 0.037514229748553375 0 0.067288645030176383 0 0 0 0 0
leaf_weight=43.148914635181427 137.6673017591238 46.171883314847946 48.985301107168198 48.363330736756325 90.215424254536629 45.969296261668205 30.240227282047272 79.318955153226852 37.462608382105827 34.729450851678848 59.69951656460762 62.655271261930466 29.068869456648827 66.46359683573246 109.66332916915417 29.994592115283012 54.148785918951035 17.233829945325851
leaf_count=112 618 131 234 135 241 166 98 269 103 94 191 237 74 201 330 91 164 50
internal_value=0.0132748 0.00636519 -0.0140089 -0.0266986 0.0259733 -0.0432825 0.0136411 0.0206735 0.00941016 0.025409 0.00952526 -0.0538689 0 0.00977971 0.00016044 -0.0175802 0 -0.0110203
internal_weight=1071.2 1028.05 457.489 348.804 570.563 246.292 480.347 432.873 386.701 181.855 108.685 200.323 204.846 95.5325 147.126 109.314 102.512 47.4741
internal_count=3539 3427 1745 1320 1682 1021 1441 1293 1162 527 425 855 635 275 433 360 299 148
is_linear=0
shrinkage=0.206344


Tree=14
num_leaves=22
num_cat=0
split_feature=14 4 8 7 17 12 17 14 8 17 8 12 17 7 13 8 8 8 8 8 8
split_gain=9.69668 9.86692 4.49411 6.16396 4.59964 4.32469 3.05953 1.95528 3.25898 2.99098 2.7591 1.87762 1.65113 1.32465 0.764469 0.706374 1.7879 2.36339 0.457312 0.168216 0.931138
threshold=1.0000000180025095e-35 1.0000000180025095e-35 120.05000000000001 38.500000000000007 0.16829722002135797 4.5000000000000009 0.21159309440559443 1.5000000000000002 143.45000000000002 0.25676347173144881 127.75000000000001 2.5000000000000004 0.16829722002135797 32.500000000000007 1.0000000180025095e-35 139.05000000000004 123.55000000000001 110.05000000000001 118.45000000000002 129.25000000000003 130.05000000000004
decision_type=2 2 2 2 2 2 2 2 2 2 2 2 2 2 2 2 2 2 2 2 2
left_child=-1 2 3 4 -2 -6 18 8 10 -9 14 -10 -12 19 -4 16 17 -8 -3 -14 -21
right_child=1 6 7 -5 5 -7 15 9 11 -11 12 -13 13 -15 -16 -17 -18 -19 -20 20 -22
leaf_value=0.11091783974985597 0 0 0 -0.022503912664946706 0.069506477674054809 0 0 0 -0.069403445738004887 0.046429036910114123 0 0 0.096048158961530627 0 -0.026264002211976011 -0.036013821031416489 0.027811566357475923 -0.056816310015723105 -0.10375175966223854 0 0.024516641759847056
leaf_weight=41.284214779734612 24.376206114888191 8.913434371352194 37.603494971990585 24.798027008771896 214.56960235536098 46.318177357316017 16.660580232739449 28.091325506567955 45.063124865293503 96.219118058681488 34.218315824866295 23.819350183010101 20.677606821060181 23.215558737516403 91.915626436471939 24.763251036405563 57.404813095927238 40.147480130195618 34.108303852379322 24.837429404258728 103.99024043977261
leaf_count=112 89 58 114 81 591 139 50 105 153 276 128 76 51 71 302 104 214 161 272 78 314
internal_value=0.0110783 0.00514257 0.0161574 0.0363421 0.0480411 0.0571991 -0.0353084 0.000782159 -0.0022345 0.0255421 0.00103142 -0.044928 0.0204119 0.0300711 -0.0155114 -0.00458319 0 -0.0232916 -0.0901322 0.0376771 0.0134048
internal_weight=1063 1021.71 839.713 310.062 285.264 260.888 181.998 529.651 405.341 124.31 336.458 68.8825 206.939 172.721 129.519 138.976 114.213 56.8081 43.0217 149.505 128.828
internal_count=3539 3427 2568 900 819 730 859 1668 1287 381 1058 229 642 514 416 529 425 211 330 443 392
is_linear=0
shrinkage=0.206344


Tree=15
num_leaves=22
num_cat=0
split_feature=17 15 9 8 7 3 7 10 4 9 8 7 9 9 9 9 17 9 9 9 17
split_gain=7.05211 4.72115 4.37232 4.23495 8.19412 3.28583 2.06858 1.31477 1.11176 0.725412 0.631384 0.458899 0.760656 1.36695 0.405156 0.248558 0.119178 0.0845365 0.0141347 0.0438312 0.00246374
threshold=0.40142496392496402 2.5000000000000004 107.50000000000001 112.15000000000002 30.500000000000004 1.0000000180025095e-35 24.500000000000004 1.5000000000000002 1.0000000180025095e-35 124.20000000000002 133.35000000000005 18.500000000000004 123.50000000000001 146.50000000000003 129.50000000000003 133.45000000000002 0.25676347173144881 133.05000000000004 120.50000000000001 118.45000000000002 0.33534094111017193
decision_type=2 2 2 2 2 2 2 2 2 2 2 2 2 2 2 2 2 2 2 2 2
left_child=1 2 -1 4 16 7 11 9 15 18 -8 20 -13 -14 -10 -2 -4 -9 19 -5 -7
right_child=8 -3 3 5 -6 6 10 17 14 -11 -12 12 13 -15 -16 -17 -18 -19 -20 -21 -22
leaf_value=-0.113956837048053 0.048382245527633122 0.090666176746906912 0 0 -0.021575841982477886 0 0.062026049412966675 0 -0.018778646545839071 -0.031402924253053591 0 0 -0.036598766644260233 0 0.018465443467499384 0 0.091911986078675845 0.012885595266467298 0 -0.011091663324446549 0.0057032041674958036
leaf_weight=15.607471391558645 179.61385031044483 20.65287546813488 19.512122765183449 17.442885436117649 23.434681192040443 20.722695857286453 30.065319150686264 15.956868194043635 17.343311429023743 284.61568892747164 25.613406583666801 27.411820948123932 81.106329053640366 18.470897004008293 31.257269233465195 81.94358217716217 54.431668296456337 20.990420073270798 29.294736035168171 19.373914994299412 19.971331477165222
leaf_count=62 501 53 68 60 78 71 88 62 63 1187 76 80 262 56 94 231 147 72 102 70 56
internal_value=0.00780234 -0.000715013 -0.00598642 -0.000861471 0.0354018 -0.00973185 0.00386957 -0.0223781 0.0342263 -0.026697 0.040275 0 -0.0121899 -0.0226325 0 0.0396112 0.0785568 0 0 -0.00400584 0.00370178
internal_weight=1054.83 744.675 724.022 708.415 97.3785 611.036 223.362 387.675 310.158 350.727 55.6787 167.683 126.989 99.5772 48.6006 261.557 73.9438 36.9473 66.1115 36.8168 40.694
internal_count=3539 2650 2597 2535 293 2242 689 1553 889 1419 164 525 398 318 157 732 215 134 232 130 127
is_linear=0
shrinkage=0.206344


Tree=16
num_leaves=23
num_cat=0
split_feature=4 9 9 8 13 8 13 10 9 8 8 16 8 0 8 15 9 8 16 12 8 8
split_gain=4.85892 3.04139 12.2922 1.82287 1.79945 1.8797 1.2589 2.5117 1.21239 1.04928 1.02109 1.81332 1.66007 0.962995 0.905858 0.825325 0.706523 0.422507 0.047787 0.0296521 0.0290016 0.515933
threshold=1.0000000180025095e-35 133.05000000000004 133.45000000000002 137.85000000000005 1.5000000000000002 107.55000000000001 1.0000000180025095e-35 1.0000000180025095e-35 119.05000000000001 135.45000000000002 120.05000000000001 2.5000000000000004 118.65000000000002 1.0000000180025095e-35 115.05000000000001 1.5000000000000002 123.50000000000001 153.15000000000001 1.5000000000000002 1.5000000000000002 144.35000000000005 129.35000000000005
decision_type=2 2 2 2 2 2 2 2 2 2 2 2 2 2 2 2 2 2 2 2 2 2
left_child=1 6 3 -3 5 -2 7 -1 -7 19 12 -12 14 -4 18 17 -9 -15 -8 -10 21 -17
right_child=4 2 13 -5 -6 8 10 16 9 -11 11 -13 -14 15 -16 20 -18 -19 -20 -21 -22 -23
leaf_value=0 0 0.097263693846337346 -0.023460239669412356 0 0 0 0.0063064411332711331 0.065889984801730375 -0.072544457323994199 0 -0.031738729576420502 0 0.043762545340153627 0.01964042146319487 -0.028437266587459264 0 0 0 0 0 0 -0.030052551705716326
leaf_weight=40.67287939786911 12.101763144135473 96.873784318566322 30.615822821855545 17.277117148041725 47.512050420045853 12.94584585726261 50.471608266234398 42.164669707417488 60.572826109826565 29.289240822196007 123.66483615338802 33.114109292626381 36.194310680031776 198.67435047030449 47.065480843186378 16.964359059929848 36.492179274559021 18.460839360952377 30.996697530150414 19.846633091568947 20.644321545958519 25.00249719619751
leaf_count=126 40 278 95 51 200 52 147 109 332 142 399 99 101 640 150 55 109 61 96 102 65 90
internal_value=0.00716212 0.0149078 0.0275174 0.0857969 -0.0193051 -0.032697 0 0.0202095 -0.042695 -0.0500422 -0.00377165 -0.01747 0 0 -0.000605928 0.00920724 0.0443352 0.0164459 0 -0.0629235 0 -0.00538047
internal_weight=1047.62 865.35 424.513 114.151 182.268 134.756 440.837 119.33 122.655 109.709 321.507 156.779 164.728 310.362 128.534 279.746 78.6568 217.135 81.4683 80.4195 62.6112 41.9669
internal_count=3539 2671 1335 329 868 668 1336 344 628 576 992 498 494 1006 393 911 218 701 243 434 210 145
is_linear=0
shrinkage=0.206344


Tree=17
num_leaves=20
num_cat=0
split_feature=14 14 17 11 16 9 13 9 9 13 3 17 16 9 17 13 17 13 9
split_gain=6.35555 5.76989 4.22349 2.63924 3.67586 5.14528 3.34064 3.31568 2.43514 2.03704 1.94407 1.87142 1.55696 1.51892 0.807509 0.776191 0.269955 0.241424 0.00465567
threshold=1.0000000180025095e-35 2.5000000000000004 0.16829722002135797 1.0000000180025095e-35 1.5000000000000002 125.50000000000001 1.0000000180025095e-35 134.50000000000003 129.50000000000003 1.0000000180025095e-35 1.0000000180025095e-35 0.51757543139695261 4.5000000000000009 157.50000000000003 0.33534094111017193 2.5000000000000004 0.21159309440559443 4.5000000000000009 139.50000000000003
decision_type=2 2 2 2 2 2 2 2 2 2 2 2 2 2 2 2 2 2 2
left_child=-1 2 12 6 8 9 -4 -7 10 -6 14 13 17 16 -5 -11 -10 -2 -9
right_child=1 -3 3 4 5 7 -8 18 11 15 -12 -13 -14 -15 -16 -17 -18 -19 -20
leaf_value=0.087941518937944815 -0.050854703879270317 0.099077899278888923 0 -0.028779481240644368 0.027772203672166325 0.076863210512824215 0.078435328037372812 0 0 -0.050354087547600929 0.030079121299048519 0 0 0 0 0 -0.035312400726832865 0 0.0022238825545202257
leaf_weight=38.875573307275772 94.459886059165001 24.399288669228554 31.71976426243782 43.944109164178371 18.931093811988831 78.698663167655468 42.37695799767971 21.826909974217415 24.239367432892323 40.585600234568119 88.375121459364891 43.442903026938438 21.371893636882305 33.842872768640518 64.333785399794579 32.726721733808517 245.41902263462543 12.552055805921553 39.393680669367313
leaf_count=112 458 67 99 175 51 236 121 77 117 139 249 124 96 114 193 98 832 48 133
internal_value=0.00587389 0.000769365 0 0.0034845 0 0.0216122 0.0405058 0.0482864 -0.00936621 0 0.00140673 -0.0208442 -0.0362384 -0.0275405 -0.0048703 -0.031106 -0.0330552 -0.0467904 0
internal_weight=1041.52 1002.64 978.24 849.857 775.76 232.163 74.0967 139.919 543.597 92.2434 196.653 346.944 128.384 303.501 108.278 73.3123 269.658 107.012 61.2206
internal_count=3539 3427 3360 2758 2538 734 220 446 1804 288 617 1187 602 1063 368 237 949 506 210
is_linear=0
shrinkage=0.206344


Tree=18
num_leaves=28
num_cat=0
split_feature=17 14 4 16 16 17 9 9 12 15 8 8 17 9 8 8 8 9 8 8 9 17 17 12 8 17 9
split_gain=4.99814 2.56107 3.106 3.00428 1.84827 1.03348 0.81521 6.41675 2.1377 1.13847 0.874707 3.22619 1.41273 0.772225 0.627169 1.07701 0.754938 0.64117 0.495465 2.48973 1.71404 1.018 2.34332 0.619249 0.318176 0.0583589 0.002261
threshold=0.51757543139695261 1.0000000180025095e-35 1.0000000180025095e-35 4.5000000000000009 5.5000000000000009 0.21159309440559443 133.05000000000004 133.45000000000002 3.5000000000000004 1.5000000000000002 149.95000000000002 132.45000000000002 0.38483522548092092 140.40000000000003 121.55000000000001 139.05000000000004 111.55000000000001 130.50000000000003 114.65000000000002 127.95000000000002 112.50000000000001 0.25676347173144881 0.36835729284445168 2.5000000000000004 118.45000000000002 0.41492342782665365 154.20000000000002
decision_type=2 2 2 2 2 2 2 2 2 2 2 2 2 2 2 2 2 2 2 2 2 2 2 2 2 2 2
left_child=1 -1 3 6 -5 24 8 -8 18 -10 11 12 13 -9 16 17 -7 -16 20 23 -3 -21 -23 25 -4 -20 -12
right_child=-2 2 5 4 -6 14 7 10 9 -11 26 -13 -14 -15 15 -17 -18 -19 19 21 -22 22 -24 -25 -26 -27 -28
leaf_value=0.055624265046172017 0.052126293419655106 0 0 0.082989782996374425 0 0 0.05410722437088257 0.038717827692590322 -0.073960134010722128 0 0 -0.043133503400352532 -0.027424285938933802 0 0.052705486511425953 -0.022830645340693231 -0.04567866701237544 0 -0.04222068841652829 0 0.040372965169043665 0.071380520995078703 0 0 -0.077971134018323687 0 0.0019733834671722774
leaf_weight=34.298355594277382 89.569932840764523 25.005121737718582 8.5235091075301153 30.011310577392578 20.322356253862381 15.445082291960714 94.953721016645432 49.640518039464951 28.821948930621147 22.487196117639542 20.706135138869286 96.383566915988922 22.694051846861839 32.28324131667614 21.304530084133148 22.460012003779411 27.609332680702209 40.649684593081474 76.107571631669998 17.780108124017715 51.973421066999435 28.618756026029587 36.172214686870575 51.127870291471481 29.837386794388294 17.129844889044762 24.033158466219902
leaf_count=102 251 77 58 79 65 49 284 158 103 69 67 346 72 108 77 98 118 161 256 60 144 75 108 156 272 51 75
internal_value=0.00559351 0 -0.000933865 0.00254061 0.0510059 -0.0277492 0 0.00611901 -0.00784919 -0.0466066 -0.0049318 -0.0146415 0 0.0226992 -0.00123508 0 -0.0247981 0.0232258 0 -0.00601642 0.012866 0.00863179 0.0275082 -0.027292 -0.0663741 -0.0378289 0
internal_weight=1035.95 946.38 912.082 746.252 50.3337 165.83 695.918 340.694 355.224 51.3091 245.741 201.001 104.618 81.9238 127.469 84.4142 43.0544 61.9542 303.915 226.936 76.9785 82.5711 64.791 144.365 38.3609 93.2374 44.7393
internal_count=3539 3288 3186 2353 144 833 2209 1110 1099 172 826 684 338 266 503 336 167 238 927 706 221 243 183 463 330 307 142
is_linear=0
shrinkage=0.206344


Tree=19
num_leaves=32
num_cat=0
split_feature=17 9 9 13 13 6 17 9 17 17 17 12 9 9 4 15 12 8 8 8 8 9 12 15 8 13 8 9 8 8 8
split_gain=3.30438 2.78405 6.08973 3.61681 3.57714 2.84652 2.38874 2.0115 1.7637 3.56314 1.26855 2.99238 1.66463 3.0488 1.24842 0.902943 0.86644 1.03625 0.625221 0.505309 0.871332 3.37376 0.425448 0.250373 1.2326 0.5374 0.439698 0.203037 0.0590477 0.0371478 0.197527
threshold=0.33534094111017193 131.50000000000003 133.45000000000002 1.0000000180025095e-35 1.5000000000000002 1.0000000180025095e-35 0.32336049196526956 125.50000000000001 0.51757543139695261 0.36835729284445168 0.16829722002135797 4.5000000000000009 136.50000000000003 142.50000000000003 1.0000000180025095e-35 1.5000000000000002 1.0000000180025095e-35 118.45000000000002 129.85000000000005 120.75000000000001 130.75000000000003 134.50000000000003 1.5000000000000002 1.5000000000000002 146.05000000000004 1.0000000180025095e-35 130.05000000000004 145.35000000000002 148.55000000000004 126.85000000000001 136.85000000000005
decision_type=2 2 2 2 2 2 2 2 2 2 2 2 2 2 2 2 2 2 2 2 2 2 2 2 2 2 2 2 2 2 2
left_child=6 3 4 5 18 -2 10 -7 9 -5 12 14 16 -14 19 -13 -1 -18 -3 -12 22 -22 -21 25 -25 -4 -27 -23 -28 -16 -31
right_child=1 2 23 8 -6 7 -8 -9 -10 -11 11 15 13 -15 29 -17 17 -19 -20 20 21 27 -24 24 -26 26 28 -29 -30 30 -32
leaf_value=0 0 0.025521151732177807 0 0 0.13806949023098128 0.084047116586853141 -0.048198918372068217 0 0 -0.047353935452000957 0.05374574659581887 -0.058771946792442284 0.052019251253225693 -0.040885802783511324 -0.0077660729034358172 0 0 -0.071568527659475356 0 -0.022952807883196664 0.088669678074829367 -0.01888923434298646 0 -0.046952338762424842 0 0 0.033689701451606366 0 0 0.021753313389962382 0
leaf_weight=16.310181222856045 19.612773656845093 41.981285631656647 49.473269119858742 44.999447643756866 34.507482886314392 44.752097621560097 50.335537970066071 20.541324093937874 32.42584140598774 118.23052641749382 61.296867802739143 20.851627886295319 30.856787584722042 25.904116004705429 25.537306033074856 19.94756093621254 18.646130479872227 36.874494500458241 16.934867784380913 33.696563929319382 22.375440061092377 23.541145518422127 28.065829902887344 23.118650153279305 15.489283323287962 34.599080696702003 47.574352845549583 19.932862177491188 22.843530669808388 17.08543894439936 10.700963445007799
leaf_count=64 60 130 152 136 97 119 169 64 93 383 175 85 129 140 141 68 79 197 54 117 60 93 87 78 44 109 139 64 74 81 58
internal_value=0.00419265 0.0158128 0.0301168 0 0.0743181 0.036517 -0.00603074 0.0597222 -0.0142476 -0.0264816 0 0.00689948 -0.0177009 0 0.0207865 -0.0294387 -0.0391908 -0.0513608 0.00443234 0.0288783 0.00212939 0.0237974 0 0 0 0.00828839 0.0178133 0 0.027111 0 0
internal_weight=1029.04 567.084 286.522 280.562 93.4236 84.9062 461.959 65.2934 195.656 163.23 411.623 283.032 128.592 56.7609 242.232 40.7992 71.8308 55.5206 58.9162 188.909 127.612 65.8494 61.7624 193.098 38.6079 154.49 105.017 43.474 70.4179 53.3237 27.7864
internal_count=3539 1732 877 855 281 243 1807 183 612 519 1638 1029 609 269 876 153 340 276 184 596 421 217 204 596 122 474 322 157 213 280 139
is_linear=0
shrinkage=0.206344


end of trees

feature_importances:
admission_grade=78
previous_qualification_grade=70
course_encoded=64
age_at_enrollment=39
fathers_qualification_level=29
mothers_qualification_level=24
gender=18
application_order=16
scholarship_holder=15
mothers_occupation_level=11
fathers_occupation_level=11
application_mode_risk=8
daytimeevening_attendance=4
is_single=3
previous_qualification_risk=2
displaced=1

parameters:
[boosting: gbdt]
[objective: binary]
[metric: binary_logloss]
[tree_learner: serial]
[device_type: cpu]
[data_sample_strategy: bagging]
[data: ]
[valid: ]
[num_iterations: 20]
[learning_rate: 0.206344]
[num_leaves: 106]
[num_threads: 22]
[seed: 42]
[deterministic: 0]
[force_col_wise: 0]
[force_row_wise: 0]
[histogram_pool_size: -1]
[max_depth: 10]
[min_data_in_leaf: 53]
[min_sum_hessian_in_leaf: 0.001]
[bagging_fraction: 0.974589]
[pos_bagging_fraction: 1]
[neg_bagging_fraction: 1]
[bagging_freq: 0]
[bagging_seed: 400]
[bagging_by_query: 0]
[feature_fraction: 0.63679]
[feature_fraction_bynode: 1]
[feature_fraction_seed: 30056]
[extra_trees: 0]
[extra_seed: 12879]
[early_stopping_round: 0]
[early_stopping_min_delta: 0]
[first_metric_only: 0]
[max_delta_step: 0]
[lambda_l1: 9.06559]
[lambda_l2: 0.687463]
[linear_lambda: 0]
[min_gain_to_split: 0]
[drop_rate: 0.1]
[max_drop: 50]
[skip_drop: 0.5]
[xgboost_dart_mode: 0]
[uniform_drop: 0]
[drop_seed: 17869]
[top_rate: 0.2]
[other_rate: 0.1]
[min_data_per_group: 100]
[max_cat_threshold: 32]
[cat_l2: 10]
[cat_smooth: 10]
[max_cat_to_onehot: 4]
[top_k: 20]
[monotone_constraints: ]
[monotone_constraints_method: basic]
[monotone_penalty: 0]
[feature_contri: ]
[forcedsplits_filename: ]
[refit_decay_rate: 0.9]
[cegb_tradeoff: 1]
[cegb_penalty_split: 0]
[cegb_penalty_feature_lazy: ]
[cegb_penalty_feature_coupled: ]
[path_smooth: 0]
[interaction_constraints: ]
[verbosity: -1]
[saved_feature_importance_type: 0]
[use_quantized_grad: 0]
[num_grad_quant_bins: 4]
[quant_train_renew_leaf: 0]
[stochastic_rounding: 1]
[linear_tree: 0]
[max_bin: 255]
[max_bin_by_feature: ]
[min_data_in_bin: 3]
[bin_construct_sample_cnt: 200000]
[data_random_seed: 175]
[is_enable_sparse: 1]
[enable_bundle: 1]
[use_missing: 1]
[zero_as_missing: 0]
[feature_pre_filter: 1]
[pre_partition: 0]
[two_round: 0]
[header: 0]
[label_column: ]
[weight_column: ]
[group_column: ]
[ignore_column: ]
[categorical_feature: ]
[forcedbins_filename: ]
[precise_float_parser: 0]
[parser_config_file: ]
[objective_seed: 16083]
[num_class: 1]
[is_unbalance: 0]
[scale_pos_weight: 2.33613]
[sigmoid: 1]
[boost_from_average: 1]
[reg_sqrt: 0]
[alpha: 0.9]
[fair_c: 1]
[poisson_max_delta_step: 0.7]
[tweedie_variance_power: 1.5]
[lambdarank_truncation_level: 30]
[lambdarank_norm: 1]
[label_gain: ]
[lambdarank_position_bias_regularization: 0]
[eval_at: ]
[multi_error_top_k: 1]
[auc_mu_weights: ]
[num_machines: 1]
[local_listen_port: 12400]
[time_out: 120]
[machine_list_filename: ]
[machines: ]
[gpu_platform_id: -1]
[gpu_device_id: -1]
[gpu_use_dp: 0]
[num_gpu: 1]

end of parameters

pandas_categorical:[]
