tree
version=v4
num_class=1
num_tree_per_iteration=1
label_index=0
max_feature_idx=34
objective=binary sigmoid:1
feature_names=daytimeevening_attendance displaced educational_special_needs gender scholarship_holder international is_single age_at_enrollment admission_grade previous_qualification_grade application_mode_risk previous_qualification_risk mothers_qualification_level fathers_qualification_level mothers_occupation_level fathers_occupation_level application_order debtor tuition_fees_up_to_date curricular_units_1st_sem_credited curricular_units_1st_sem_enrolled curricular_units_1st_sem_evaluations curricular_units_1st_sem_approved curricular_units_1st_sem_grade curricular_units_1st_sem_without_evaluations unemployment_rate inflation_rate gdp curricular_units_2nd_sem_credited curricular_units_2nd_sem_enrolled curricular_units_2nd_sem_evaluations curricular_units_2nd_sem_approved curricular_units_2nd_sem_grade curricular_units_2nd_sem_without_evaluations course_encoded
feature_infos=[0:1] [0:1] none [0:1] [0:1] [0:1] [0:1] [17:62] [95:190] [95:190] [0:2] [0:2] [0:5] [0:5] [0:3] [0:3] [0:9] [0:1] [0:1] [0:20] [0:26] [0:45] [0:26] [0:18] [0:12] [7.5999999999999996:16.199999999999999] [-0.80000000000000004:3.7000000000000002] [-4.0599999999999996:3.5099999999999998] [0:19] [0:23] [0:33] [0:20] [0:18.571428571428573] [0:12] [0.14778325123152711:0.56140350877192979]
tree_sizes=1920 1434 1521 1735 1201 1610 1386 1969 1952 2143 2107 1765 1954 1857 2096 2123 2384 1976 1921 1827 1846 2246 2712 2557 1962 2252 2023 2289

Tree=0
num_leaves=17
num_cat=0
split_feature=32 22 32 20 17 7 7 34 3 22 22 30 30 22 22 34
split_gain=1267.57 178.979 105.087 118.783 85.0062 30.7808 21.7965 16.2766 8.12387 6.77866 5.72365 4.67208 3.3907 1.38476 1.11974 0.070295
threshold=11.03846153846154 4.5000000000000009 10.083333333333334 1.0000000180025095e-35 1.0000000180025095e-35 22.500000000000004 22.500000000000004 0.464387367850366 1.0000000180025095e-35 4.5000000000000009 5.5000000000000009 8.5000000000000018 9.5000000000000018 6.5000000000000009 6.5000000000000009 0.33534094111017193
decision_type=2 2 2 2 2 2 2 2 2 2 2 2 2 2 2 2
left_child=2 5 3 -1 6 8 7 -3 12 -4 -6 13 -2 -8 -13 -16
right_child=1 4 9 -5 10 -7 11 -9 -10 -11 -12 14 -14 -15 15 -17
leaf_value=-0.65569198500117454 -0.8179555286407435 -0.95994078841995722 -0.53926718301527887 -0.21021854662325923 -0.55784273047499577 -0.50624821446516199 -0.88706229903242362 -0.74790850888939275 -0.65003155134497681 -0.73988153036587156 -0.74790850888939275 -0.74665671793543498 -0.74790850888939275 -0.74790850888939275 -0.8023928637048009 -0.74790850888939275
leaf_weight=37.326506823301315 26.983344107866287 313.68043452501297 43.462409451603889 191.14253737032413 14.912292510271071 45.435024276375771 31.072385311126709 14.772087484598158 30.120496302843094 27.537679299712181 25.521092191338539 23.340510651469231 16.232536137104034 12.853536382317541 12.919494807720186 15.862378254532812
leaf_count=146 117 1403 162 623 54 167 138 61 117 111 104 94 65 54 57 66
internal_value=-0.672346 -0.839607 -0.343503 -0.27472 -0.896081 -0.632286 -0.923425 -0.950493 -0.735503 -0.593948 -0.650121 -0.812951 -0.765117 -0.86133 -0.747909 -0.785106
internal_weight=883.175 583.706 299.469 228.469 464.934 118.771 424.501 328.453 73.3364 71.0001 40.4334 96.0483 43.2159 43.9259 52.1224 28.7819
internal_count=3539 2497 1042 769 2031 466 1873 1464 299 273 158 409 182 192 217 123
is_linear=0
shrinkage=1


Tree=1
num_leaves=13
num_cat=0
split_feature=31 18 31 20 34 7 32 31 28 7 20 32
split_gain=1002.61 181.882 37.9305 48.8571 22.7721 11.6319 7.01293 6.55924 3.03452 1.05781 0.133284 0.0740442
threshold=3.5000000000000004 1.0000000180025095e-35 2.5000000000000004 1.0000000180025095e-35 0.41492342782665365 19.500000000000004 12.225396825396826 4.5000000000000009 3.5000000000000004 21.500000000000004 5.5000000000000009 11.573214285714288
decision_type=2 2 2 2 2 2 2 2 2 2 2 2
left_child=2 -2 3 -1 7 -4 11 9 -9 10 -3 -6
right_child=1 4 5 -5 6 -7 -8 8 -10 -11 -12 -13
leaf_value=0.072821014404470252 0.29529281379305428 -0.092079938325762584 0 0.37166937878645484 0.019446665125347633 0.17882077666295021 -0.080087105386951143 -0.19063707771537017 -0.044206427005677396 0 0 0
leaf_weight=38.505144745111465 34.306603267788887 15.94740219414234 21.904783055186272 268.22053238749504 16.910451412200931 41.465410381555557 48.555932030081749 321.21409447491169 35.239244416356087 14.140047103166578 19.137134373188019 14.546213507652281
leaf_count=146 120 72 89 799 66 149 216 1528 156 56 82 60
internal_value=0.0593819 -0.114973 0.30739 0.339869 -0.14842 0.120491 -0.0270103 -0.168421 -0.180704 -0.0463392 -0.0635747 0.0115109
internal_weight=890.093 519.997 370.096 306.726 485.691 63.3702 80.0126 405.678 356.453 49.2246 35.0845 31.4567
internal_count=3539 2356 1183 945 2236 238 342 1894 1684 210 154 126
is_linear=0
shrinkage=0.19718


Tree=2
num_leaves=14
num_cat=0
split_feature=32 18 7 32 20 18 17 30 20 7 30 32 20
split_gain=498.485 169.013 41.2438 30.6029 33.6962 12.768 8.21234 7.14651 3.4605 3.24676 1.53027 0.643327 0.0530624
threshold=11.03846153846154 1.0000000180025095e-35 23.500000000000004 1.0000000180025095e-35 1.0000000180025095e-35 1.0000000180025095e-35 1.0000000180025095e-35 9.5000000000000018 10.500000000000002 20.500000000000004 8.5000000000000018 11.670833333333336 5.5000000000000009
decision_type=2 2 2 2 2 2 2 2 2 2 2 2 2
left_child=3 -2 6 4 -1 -5 10 12 -9 -7 -3 -12 -4
right_child=1 2 7 5 -6 9 -8 8 -10 -11 11 -13 -14
leaf_value=0.058037594593456331 0.27150251842485601 -0.16983577100255615 0 0.27071919097711694 0.31713895200397074 0 0 0.077510604522589885 0 0.088633422236075649 0 -0.099619888535974949 -0.062959163017416012
leaf_weight=39.355823904275894 47.185101732611656 213.21259024739265 28.102763265371323 18.237824842333794 196.88522726297379 41.274760112166405 22.023499980568886 39.394914999604225 18.127626895904541 36.69738395512104 22.373072147369385 110.70275212824345 38.176524773240089
leaf_count=146 150 1100 113 53 558 157 93 150 78 128 100 535 178
internal_value=0.0477501 -0.0671898 -0.103929 0.237664 0.281276 0.110975 -0.136852 0 0.0442966 0.0476288 -0.144311 -0.0900221 -0.0481447
internal_weight=871.75 539.299 492.114 332.451 236.241 96.21 368.312 123.802 57.5225 77.9721 346.288 133.076 66.2793
internal_count=3539 2497 2347 1042 704 338 1828 519 228 285 1735 635 291
is_linear=0
shrinkage=0.19718


Tree=3
num_leaves=16
num_cat=0
split_feature=31 18 18 20 31 34 22 22 20 31 20 24 13 20 32
split_gain=493.754 84.0408 17.9764 20.1605 32.7682 17.539 5.10314 4.53778 4.25435 11.7051 3.78934 3.4677 2.1587 0.796397 0.603772
threshold=3.5000000000000004 1.0000000180025095e-35 1.0000000180025095e-35 1.0000000180025095e-35 1.5000000000000002 0.41492342782665365 4.5000000000000009 4.5000000000000009 5.5000000000000009 5.5000000000000009 5.5000000000000009 1.0000000180025095e-35 3.5000000000000004 6.5000000000000009 12.392857142857144
decision_type=2 2 2 2 2 2 2 2 2 2 2 2 2 2 2
left_child=2 14 -1 -4 -5 6 10 -6 -7 -10 -3 12 -8 -14 -2
right_child=1 5 3 4 7 8 11 -9 9 -11 -12 -13 13 -15 -16
leaf_value=0.30629770304222897 0.22120595087769096 -0.085558471014336973 0 0.24998587978495446 0.092194986979748553 -0.073701026996604843 -0.16328445589064633 0 0.12980044438511887 -0.046951149890616065 0 0 -0.047373174943254645 0 0.0067290239744943817
leaf_weight=100.34509591758251 20.806891679763794 23.275149539113045 33.860154032707214 146.29288287460804 65.493813037872314 28.948368549346924 264.3705817759037 23.192897021770477 20.486596643924713 27.094838127493858 25.850060790777206 15.837952762842177 15.582092165946962 12.97393426299095 17.650030106306076
leaf_count=294 61 110 127 441 227 129 1447 94 83 130 108 80 84 65 59
internal_value=0.0400856 -0.0909921 0.211399 0.167895 0.188424 -0.117937 -0.136874 0.0664083 -0.00912091 0.00261009 -0.0286402 -0.148965 -0.154388 -0.0178642 0.165454
internal_weight=842.061 472.876 369.185 268.84 234.98 434.42 357.89 88.6867 76.5298 47.5814 49.1252 308.765 292.927 28.556 38.4569
internal_count=3539 2356 1183 889 762 2236 1894 321 342 213 218 1676 1596 149 120
is_linear=0
shrinkage=0.19718


Tree=4
num_leaves=11
num_cat=0
split_feature=22 18 32 4 21 17 19 10 22 22
split_gain=278.743 83.6159 28.6186 18.4228 12.2248 9.33123 2.9461 2.87054 0.732135 0.489962
threshold=3.5000000000000004 1.0000000180025095e-35 11.03846153846154 1.0000000180025095e-35 13.500000000000002 1.0000000180025095e-35 3.5000000000000004 1.5000000000000002 4.5000000000000009 6.5000000000000009
decision_type=2 2 2 2 2 2 2 2 2 2
left_child=3 -2 8 -1 5 6 7 -4 -3 -6
right_child=1 2 4 -5 9 -7 -8 -9 -10 -11
leaf_value=0.19836139453790988 0.17120511816590636 0.055282558806858222 -0.13530664151679245 0 0.030874291291734791 0 0 0 0 -0.012468462714111771
leaf_weight=277.28599458932877 50.444867551326752 22.929169774055481 287.22079540789127 28.535438433289528 12.896834239363669 25.991268515586853 15.78927470743656 26.878076165914536 31.20838950574398 24.53816232085228
leaf_count=920 157 78 1645 106 54 114 78 143 127 117
internal_value=0.0342553 -0.0544705 -0.0840505 0.182717 -0.103513 -0.114714 -0.123607 -0.12807 0.0295882 0
internal_weight=803.718 497.897 447.452 305.821 393.314 355.879 329.888 314.099 54.1376 37.435
internal_count=3539 2513 2356 1026 2151 1980 1866 1788 205 171
is_linear=0
shrinkage=0.19718


Tree=5
num_leaves=15
num_cat=0
split_feature=22 18 18 7 34 29 7 23 23 7 23 30 23 20
split_gain=198.115 39.3886 32.8284 21.9003 20.2722 16.1452 5.41214 4.51858 2.78414 2.75071 2.06961 1.79502 1.19864 0.572666
threshold=4.5000000000000009 1.0000000180025095e-35 1.0000000180025095e-35 23.500000000000004 0.41492342782665365 5.5000000000000009 44.500000000000007 10.992857142857146 12.398333333333335 18.500000000000004 12.267857142857144 8.5000000000000018 15.43888888888889 13.500000000000002
decision_type=2 2 2 2 2 2 2 2 2 2 2 2 2 2
left_child=2 10 -1 5 6 7 12 9 -7 -4 -2 -6 13 -3
right_child=1 4 3 -5 11 8 -8 -9 -10 -11 -12 -13 -14 -15
leaf_value=0.24424581661584732 0.15388286556728142 -0.12224664592487468 -0.003124626840281293 0.16328859677690491 -0.019023282300713949 0.12090579881836905 0 -0.063173351746296375 0 0.049595969021286192 0 0.040581845438492289 0 0
leaf_weight=90.333705484867096 19.099324330687523 260.02048186957836 18.74773271381855 107.36431436240673 31.774677336215973 63.649332642555237 9.1726720929145795 39.195397511124611 16.09519636631012 44.76268807053566 17.715695708990097 32.158887833356857 10.500930503010748 11.71562874317169
leaf_count=297 58 1604 71 366 163 227 44 174 65 159 59 134 63 55
internal_value=0.0288669 -0.0667895 0.131179 0.0889956 -0.0893492 0.0355912 -0.111352 -0.00340689 0.102221 0.0122279 0.104939 0 -0.116349 -0.119269
internal_weight=772.307 392.158 380.148 289.815 355.343 182.45 291.41 102.706 79.7445 63.5104 36.815 63.9336 282.237 271.736
internal_count=3539 2180 1359 1062 2063 696 1766 404 292 230 117 297 1722 1659
is_linear=0
shrinkage=0.19718


Tree=6
num_leaves=13
num_cat=0
split_feature=31 17 30 20 31 31 19 22 32 21 31 7
split_gain=205.897 30.2087 19.7089 14.5869 14.5141 11.5244 11.4447 7.1798 5.52378 4.03594 1.44849 0.386679
threshold=3.5000000000000004 1.0000000180025095e-35 9.5000000000000018 1.0000000180025095e-35 1.5000000000000002 5.5000000000000009 3.5000000000000004 5.5000000000000009 11.835416666666669 10.500000000000002 5.5000000000000009 19.500000000000004
decision_type=2 2 2 2 2 2 2 2 2 2 2 2
left_child=3 2 6 11 -5 -3 -2 9 -9 -4 -10 -1
right_child=1 5 7 4 -6 -7 -8 8 10 -11 -12 -13
leaf_value=0 -0.12704975573543198 0.14472522982025221 0 0.20052203975957492 0.075273701311408009 0 0 0 0 0.095436390204570759 -0.1041785236420629 0.027389342536786293
leaf_weight=24.267980933189392 241.78719924390316 28.152632504701614 19.482000663876534 176.63167476654053 110.26929275691509 20.271444454789162 9.0484987348318082 18.282558217644691 10.653973296284674 23.541791811585426 40.636248901486397 17.387691080570221
leaf_count=88 1558 99 93 646 391 92 41 87 59 92 235 58
internal_value=0.0251594 -0.0651305 -0.0864454 0.142411 0.158611 0.0621306 -0.117516 -0.00331114 -0.0524568 0.0422842 -0.0875535 0
internal_weight=740.413 411.856 363.432 328.557 286.901 48.4241 250.836 112.597 69.5728 43.0238 51.2902 41.6557
internal_count=3539 2356 2165 1183 1037 191 1599 566 381 185 294 146
is_linear=0
shrinkage=0.19718


Tree=7
num_leaves=19
num_cat=0
split_feature=22 18 14 32 7 29 3 21 32 30 8 32 7 29 22 7 32 22
split_gain=97.9338 35.2236 14.8482 13.7785 11.8944 13.0216 5.93242 4.81123 3.01226 2.12517 0.883147 3.40603 0.70299 0.532043 0.623033 0.456378 0.409694 0.153751
threshold=3.5000000000000004 1.0000000180025095e-35 1.0000000180025095e-35 11.340238095238098 20.500000000000004 5.5000000000000009 1.0000000180025095e-35 14.500000000000002 12.831041666666669 8.5000000000000018 136.35000000000005 10.890109890109892 18.500000000000004 5.5000000000000009 4.5000000000000009 22.500000000000004 10.225000000000001 5.5000000000000009
decision_type=2 2 2 2 2 2 2 2 2 2 2 2 2 2 2 2 2 2
left_child=4 8 -3 13 5 10 7 -5 -2 12 11 -1 -8 -4 -15 17 -7 -11
right_child=1 2 3 6 -6 16 9 -9 -10 15 -12 -13 -14 14 -16 -17 -18 -19
leaf_value=0.062044150233460757 0.15214804253195602 0.11324451629975489 0 -0.11052333890211098 0.15820991854814648 0.15702152863810501 0 0 0 0 -0.036545130723829818 -0.013904247329248767 -0.060541084091919162 0.046410790265880041 0 0.027774380747279698 0 -0.01892292554146556
leaf_weight=31.368790164589882 30.714146539568901 11.096944607794283 14.642897918820379 202.82284336537123 152.94090060889721 28.83155919611454 10.705556668341158 16.035541564226151 16.51772652566433 12.080807954072954 21.229685872793198 17.52018316090107 34.990124270319939 18.196577399969101 35.487066015601158 20.348747536540031 15.39374767243862 14.041235715150831
leaf_count=113 101 52 64 1398 590 116 76 74 56 60 82 72 224 64 166 89 53 89
internal_value=0.0221751 -0.0326504 -0.054872 -0.0644052 0.116858 0.0466002 -0.0822155 -0.102404 0.114614 -0.017188 0 0.00688066 -0.0478366 0 0.019162 0 0.127356 0
internal_weight=704.965 437.68 390.448 379.351 267.285 114.344 311.025 218.858 47.2319 92.1665 70.1187 48.889 45.6957 68.3265 53.6836 46.4708 44.2253 26.122
internal_count=3539 2513 2356 2304 1026 436 2010 1472 157 538 267 185 300 294 230 238 169 149
is_linear=0
shrinkage=0.19718


Tree=8
num_leaves=19
num_cat=0
split_feature=31 18 31 29 13 18 29 22 34 30 34 23 32 26 32 3 32 9
split_gain=113.324 24.0269 16.9793 16.3587 14.093 11.8928 7.75778 5.53768 5.20217 3.32808 2.09418 4.87357 2.77673 1.93524 1.11046 0.932834 0.243373 0.17489
threshold=4.5000000000000009 1.0000000180025095e-35 2.5000000000000004 1.0000000180025095e-35 1.5000000000000002 1.0000000180025095e-35 5.5000000000000009 4.5000000000000009 0.35554587688734035 14.500000000000002 0.28652253661694499 13.320714285714288 14.573214285714288 -0.54999999999999993 11.154761904761907 1.0000000180025095e-35 11.904545454545456 129.50000000000003
decision_type=2 2 2 2 2 2 2 2 2 2 2 2 2 2 2 2 2 2
left_child=1 -1 3 -3 5 -2 17 13 16 14 12 -12 15 -5 -7 -6 -8 -4
right_child=4 2 6 7 10 9 8 -9 -10 -11 11 -13 -14 -15 -16 -17 -18 -19
leaf_value=0.19527182090288422 0.001111558711516812 0 0 0 -0.078609980071074559 0 -0.023414765238228882 0 0.097787935302975276 0 0.073833292131487926 -0.010777495872866963 0 0.15152954877465635 -0.12215436426687469 0 0 -0.073820897067606528
leaf_weight=82.646323412656784 14.410918891429899 35.368682682514191 22.98831932246685 15.673386722803114 30.477636188268661 9.3520384281873685 14.606055825948717 13.762365803122519 32.546488121151924 12.709132716059683 35.468537591397762 19.614478804171085 8.2514285519719106 110.15490525960922 166.77564923465252 9.7419287562370283 13.387199506163595 29.292212389409542
leaf_count=336 48 127 99 64 233 44 63 52 128 60 190 125 60 441 1223 58 59 129
internal_value=0.0195986 0.0943607 0.0587804 0.0967816 -0.065934 -0.0958897 0 0.12715 0.0461063 -0.110912 0 0.0190338 -0.0344018 0.139909 -0.117897 -0.0626849 0 -0.0551838
internal_weight=677.228 370.426 287.78 174.959 306.802 203.248 112.82 139.591 60.5397 188.837 103.554 55.083 48.471 125.828 176.128 40.2196 27.9933 52.2805
internal_count=3539 1498 1162 684 2041 1375 478 557 250 1327 666 315 351 505 1267 291 122 228
is_linear=0
shrinkage=0.19718


Tree=9
num_leaves=21
num_cat=0
split_feature=31 31 20 18 20 20 31 13 34 34 32 32 28 32 9 9 8 27 32 34
split_gain=80.4389 18.3129 20.7459 9.38579 8.41861 8.13621 13.5728 7.23194 3.38561 2.68067 1.5265 1.27555 1.34302 2.9994 0.757736 0.705386 0.672668 0.473986 0.65946 0.131059
threshold=3.5000000000000004 5.5000000000000009 5.5000000000000009 1.0000000180025095e-35 6.5000000000000009 1.0000000180025095e-35 1.5000000000000002 1.5000000000000002 0.464387367850366 0.41492342782665365 11.392307692307694 12.400714285714288 3.5000000000000004 14.573214285714288 137.50000000000003 125.50000000000001 136.05000000000004 -2.4099999999999997 10.775000000000002 0.28652253661694499
decision_type=2 2 2 2 2 2 2 2 2 2 2 2 2 2 2 2 2 2 2 2
left_child=3 2 10 -1 9 16 -7 8 -3 14 -2 19 13 -13 15 -4 -5 -8 -19 -9
right_child=1 7 4 5 -6 6 17 11 -10 -11 -12 12 -14 -15 -16 -17 -18 18 -20 -21
leaf_value=0.17896412745721438 0 -0.12135959711887068 0 0 0.17119526625854509 0.13215040779550241 0 0 0 0.075076690605938662 -0.093423572909866234 -0.081688626780380913 0 0 -0.040122543375454629 0.032121747808993135 -0.036741794805171209 0 0.028761058012323221 0.018769268463663859
leaf_weight=62.78242501616478 12.695692300796507 117.22243720293045 26.226092614233494 18.64832878112793 21.215491913259029 98.943531572818756 18.056826397776604 9.1138313040137309 7.2590874284505835 17.19735449552536 53.037430621683598 30.487266406416893 8.5324992388486844 9.7047355398535711 15.614795073866842 23.978109538555145 16.720353901386261 15.736062243580816 53.363113850355148 11.811342798173426
leaf_count=294 56 937 143 63 89 441 68 66 33 72 326 241 42 72 91 130 64 56 197 58
internal_value=0.0165979 -0.0418865 0 0.0963485 0.0596164 0.0645028 0.0813397 -0.0829942 -0.113366 0.00945737 -0.0789923 -0.00613396 -0.0319096 -0.0493936 0 0.00100003 0 0.00502559 0.0169837 0
internal_weight=648.347 364.096 169.965 284.251 104.232 221.468 186.1 194.131 124.482 83.0164 65.7331 69.6497 48.7245 40.192 65.819 50.2042 35.3687 87.156 69.0992 20.9252
internal_count=3539 2356 907 1183 525 889 762 1449 970 436 382 479 355 313 364 273 127 321 253 124
is_linear=0
shrinkage=0.19718


Tree=10
num_leaves=21
num_cat=0
split_feature=18 32 7 20 27 4 21 8 22 8 13 23 21 7 23 21 27 8 7 22
split_gain=46.0521 26.929 14.0161 13.1181 10.1726 5.1414 4.03919 3.52382 3.91296 3.90891 1.22395 2.39441 1.86935 1.58984 0.737004 0.6386 0.612304 0.589187 0.556033 0.372536
threshold=1.0000000180025095e-35 1.0000000180025095e-35 22.500000000000004 1.5000000000000002 1.9050000000000002 1.0000000180025095e-35 6.5000000000000009 144.35000000000005 6.5000000000000009 115.25000000000001 4.5000000000000009 12.173333333333334 6.5000000000000009 20.500000000000004 11.945000000000002 12.500000000000002 -2.4099999999999997 136.05000000000004 18.500000000000004 2.5000000000000004
decision_type=2 2 2 2 2 2 2 2 2 2 2 2 2 2 2 2 2 2 2 2
left_child=4 3 10 17 -1 6 -4 8 9 -8 11 13 -13 14 19 -14 -5 -2 -12 -3
right_child=1 2 5 16 -6 -7 7 -9 -10 -11 18 12 15 -15 -16 -17 -18 -19 -20 -21
leaf_value=0.17584228362523127 0 0 0 0 0 -0.059636746479836189 0 0 0 0.13029613438757104 0.013433106427062502 0 -0.098283735839147554 0 0 0 0.14409049905261972 -0.034050787182499397 -0.028362694741630067 -0.048738860593434907
leaf_weight=71.859301775693893 19.209238857030869 10.315823897719381 13.088645800948141 15.354391083121298 19.310117468237877 15.42000290751457 20.432691127061844 14.908181920647619 29.597148403525352 42.115158013999462 10.206648401916029 31.762649953365326 113.46567232906818 22.692127250134945 17.827631272375584 9.6511616483330709 55.492842420935631 17.104132071137428 21.336250141263008 51.415328428149223
leaf_count=330 66 38 73 77 84 94 84 76 153 178 65 277 897 109 114 54 283 67 123 297
internal_value=0.0145646 -0.00524187 -0.0301587 0.078308 0.142622 0.0137816 0.0363073 0.0539164 0.0693497 0.0965706 -0.0557964 -0.060617 -0.0806305 -0.0149628 -0.0322111 -0.0933864 0.126889 0 0 -0.0420702
internal_weight=622.565 531.396 424.235 107.161 91.1694 135.562 120.142 107.053 92.145 62.5478 288.673 257.13 154.879 102.251 79.5588 123.117 70.8472 36.3134 31.5429 61.7312
internal_count=3539 3125 2632 493 414 658 564 491 415 262 1974 1786 1228 558 449 951 360 133 188 335
is_linear=0
shrinkage=0.19718


Tree=11
num_leaves=17
num_cat=0
split_feature=18 34 7 23 23 29 22 34 23 7 15 23 34 25 23 23
split_gain=33.7058 18.6844 11.8181 8.46402 6.91906 8.69904 4.22171 4.2798 3.58621 1.44141 0.753627 0.240311 0.140677 0.0449593 0.0624159 0.00133448
threshold=1.0000000180025095e-35 0.40142496392496402 22.500000000000004 10.083333333333334 12.205263157894739 5.5000000000000009 5.5000000000000009 0.36835729284445168 13.110555555555557 31.500000000000004 1.5000000000000002 14.846428571428573 0.28652253661694499 12.550000000000002 12.595625000000002 13.83809523809524
decision_type=2 2 2 2 2 2 2 2 2 2 2 2 2 2 2 2
left_child=8 2 3 -2 5 -3 7 -4 -1 12 11 -5 -8 14 -6 -12
right_child=1 4 6 10 13 -7 9 -9 -10 -11 15 -13 -14 -15 -16 -17
leaf_value=0.14324139370325437 0 0 0.089519129372088738 -0.084253148050867616 0 0.1355535962865323 0 0 0 -0.053139106275759525 -0.0012892636129459801 0 0.018825138668034105 0.0037105438982663842 -0.010718612326953909 0
leaf_weight=71.57559210062027 54.814479678869247 42.001310810446739 41.26630237698555 161.63052009791136 10.808670684695242 50.798997282981873 12.805912829935552 16.349722534418106 13.225476771593092 17.920240990817547 28.561224237084389 9.5955254808068258 12.780758507549761 19.600921429693699 31.017282709479332 8.5698208808898908
leaf_count=362 230 195 191 1254 52 233 84 79 52 113 190 87 66 100 180 71
internal_value=0.0117778 -0.00458054 -0.031428 -0.0548061 0.0488874 0.0821355 0.0150386 0.055487 0.125781 -0.00666789 -0.0730994 -0.0815667 0 0 -0.00569308 0
internal_weight=603.323 518.522 364.295 263.172 154.227 92.8003 101.123 57.616 84.8011 43.5069 208.357 171.226 25.5867 61.4269 41.826 37.131
internal_count=3539 3125 2365 1832 760 428 533 270 414 263 1602 1341 150 332 232 261
is_linear=0
shrinkage=0.19718


Tree=12
num_leaves=19
num_cat=0
split_feature=32 4 29 18 30 3 26 25 8 29 22 8 8 13 25 32 21 22
split_gain=28.2443 13.9946 11.7534 8.89737 6.47718 4.12913 4.12133 3.98479 2.86846 2.99681 6.2121 1.94733 1.15565 1.01306 0.947934 0.679872 0.101147 0.138943
threshold=1.0000000180025095e-35 1.0000000180025095e-35 1.0000000180025095e-35 1.0000000180025095e-35 8.5000000000000018 1.0000000180025095e-35 -0.54999999999999993 13.300000000000002 143.45000000000002 5.5000000000000009 5.5000000000000009 140.85000000000005 136.05000000000004 1.5000000000000002 10.100000000000003 12.990625000000001 8.5000000000000018 4.5000000000000009
decision_type=2 2 2 2 2 2 2 2 2 2 2 2 2 2 2 2 2 2
left_child=2 3 12 15 5 7 -4 11 9 -6 14 -5 -1 -3 -11 -2 17 -7
right_child=1 13 6 4 8 16 -8 -9 -10 10 -12 -13 -14 -15 -16 -17 -18 -19
leaf_value=0.030805625900793072 0.10746103889314854 -0.090585179187378739 0 -0.099772366805629994 0 0 0.14651280569920766 0 -0.028556018493870187 0 0 0 -0.032039065228708315 0 0.10842113094204818 0 0.014737179213763574 -0.014900251861537322
leaf_weight=22.350259214639664 29.782251842319965 73.608378112316132 11.802814714610575 57.947951547801495 37.964038290083408 13.804582387208937 77.781186707317829 17.301897071301937 16.310757286846638 22.562907166779041 62.952156946063042 8.9702695533633214 18.003231763839722 23.912298895418644 42.811201371252537 14.3813109844923 15.4540384337306 21.678723782300949
leaf_count=76 127 613 68 463 155 57 490 134 91 90 384 68 70 180 173 54 72 174
internal_value=0.0100216 -0.0102131 0.0914717 0.00402962 -0.00340894 -0.0392286 0.130315 -0.0654918 0.0153202 0.0287397 0.0442148 -0.087079 0 -0.0765096 0.0855247 0.0862319 0 0
internal_weight=589.38 459.443 129.937 361.922 317.759 135.157 89.584 84.2201 182.601 166.29 128.326 66.9182 40.3535 97.5207 65.3741 44.1636 50.9373 35.4833
internal_count=3539 2835 704 2042 1861 968 558 665 893 802 647 531 146 793 263 181 303 231
is_linear=0
shrinkage=0.19718


Tree=13
num_leaves=18
num_cat=0
split_feature=31 29 31 7 23 34 3 24 22 7 32 34 32 7 23 8 32
split_gain=32.0335 14.2666 11.6977 7.88898 5.73798 5.68162 5.22724 4.59685 3.98116 2.78083 2.70747 1.33083 0.776509 0.761381 0.742764 0.345244 0.243695
threshold=5.5000000000000009 5.5000000000000009 2.5000000000000004 20.500000000000004 11.75357142857143 0.40142496392496402 1.0000000180025095e-35 1.0000000180025095e-35 5.5000000000000009 22.500000000000004 15.56277777777778 0.36835729284445168 11.702857142857143 19.500000000000004 11.345238095238097 132.55000000000004 13.371250000000002
decision_type=2 2 2 2 2 2 2 2 2 2 2 2 2 2 2 2 2
left_child=1 2 3 15 14 9 16 8 -6 13 12 -11 -10 -3 -2 -1 -4
right_child=4 5 6 -5 7 -7 -8 -9 10 11 -12 -13 -14 -15 -16 -17 -18
leaf_value=0.0043380642831032049 0 0.023708335252602956 -0.10550815388909775 0.099003801079056916 0 0.13121919659248837 0 0 0 0.087418432988666098 0 0 -0.10883553555284756 -0.0063319518971541016 0.040165751348146268 -0.021926254850428026 0
leaf_weight=28.008938997983932 11.243296913802626 47.224484540522099 36.310558944940567 52.489566817879677 13.721495307981966 71.543868869543076 46.368632525205612 7.9173284173011771 7.015989013016223 40.317312881350517 6.5756036639213553 11.926090903580187 107.61488130688667 36.42986798286438 15.24744628369808 24.067167788743973 8.5068509653210622
leaf_count=114 72 269 223 291 97 331 223 48 47 204 56 70 1037 205 92 97 63
internal_value=0.00824661 0.0406458 0 0.0466939 -0.0597534 0.0763645 -0.0485328 -0.0758541 -0.0859302 0.0348753 -0.09722 0.0709876 -0.104303 0 0 0 -0.0945383
internal_weight=572.529 403.193 195.752 104.566 169.336 207.442 91.186 142.845 134.928 135.898 121.206 52.2434 114.631 83.6544 26.4907 52.0761 44.8174
internal_count=3539 2090 1011 502 1449 1079 509 1285 1237 748 1140 274 1084 474 164 211 286
is_linear=0
shrinkage=0.19718


Tree=14
num_leaves=20
num_cat=0
split_feature=18 14 34 27 32 32 9 7 7 7 9 7 32 21 16 21 7 7 32
split_gain=18.2406 11.3862 10.2776 7.82359 7.18569 3.44333 2.82226 2.46361 5.0797 2.98061 1.38649 0.912529 0.658405 0.37503 0.208931 0.18422 0.187672 0.128915 0.0193846
threshold=1.0000000180025095e-35 1.0000000180025095e-35 0.40142496392496402 1.9050000000000002 1.0000000180025095e-35 11.246428571428572 137.50000000000003 21.500000000000004 18.500000000000004 30.500000000000004 137.50000000000003 18.500000000000004 11.866071428571431 5.5000000000000009 2.5000000000000004 7.5000000000000009 23.500000000000004 19.500000000000004 13.249375000000002
decision_type=2 2 2 2 2 2 2 2 2 2 2 2 2 2 2 2 2 2 2
left_child=3 -2 4 6 11 10 -1 8 14 12 -4 -3 -9 -13 -6 -7 17 -17 -14
right_child=1 2 5 -5 7 15 -8 9 -10 -11 -12 13 18 -15 -16 16 -18 -19 -20
leaf_value=0.15990797811796481 0.13246629962595322 0 0.082250235840917008 0 -0.014206164681897747 -0.010823345713621103 0 0.035468827606152199 -0.089926348983083493 -0.059831122868092126 0 0.037554813757681701 -0.0059917235860452436 0 0 0.0072601119809212926 0.018210263562058536 -0.014219318300207744 0
leaf_weight=42.044538080692291 18.317235052585602 17.117723718285561 38.196434751152992 17.422677770256996 37.597795113921165 27.208513528108597 13.459590569138525 19.354842834174633 116.64492002129555 29.160398885607719 11.985393859446047 34.025209166109562 18.34011922031641 17.253467403352261 18.060485698282719 20.725897923111916 30.400417558848858 16.042037397623062 15.594481475651262
leaf_count=250 96 76 182 84 344 182 80 78 961 172 59 151 113 109 185 107 126 85 99
internal_value=0.00705111 -0.00406665 -0.0132682 0.0982133 -0.0347677 0.0245282 0.133289 -0.051077 -0.0662216 -0.00100988 0.0648859 0.00484747 0.00610931 0.0262451 0 0 0.0072444 0 0
internal_weight=558.952 486.025 467.708 72.9268 323.149 144.559 55.5041 254.753 172.303 82.4498 50.1818 68.3964 53.2894 51.2787 55.6583 94.3769 67.1684 36.7679 33.9346
internal_count=3539 3125 3029 414 2288 741 330 1952 1490 462 241 336 290 260 529 500 318 192 212
is_linear=0
shrinkage=0.19718


Tree=15
num_leaves=21
num_cat=0
split_feature=31 7 4 27 16 28 31 17 7 16 34 8 31 9 12 27 27 10 7 31
split_gain=19.5717 7.56743 7.21906 3.82874 3.82578 3.65977 6.79862 5.96377 3.44092 3.88405 3.36065 2.87765 3.99531 0.830699 0.926815 0.792374 0.377945 0.0483866 0.0323172 0.0282515
threshold=3.5000000000000004 24.500000000000004 1.0000000180025095e-35 1.9050000000000002 1.5000000000000002 1.5000000000000002 7.5000000000000009 1.0000000180025095e-35 43.500000000000007 2.5000000000000004 0.51757543139695261 132.45000000000002 1.5000000000000002 147.50000000000003 2.5000000000000004 -3.5899999999999994 -2.4099999999999997 1.0000000180025095e-35 19.500000000000004 5.5000000000000009
decision_type=2 2 2 2 2 2 2 2 2 2 2 2 2 2 2 2 2 2 2 2
left_child=1 11 5 -3 -4 7 -7 8 9 10 15 12 16 14 -13 -2 -1 -8 -11 -6
right_child=2 3 4 -5 19 6 17 -9 -10 18 -12 13 -14 -15 -16 -17 -18 -19 -20 -21
leaf_value=0 0 0.12806629902378083 -0.10787405502175959 0 0 0.11783884180807401 0 0.049856874156275884 0 0.006921464479305979 0 0 0 0 -0.060851081671692758 -0.079271020936592301 0.085252434969140506 -0.0094470717381770902 0 -0.0073145007630542316
leaf_weight=15.453321918845175 10.578977979719637 60.195251893252134 47.570423275232315 10.379595242440699 10.401528984308245 22.482794158160686 10.606080278754236 23.749816536903381 8.0534465387463552 23.5748654268682 8.909721687436102 12.920650042593481 57.523049972951412 17.534119084477425 15.90236587077379 103.9827187359333 41.967464111745358 18.426281303167343 8.4695314057171327 17.877394080162048
leaf_count=80 73 371 447 63 71 107 54 108 40 217 48 58 234 77 73 789 227 104 75 223
internal_value=0.00668277 0.0518476 -0.022102 0.109742 -0.0744989 0 0.0395445 -0.0174104 -0.0366953 -0.0475492 -0.0635033 0.0161499 0.0362194 -0.0027695 -0.0322186 -0.0738507 0.0717897 0 0 0
internal_weight=546.559 231.876 314.684 70.5748 75.8493 238.834 51.5152 187.319 163.569 155.516 123.471 161.301 114.944 46.3571 28.823 114.562 57.4208 29.0324 32.0444 28.2789
internal_count=3539 1183 2356 434 741 1615 265 1350 1242 1202 910 749 541 208 131 862 307 158 292 294
is_linear=0
shrinkage=0.19718


Tree=16
num_leaves=24
num_cat=0
split_feature=18 14 4 25 3 9 32 9 13 34 34 32 9 1 30 32 13 9 20 34 34 32 1
split_gain=11.6068 6.97136 7.07326 6.03963 5.76619 4.88378 4.60285 4.28185 2.9416 2.88216 2.80496 2.16305 2.60134 1.79527 1.53721 1.24135 0.890727 1.0078 0.630188 0.291553 0.229184 0.0858834 0.0807931
threshold=1.0000000180025095e-35 1.0000000180025095e-35 1.0000000180025095e-35 10.100000000000003 1.0000000180025095e-35 137.50000000000003 10.225000000000001 141.50000000000003 4.5000000000000009 0.40142496392496402 0.35554587688734035 13.706250000000002 141.50000000000003 1.0000000180025095e-35 5.5000000000000009 11.78452380952381 1.5000000000000002 144.50000000000003 1.5000000000000002 0.28652253661694499 0.35554587688734035 12.377500000000003 1.0000000180025095e-35
decision_type=2 2 2 2 2 2 2 2 2 2 2 2 2 2 2 2 2 2 2 2 2 2 2
left_child=5 -2 3 10 6 19 18 8 -6 11 14 12 -8 -4 -3 -16 17 20 -5 -1 -15 -11 -12
right_child=1 2 13 4 7 -7 9 -9 -10 21 22 -13 -14 16 15 -17 -18 -19 -20 -21 -22 -23 -24
leaf_value=0 0.10619931087890649 0 -0.10004789513221259 0 0.09231303764314977 0 -0.084412010745826591 0 0 0.0120507206848604 -0.009532712471783408 0 0 -0.058682584213822664 -0.14117795296881686 0 0 0 0.08448153277259117 0.12931500564826359 0 0 0
leaf_weight=11.18031185865402 17.747002840042114 11.864515729248522 35.970867861062288 9.8675092905759829 69.269345976412296 17.817683771252632 47.883851528167725 18.221655160188675 13.325019501149653 20.340644739568233 31.914313040673733 21.059198059141636 7.1622880212962619 21.445490382611752 14.608394831418989 24.085526298731565 15.298886269330977 7.5239211358129969 17.05546160787344 37.696102771908045 11.243686079978941 11.911310024559496 39.059945303946733
leaf_count=68 96 54 323 37 379 101 356 103 67 87 169 198 60 241 84 222 123 57 117 245 84 75 193
internal_value=0.00659748 -0.00152718 -0.00964928 0 0.0212554 0.082633 0 0.0566499 0.0764726 -0.0237843 -0.0319733 -0.0471186 -0.0669927 -0.0580364 -0.0665983 -0.0845786 -0.00212071 -0.0285306 0.0626699 0.113464 -0.0457817 0 0
internal_weight=533.553 466.859 449.112 357.629 236.096 66.6941 135.28 100.816 82.5944 108.357 121.533 76.1053 55.0461 91.4829 50.5584 38.6939 55.512 40.2131 26.923 48.8764 32.6892 32.252 70.9743
internal_count=3539 3125 3029 2201 1479 414 930 549 446 776 722 614 416 828 360 306 505 382 154 313 325 162 362
is_linear=0
shrinkage=0.19718


Tree=17
num_leaves=20
num_cat=0
split_feature=31 29 12 31 7 9 22 17 12 26 30 10 30 29 9 8 25 25 9
split_gain=13.3238 11.1857 5.59768 4.38236 3.42837 3.25656 3.05027 2.88627 2.48901 1.67013 1.59847 1.54761 1.46081 1.34959 1.04218 0.830587 1.60119 1.14409 0.477991
threshold=5.5000000000000009 5.5000000000000009 1.5000000000000002 2.5000000000000004 20.500000000000004 110.50000000000001 5.5000000000000009 1.0000000180025095e-35 3.5000000000000004 1.0000000180025095e-35 14.500000000000002 1.0000000180025095e-35 9.5000000000000018 12.500000000000002 129.50000000000003 125.75000000000001 10.100000000000003 14.700000000000001 132.50000000000003
decision_type=2 2 2 2 2 2 2 2 2 2 2 2 2 2 2 2 2 2 2
left_child=1 3 6 4 18 -3 -2 11 9 -7 -11 -5 -6 -8 -13 -4 -17 -18 -1
right_child=2 5 15 7 12 8 13 -9 -10 10 -12 14 -14 -15 -16 16 17 -19 -20
leaf_value=0 0 0 -0.023258850123715931 0 0.077111962866693168 0 -0.097623961277535032 0 0 0.098428218957975225 0 0 0 0 -0.1035765006812611 0 0.073570548163502711 0 -0.023805413449473047
leaf_weight=20.715117886662483 11.094734862446783 11.316701933741568 27.646187029778957 24.259673520922661 35.816570069640875 32.220832370221615 63.725471880286932 9.8109004050493223 30.52780032902956 108.27222043275833 10.78451546281576 22.230688840150833 8.356592692434786 7.5336833149194709 29.471486371010542 12.170322217047213 20.004751969128851 9.2804814651608449 30.140868976712227
leaf_count=88 79 69 254 114 239 174 712 41 170 615 51 143 52 39 211 103 186 76 123
internal_value=0.00536083 0.0277165 -0.0397836 0 0.0198938 0.06082 -0.0736855 -0.0385964 0.0679149 0.0784592 0.0912088 -0.0557048 0.0605984 -0.0885951 -0.0747994 0 0.0189874 0.0494681 0
internal_weight=525.38 373.924 151.456 180.802 95.0291 193.122 82.3539 85.7727 181.805 151.278 119.057 75.9618 44.1732 71.2592 51.7022 69.1017 41.4556 29.2852 50.856
internal_count=3539 2090 1449 1011 502 1079 830 509 1010 840 666 468 291 751 354 619 365 262 211
is_linear=0
shrinkage=0.19718


Tree=18
num_leaves=19
num_cat=0
split_feature=31 7 13 29 13 9 16 8 3 31 13 9 8 8 8 7 8 9
split_gain=9.32473 7.75595 4.92054 3.43153 4.05114 4.11851 2.82373 2.29911 2.1401 1.8438 2.52786 1.82247 0.592543 1.16975 0.510687 1.66588 0.487938 0.310355
threshold=5.5000000000000009 26.500000000000004 1.5000000000000002 5.5000000000000009 2.5000000000000004 115.50000000000001 4.5000000000000009 142.35000000000005 1.0000000180025095e-35 2.5000000000000004 1.5000000000000002 120.50000000000001 118.05000000000001 136.85000000000005 119.95000000000002 18.500000000000004 103.20000000000002 133.45000000000002
decision_type=2 2 2 2 2 2 2 2 2 2 2 2 2 2 2 2 2 2
left_child=1 3 6 9 5 -5 8 16 11 17 -11 -2 -4 -14 -6 -16 -3 -1
right_child=2 7 12 4 14 -7 -8 -9 -10 10 -12 -13 13 -15 15 -17 -18 -19
leaf_value=0.015929906709849295 0 0 -0.021985036644529828 0 0 0.069812125385412899 0 0 0 -0.070638766672273284 0 -0.10852654542730718 0.041684801314051709 0 0 -0.056184198147348895 0.094408785241505616 -0.0065889821298884777
leaf_weight=38.403330452740192 11.615986112505196 9.4261428639292699 9.596175864338873 10.089548371732233 18.92564195394516 83.004107385873795 6.0444123335182658 15.828662961721419 20.600006878376007 38.187724087387323 20.270634993910789 50.780029516667128 33.371639560908079 15.692769471555946 11.154451161622999 24.155245758593082 65.260726016014814 35.307272419333458
leaf_count=185 105 63 83 55 105 460 80 98 188 267 119 597 275 121 59 142 384 153
internal_value=0.00373887 0.0229125 -0.0340358 0.000916315 0.0258002 0.0518435 -0.0631343 0.0730339 -0.074492 -0.015838 -0.0415506 -0.0926579 0 0.0181929 0 -0.0228697 0.0870713 0
internal_weight=517.715 370.013 147.701 279.498 147.329 93.0937 89.0404 90.5155 82.996 132.169 58.4584 62.396 58.6606 49.0644 54.2353 35.3097 74.6869 73.7106
internal_count=3539 2090 1449 1545 821 515 970 545 890 724 386 702 479 396 306 201 447 338
is_linear=0
shrinkage=0.19718


Tree=19
num_leaves=18
num_cat=0
split_feature=31 17 28 31 8 16 22 31 34 32 8 13 30 11 8 8 34
split_gain=7.56414 6.40303 5.78908 4.90536 3.88 3.59786 2.77724 2.49904 1.61881 2.01839 1.28484 1.00393 0.916243 1.64181 0.348119 0.131977 0.10293
threshold=2.5000000000000004 1.0000000180025095e-35 1.5000000000000002 6.5000000000000009 136.05000000000004 2.5000000000000004 3.5000000000000004 5.5000000000000009 0.54712511205019865 15.303846153846157 121.75000000000001 4.5000000000000009 13.500000000000002 1.0000000180025095e-35 111.55000000000001 121.75000000000001 0.40142496392496402
decision_type=2 2 2 2 2 2 2 2 2 2 2 2 2 2 2 2 2
left_child=4 2 5 -4 6 8 11 -3 9 12 14 -1 13 -2 -7 -5 -6
right_child=1 7 3 15 16 10 -8 -9 -10 -11 -12 -13 -14 -15 -16 -17 -18
leaf_value=0.080786893332867968 0 0.076466993051438864 0.10731549533914991 0 -0.010657427110688872 0 0 0 0 0 0.031253344992226997 0 0 -0.067715247015659952 -0.040913011983791665 -0.014924318161274895 0
leaf_weight=82.279540877789259 10.359567452222107 31.868353724479675 15.778981834650038 11.852761734277008 32.581050910055637 6.3576020225882557 20.944987010210752 15.846636004745958 10.550397776067255 7.6783450059592715 31.276385352015495 9.8360058441758138 12.669259324669836 164.9797345623374 15.477312311530111 20.384449832141399 11.060759719461201
leaf_count=547 63 136 77 67 171 42 100 92 55 72 307 58 61 1346 145 131 69
internal_value=0.00219379 -0.0105901 -0.0243871 0.020625 0.0401159 -0.0384777 0.0593289 0.0455908 -0.0502654 -0.0545742 0 0.0737378 -0.0592442 -0.0629273 -0.0262028 0 0
internal_weight=511.782 355.08 307.365 48.0162 156.702 259.349 113.061 47.715 206.237 195.687 53.1113 92.1155 188.009 175.339 21.8349 32.2372 43.6418
internal_count=3539 2594 2366 275 945 2091 705 228 1597 1542 494 605 1470 1409 187 198 240
is_linear=0
shrinkage=0.19718


Tree=20
num_leaves=18
num_cat=0
split_feature=18 14 34 7 29 31 11 16 23 22 21 34 34 23 31 26 7
split_gain=6.06552 4.12072 4.41259 2.69396 2.16894 4.46901 1.6884 1.81583 1.94702 1.37797 1.28197 0.818109 0.35895 0.249341 0.0455066 0.163631 0.0349675
threshold=1.0000000180025095e-35 1.0000000180025095e-35 0.40142496392496402 18.500000000000004 5.5000000000000009 5.5000000000000009 1.0000000180025095e-35 2.5000000000000004 15.267857142857144 5.5000000000000009 1.0000000180025095e-35 0.41492342782665365 0.28652253661694499 12.205263157894739 1.5000000000000002 2.0000000000000004 18.500000000000004
decision_type=2 2 2 2 2 2 2 2 2 2 2 2 2 2 2 2 2
left_child=3 -2 6 -1 14 11 -3 8 10 12 -8 -6 -5 -7 -4 -16 -9
right_child=1 2 4 9 5 13 7 16 -10 -11 -12 -13 -14 -15 15 -17 -18
leaf_value=0 0.079196487605771776 0 0 0 0 0 0 0.0072856250207232933 0 0 -0.049986209716905518 0.089862477116523315 0.1161339395364268 -0.02421980453844785 0 -0.021959898188516687 -0.0017828432821088392
leaf_weight=9.8397446982562524 16.986737780272961 21.337738070636988 12.207872800529001 9.4928230009973031 20.830213285982609 10.467055406421425 32.235560737550259 20.811561048030853 6.9430183619260779 12.367730572819708 177.05955350771546 36.223382316529751 27.63545235991478 13.873375609517096 27.011245377361774 14.208536632359026 33.220374513417482
leaf_count=53 96 140 86 70 111 59 140 201 62 51 1457 160 240 124 131 70 288
internal_value=0.00247938 -0.00246127 -0.00962288 0.0617323 0.0132256 0.0359089 -0.0252256 -0.0304402 -0.038443 0.0808605 -0.0433986 0.0687405 0.0995887 0 0 -0.00635041 0
internal_weight=502.752 443.416 426.429 59.3358 134.822 81.394 291.608 270.27 216.238 49.496 209.295 57.0536 37.1283 24.3404 53.4277 41.2198 54.0319
internal_count=3539 3125 3029 414 741 454 2288 2148 1659 361 1597 271 310 183 287 201 489
is_linear=0
shrinkage=0.19718


Tree=21
num_leaves=23
num_cat=0
split_feature=4 7 9 1 21 8 31 8 8 30 9 30 9 7 8 23 9 9 23 31 31 8
split_gain=5.24378 5.97862 3.94271 2.48855 2.31796 2.11382 1.91344 4.23711 1.62284 1.6553 1.3814 1.36357 1.04252 0.438465 0.427735 0.921226 0.393664 0.364406 0.0294805 0.91927 0.0110778 0.00133612
threshold=1.0000000180025095e-35 23.500000000000004 133.45000000000002 1.0000000180025095e-35 8.5000000000000018 144.35000000000005 4.5000000000000009 139.85000000000005 112.15000000000002 7.5000000000000009 136.50000000000003 6.5000000000000009 116.50000000000001 19.500000000000004 130.85000000000005 12.130357142857145 138.30000000000004 146.50000000000003 11.991507936507938 5.5000000000000009 2.5000000000000004 134.05000000000004
decision_type=2 2 2 2 2 2 2 2 2 2 2 2 2 2 2 2 2 2 2 2 2 2
left_child=1 4 5 11 6 12 7 16 -6 -10 14 -2 -3 17 15 -8 -1 -12 20 -20 -5 -21
right_child=3 2 -4 18 8 -7 10 -9 9 -11 13 -13 -14 -15 -16 -17 -18 -19 19 21 -22 -23
leaf_value=0.068805253314032172 0 0 0 0 0 0 0 0 0 -0.04759564278306546 0.050240067641973439 -0.094216728116015822 0.086009539050976969 0 0 -0.060762198940542578 0 0 0.045777283913697307 -0.0016588942987731208 -0.011424878675351056 0
leaf_weight=56.677348107099533 9.7928571105003339 14.36093460768461 40.434579435735941 10.087917387485506 17.200873579829931 11.511859845370052 7.2925275526940849 16.993384629487991 12.458358164876698 81.71986123919487 11.797188188880687 26.82559484988451 79.187424067407846 5.1820564791560164 5.0946818999946109 24.675592839717865 13.554477617144583 7.3907202184200278 14.402629859745501 16.223978515714411 9.4279858060181123 4.1832386292517176
leaf_count=304 96 91 251 46 95 73 64 81 88 482 128 251 483 56 54 272 69 80 96 246 74 59
internal_value=0.00316407 0.015413 0.0471547 -0.0345775 0 0.0669434 0.0132193 0.033495 -0.0236313 -0.0361835 0 -0.0728922 0.0766289 0.0139486 -0.0349277 -0.0433568 0.0603635 0.0319571 0 0 -0.00719048 0
internal_weight=496.476 405.532 145.495 90.9442 260.037 105.06 148.658 87.2252 111.379 94.1782 61.4328 36.6185 93.5484 24.37 37.0628 31.9681 70.2318 19.1879 54.3258 34.8098 19.5159 20.4072
internal_count=3539 2671 898 868 1773 647 1108 454 665 570 654 347 574 264 390 336 373 208 521 401 120 305
is_linear=0
shrinkage=0.19718


Tree=22
num_leaves=28
num_cat=0
split_feature=18 27 14 25 3 8 30 9 9 23 25 21 13 25 8 21 21 21 1 21 21 7 23 8 8 8 7
split_gain=4.04252 4.78775 2.59126 5.56239 2.88717 2.61591 2.19631 2.13429 1.82518 1.39898 0.91535 1.81629 1.31575 0.672447 0.814825 1.22023 1.17461 0.507916 0.496739 1.36287 1.40823 0.493649 0.354495 0.254465 0.114777 0.635757 0.0126066
threshold=1.0000000180025095e-35 1.9050000000000002 1.0000000180025095e-35 10.950000000000001 1.0000000180025095e-35 127.35000000000001 5.5000000000000009 133.45000000000002 141.50000000000003 13.050208333333336 13.300000000000002 6.5000000000000009 4.5000000000000009 8.2500000000000018 146.45000000000002 6.5000000000000009 10.500000000000002 13.500000000000002 1.0000000180025095e-35 10.500000000000002 6.5000000000000009 27.500000000000004 10.309523809523812 124.05000000000001 137.05000000000004 125.05000000000001 23.500000000000004
decision_type=2 2 2 2 2 2 2 2 2 2 2 2 2 2 2 2 2 2 2 2 2 2 2 2 2 2 2
left_child=1 8 -2 5 10 6 -4 9 -1 -6 11 24 21 -7 15 -15 -17 22 26 20 -20 -13 -8 -22 25 -5 -12
right_child=2 -3 3 4 7 13 17 -9 -10 -11 18 12 -14 14 -16 16 -18 -19 19 -21 23 -23 -24 -25 -26 -27 -28
leaf_value=0.10625416492921275 0.061699985534405324 0 0 0 0.072871862720039204 -0.032868045240199227 0 0 0 0 -0.0052782585161176218 -0.065654798290396221 0 0 0 0.070794309224191679 0 0 0 0 0 0 -0.078418091926751296 0.10628602500086641 0 0.059734977845619798 0
leaf_weight=34.035733714699745 16.78949823230505 15.256807632744311 16.52708813175559 6.9434816129505652 46.631250627338886 21.219690039753914 8.124262906610964 35.843469280749559 6.93801724910736 12.429593332111834 14.940047293901445 38.438868246972561 7.0169294252991667 14.006131839007137 13.402865719050167 22.317114785313606 11.265978120267389 10.138407953083513 7.8544450923800495 9.1066552363336069 7.1478881910443333 9.387834817171095 70.900649726390839 9.4697120450437051 6.2445859611034384 5.524840734899044 15.064735542982815
leaf_count=286 96 84 101 80 261 158 41 220 44 86 161 386 48 110 93 170 66 52 50 63 66 55 487 94 40 49 92
internal_value=0.00160677 0.0516532 -0.0017512 -0.0081514 0.00734527 -0.0348687 -0.055472 0.0357008 0.0887012 0.0579605 -0.00202616 -0.0217834 -0.0430946 0 0.00236094 0.025251 0.0468329 -0.0675357 0 0.0230878 0.0516282 -0.0559347 -0.0732734 0.081198 0 0.0171789 0
internal_weight=492.967 56.2306 436.736 419.947 232.044 187.902 105.69 94.9043 40.9738 59.0608 137.14 73.5565 54.8436 82.2118 60.9921 47.5892 33.5831 89.1633 63.5835 33.5787 24.472 47.8267 79.0249 16.6176 18.7129 12.4683 30.0048
internal_count=3539 414 3125 3029 1751 1278 681 567 330 347 1184 658 489 597 439 346 236 580 526 273 210 441 528 160 169 129 253
is_linear=0
shrinkage=0.19718


Tree=23
num_leaves=26
num_cat=0
split_feature=31 20 30 12 9 16 7 31 9 25 7 9 27 21 21 8 25 9 9 8 8 27 8 8 7
split_gain=3.55445 5.12183 4.27833 2.87843 3.594 1.81857 1.74249 1.64578 1.35752 1.16562 0.84689 0.983191 0.442991 0.6632 0.64308 0.34373 1.43623 1.03723 1.05277 0.295074 0.30115 0.218186 0.0555771 0.00844924 0.00409467
threshold=5.5000000000000009 5.5000000000000009 7.5000000000000009 1.5000000000000002 130.50000000000003 2.5000000000000004 22.500000000000004 3.5000000000000004 125.50000000000001 10.950000000000001 24.500000000000004 131.50000000000003 -2.4099999999999997 9.5000000000000018 7.5000000000000009 125.75000000000001 10.950000000000001 145.35000000000002 133.05000000000004 132.55000000000004 122.25000000000001 -2.4099999999999997 116.75000000000001 121.35000000000001 19.500000000000004
decision_type=2 2 2 2 2 2 2 2 2 2 2 2 2 2 2 2 2 2 2 2 2 2 2 2 2
left_child=1 7 -3 4 -2 -6 12 10 -9 -8 19 -12 -4 14 -14 23 -17 18 -18 20 22 -10 -1 -5 -15
right_child=3 2 6 15 5 -7 9 8 21 -11 11 -13 13 24 -16 16 17 -19 -20 -21 -22 -23 -24 -25 -26
leaf_value=0 0 0.09435959223209224 -0.026107456693377436 -0.0084777104051099034 -0.11007324131907249 0 0 0 0 0.063121838674596961 0 0.060085769442011008 0 0 0.045434850775217618 0 0 0 0.10484176302789321 -0.018576938412382824 0.021092070918927858 -0.066750420538144201 -0.011128440695727177 0 -0.0027281166512212337
leaf_weight=17.725164234638214 33.625342357903719 45.031333468854427 22.616118580102921 17.535393159836534 29.628595139831305 8.5628667511045915 18.422452565282583 17.169511672109365 8.1488846354186517 27.803712442517281 10.601756025105717 17.05542217195034 14.788350224494932 15.002500899136065 21.94969829916954 15.447049692273138 7.3792982064187589 7.3837746791541568 10.933641538023947 30.590589541941881 23.666003290563822 25.97937785461545 14.795259367674587 7.7686892263591281 18.737344421446323
leaf_count=87 341 359 115 176 371 118 96 117 62 143 83 132 90 70 123 136 55 65 109 132 105 203 69 78 104
internal_value=0.000752593 0.0140569 0.0377513 -0.0220919 -0.0492577 -0.0885716 0.00763858 -0.00371509 -0.0350588 0.0394398 0 0.0329596 0 0 0.025585 0 0.0167186 0.0490052 0.071908 0 0 -0.056902 0 -0.00633637 0
internal_weight=488.348 350.083 184.352 138.265 71.8168 38.1915 139.32 165.732 51.2978 46.2262 114.434 27.6572 93.094 70.4779 36.738 66.4478 41.1438 25.6967 18.3129 86.777 56.1864 34.1283 32.5204 25.3041 33.7398
internal_count=3539 2090 1100 1449 830 489 741 990 382 239 608 215 502 387 213 619 365 229 164 393 261 265 156 254 174
is_linear=0
shrinkage=0.19718


Tree=24
num_leaves=20
num_cat=0
split_feature=4 7 23 12 21 8 8 22 27 8 21 32 32 9 9 9 12 32 8
split_gain=3.16396 3.12004 2.8985 1.40577 0.994799 1.13635 0.954324 2.25535 1.25742 1.0065 0.947877 0.793803 0.629449 0.563086 0.534438 0.159694 1.18208 0.0268012 0.465109
threshold=1.0000000180025095e-35 23.500000000000004 13.720000000000001 1.5000000000000002 8.5000000000000018 112.15000000000002 132.05000000000004 5.5000000000000009 -2.4099999999999997 113.75000000000001 18.500000000000004 12.495833333333335 11.21111111111111 135.50000000000003 138.30000000000004 149.50000000000003 2.5000000000000004 12.020714285714286 127.75000000000001
decision_type=2 2 2 2 2 2 2 2 2 2 2 2 2 2 2 2 2 2 2
left_child=1 4 10 11 6 -6 7 8 -1 -10 14 -2 -7 -9 -3 16 -8 -14 -19
right_child=3 2 -4 -5 5 12 15 13 9 -11 -12 -13 17 -15 -16 -17 -18 18 -20
leaf_value=0 -0.069047042338506892 0.062521566406524259 0 0 0 -0.055395797826647032 0 -0.029843364697731665 0 0.069101355292891853 0 0 0 0 0 0 -0.047814282441169711 -0.031431329060661137 0
leaf_weight=12.611070543527601 32.805937511846423 82.053956832736731 21.195688977837563 32.121231410652399 16.956052675843239 29.934747826308012 14.581670295447109 21.928227640688423 8.1277984306216222 43.450144395232201 9.8258791491389257 23.730165153741837 24.553816862404346 9.0049443989992124 27.430586282163858 15.283951979130505 20.165578711777925 16.706090323626995 21.380107432603836
leaf_count=84 247 545 131 294 95 158 118 255 54 255 47 327 143 96 175 111 135 129 140
internal_value=0 0.00996206 0.0335135 -0.0302458 0 -0.0167162 0.0070421 0.0213178 0.0444592 0.0577733 0.0473533 -0.0483185 -0.0281627 0 0.0526066 0 -0.0128846 0 -0.00505747
internal_weight=483.848 395.19 140.506 88.6573 254.684 109.531 145.153 95.1222 64.189 51.5779 119.31 56.5361 92.5748 30.9332 109.485 50.0312 34.7472 62.64 38.0862
internal_count=3539 2671 898 868 1773 665 1108 744 393 309 767 574 570 351 720 364 253 412 269
is_linear=0
shrinkage=0.19718


Tree=25
num_leaves=23
num_cat=0
split_feature=31 29 26 16 28 23 9 23 30 10 20 27 26 32 12 21 21 23 23 10 22 23
split_gain=2.39519 2.38668 2.38629 2.12592 4.99582 3.23073 2.22538 2.01788 1.86077 1.40095 1.39098 1.28185 0.645187 1.39989 0.469009 0.39338 0.473212 0.267651 0.362163 0.225786 0.0218821 0.00263738
threshold=4.5000000000000009 5.5000000000000009 -0.54999999999999993 1.5000000000000002 1.5000000000000002 11.579464285714288 136.50000000000003 15.519230769230772 13.500000000000002 1.5000000000000002 7.5000000000000009 1.9050000000000002 0.55000000000000016 11.835416666666669 1.5000000000000002 8.5000000000000018 6.5000000000000009 12.492261904761907 10.309523809523812 1.5000000000000002 3.5000000000000004 13.251875000000002
decision_type=2 2 2 2 2 2 2 2 2 2 2 2 2 2 2 2 2 2 2 2 2 2
left_child=1 15 -3 4 5 -2 12 11 9 -4 -8 19 21 -14 -6 16 -1 18 -17 -7 -18 -5
right_child=3 2 8 6 14 7 10 -9 -10 -11 -12 -13 13 -15 -16 17 20 -19 -20 -21 -22 -23
leaf_value=0 0 0 0.066412114618995932 0 0 -0.096998939138944182 0.082983155805358255 0 0 0 0 0 0 -0.061911706487372348 0.027142606862905219 0 0.03326916802989395 0 -0.038285515947166657 0 0 0.003410055890930705
leaf_weight=62.681840354576707 16.988324280828238 13.869419954717157 80.399542327970266 12.581337977200748 26.265719670802355 58.86051682382822 17.741709314286712 5.773674525320529 19.680243603885174 11.08499665558338 5.7970472387969485 18.692349180579185 6.4927347227931049 18.133013784885406 22.110768932849169 11.288156412541865 15.467274844646456 10.597942642867563 23.936675626784563 6.5440181903541079 10.826369628310202 6.1651131212711325
leaf_count=362 124 74 513 127 158 641 172 48 91 68 74 173 47 221 123 73 86 55 118 62 58 71
internal_value=0 0.0143328 0.0338973 -0.0132057 -0.0277813 -0.0537244 0 -0.0690933 0.0458714 0.0575552 0.0574217 -0.0774338 -0.00187427 -0.030422 0.000419538 0 0.00296773 -0.0172876 -0.0256361 -0.0915156 0.025758 0
internal_weight=481.979 259.832 125.034 222.146 155.235 106.859 66.911 89.8706 111.165 91.4845 23.5388 84.0969 43.3722 24.6257 48.3765 134.798 88.9755 45.8228 35.2248 65.4045 26.2936 18.7465
internal_count=3539 1498 746 2041 1329 1048 712 924 672 581 246 876 466 268 281 752 506 246 191 703 144 198
is_linear=0
shrinkage=0.19718


Tree=26
num_leaves=20
num_cat=0
split_feature=4 10 34 34 8 12 16 7 22 8 8 34 21 8 7 20 21 31 7
split_gain=2.00122 2.67679 1.53251 1.52177 1.43828 1.11403 2.61463 1.86327 1.6946 1.17605 1.05493 1.0356 0.889386 0.989251 0.868003 0.876513 0.724346 0.167242 0.0149871
threshold=1.0000000180025095e-35 1.0000000180025095e-35 0.21159309440559443 0.32336049196526956 126.85000000000001 1.0000000180025095e-35 2.5000000000000004 19.500000000000004 4.5000000000000009 121.75000000000001 144.35000000000005 0.51757543139695261 7.5000000000000009 136.85000000000005 22.500000000000004 8.5000000000000018 7.5000000000000009 5.5000000000000009 18.500000000000004
decision_type=2 2 2 2 2 2 2 2 2 2 2 2 2 2 2 2 2 2 2
left_child=1 10 -2 4 -4 8 11 9 -3 -8 16 12 13 18 15 -14 -1 -18 -7
right_child=2 5 3 -5 -6 6 7 -9 -10 -11 -12 -13 14 -15 -16 -17 17 -19 -20
leaf_value=0 -0.067993619503368422 0.053858245887044895 0 -0.026024929072632739 0.079864919624655972 0 0 0 0 0.070956270045122102 0 0 -0.058577406791146744 -0.041321712429252373 0 0 0.066369451492233542 0 0.0086269025518067241
leaf_weight=24.059095025062561 22.273693500086665 29.549943763762712 8.1878456007689255 46.450628401711583 10.176005799323319 11.276032276451586 12.898598175495861 16.179319508373737 23.091520190238953 23.879099033772945 18.171199791133404 21.358162233605981 68.660357931628823 18.716315675526857 22.019936189055443 7.9956991150975218 43.183413073420525 17.632233064621687 31.702768087387085
leaf_count=232 332 152 84 350 102 92 99 121 178 187 119 115 488 136 108 52 237 111 244
internal_value=0 0.00750739 -0.0249034 0 0.0351105 0 -0.00815597 0.0166493 0.0223114 0.0472037 0.034557 -0.0235235 -0.0295437 0 -0.0417794 -0.0515333 0.0437117 0.0554863 0.00657748
internal_weight=477.462 390.374 87.0882 64.8145 18.3639 287.328 234.686 52.957 52.6415 36.7777 103.046 181.729 160.371 61.6951 98.676 76.6561 84.8747 60.8156 42.9788
internal_count=3539 2671 868 536 186 1972 1642 407 330 286 699 1235 1120 472 648 540 580 348 336
is_linear=0
shrinkage=0.19718


Tree=27
num_leaves=23
num_cat=0
split_feature=18 27 1 31 20 23 27 8 20 22 23 25 8 31 8 31 10 21 8 27 25 25
split_gain=1.84262 3.63698 1.99285 2.84394 3.75105 1.39455 2.88719 9.0677 4.87177 4.45532 1.58385 1.26555 0.976951 0.895197 1.02103 0.527587 0.525926 0.549377 0.38258 0.0872383 0.0493657 0.0085369
threshold=1.0000000180025095e-35 1.9050000000000002 1.0000000180025095e-35 1.0000000180025095e-35 8.5000000000000018 11.519230769230772 0.55500000000000016 121.05000000000001 7.5000000000000009 4.5000000000000009 12.173333333333334 15.850000000000001 131.85000000000005 2.5000000000000004 116.35000000000001 4.5000000000000009 1.5000000000000002 12.500000000000002 120.05000000000001 1.0000000180025095e-35 10.100000000000003 12.550000000000002
decision_type=2 2 2 2 2 2 2 2 2 2 2 2 2 2 2 2 2 2 2 2 2 2
left_child=1 12 3 20 11 18 10 15 9 -9 -7 16 -1 -12 -15 -8 17 -5 -4 -6 -2 -20
right_child=2 -3 5 4 19 6 7 8 -10 -11 13 -13 -14 14 -16 -17 -18 -19 21 -21 -22 -23
leaf_value=0.094053000418229657 0 0 0 -0.068103701311573853 0.014063761660198964 0.035323724931243597 0 0 0 0.14957293514775058 0 0 0 0 -0.05186646949766021 -0.034711299577876019 0 0 -0.019084156739909854 0 0.011496598835745095 0
leaf_weight=25.362466236576438 8.5901400558650511 14.612457543611525 30.917464125901461 88.203325944021344 14.495618451386692 16.837133195251226 8.3017758354544657 9.2368697263300401 6.884562022984027 36.86926119402051 6.2332758754491797 15.725595412775872 11.481673505157231 7.0220304057002059 38.892698844894767 15.861305873841046 15.473253861069677 12.292152199894188 42.357685603201389 12.83150516822934 20.897181089967489 15.908364959061144
leaf_count=246 67 84 171 719 70 109 41 48 70 327 26 116 84 43 417 212 93 55 213 73 175 80
internal_value=0 0.0355632 -0.00274178 -0.0198302 -0.033786 0.00481448 0.0198368 0.0462623 0.0968152 0.120753 0 -0.0495906 0.0728889 -0.0260754 -0.0385204 -0.0081813 -0.0565689 -0.0622761 -0.00359451 0 0.00609335 -0.0162372
internal_weight=475.288 51.4566 423.831 188.509 159.021 235.322 146.139 77.1538 52.9907 46.1061 68.9851 131.694 36.8441 52.148 45.9147 24.1631 115.969 100.495 89.1835 27.3271 29.4873 58.2661
internal_count=3539 414 3125 1368 1126 1757 1293 698 445 375 595 983 330 486 460 253 867 774 464 143 242 293
is_linear=0
shrinkage=0.19718


end of trees

feature_importances:
admission_grade=47
age_at_enrollment=46
curricular_units_2nd_sem_approved=40
curricular_units_2nd_sem_grade=40
previous_qualification_grade=32
curricular_units_1st_sem_approved=29
curricular_units_1st_sem_grade=29
course_encoded=29
curricular_units_1st_sem_evaluations=26
curricular_units_1st_sem_enrolled=22
tuition_fees_up_to_date=20
curricular_units_2nd_sem_evaluations=18
gdp=15
unemployment_rate=14
curricular_units_2nd_sem_enrolled=14
fathers_qualification_level=12
application_order=9
gender=8
scholarship_holder=8
mothers_qualification_level=8
application_mode_risk=7
debtor=7
inflation_rate=6
displaced=5
mothers_occupation_level=5
curricular_units_2nd_sem_credited=5
previous_qualification_risk=2
curricular_units_1st_sem_credited=2
curricular_units_1st_sem_without_evaluations=2
fathers_occupation_level=1

parameters:
[boosting: gbdt]
[objective: binary]
[metric: binary_logloss]
[tree_learner: serial]
[device_type: cpu]
[data_sample_strategy: bagging]
[data: ]
[valid: ]
[num_iterations: 28]
[learning_rate: 0.19718]
[num_leaves: 76]
[num_threads: 22]
[seed: 42]
[deterministic: 0]
[force_col_wise: 0]
[force_row_wise: 0]
[histogram_pool_size: -1]
[max_depth: 10]
[min_data_in_leaf: 55]
[min_sum_hessian_in_leaf: 0.001]
[bagging_fraction: 0.951267]
[pos_bagging_fraction: 1]
[neg_bagging_fraction: 1]
[bagging_freq: 0]
[bagging_seed: 400]
[bagging_by_query: 0]
[feature_fraction: 0.68268]
[feature_fraction_bynode: 1]
[feature_fraction_seed: 30056]
[extra_trees: 0]
[extra_seed: 12879]
[early_stopping_round: 0]
[early_stopping_min_delta: 0]
[first_metric_only: 0]
[max_delta_step: 0]
[lambda_l1: 7.48412]
[lambda_l2: 2.65297]
[linear_lambda: 0]
[min_gain_to_split: 0]
[drop_rate: 0.1]
[max_drop: 50]
[skip_drop: 0.5]
[xgboost_dart_mode: 0]
[uniform_drop: 0]
[drop_seed: 17869]
[top_rate: 0.2]
[other_rate: 0.1]
[min_data_per_group: 100]
[max_cat_threshold: 32]
[cat_l2: 10]
[cat_smooth: 10]
[max_cat_to_onehot: 4]
[top_k: 20]
[monotone_constraints: ]
[monotone_constraints_method: basic]
[monotone_penalty: 0]
[feature_contri: ]
[forcedsplits_filename: ]
[refit_decay_rate: 0.9]
[cegb_tradeoff: 1]
[cegb_penalty_split: 0]
[cegb_penalty_feature_lazy: ]
[cegb_penalty_feature_coupled: ]
[path_smooth: 0]
[interaction_constraints: ]
[verbosity: -1]
[saved_feature_importance_type: 0]
[use_quantized_grad: 0]
[num_grad_quant_bins: 4]
[quant_train_renew_leaf: 0]
[stochastic_rounding: 1]
[linear_tree: 0]
[max_bin: 255]
[max_bin_by_feature: ]
[min_data_in_bin: 3]
[bin_construct_sample_cnt: 200000]
[data_random_seed: 175]
[is_enable_sparse: 1]
[enable_bundle: 1]
[use_missing: 1]
[zero_as_missing: 0]
[feature_pre_filter: 1]
[pre_partition: 0]
[two_round: 0]
[header: 0]
[label_column: ]
[weight_column: ]
[group_column: ]
[ignore_column: ]
[categorical_feature: ]
[forcedbins_filename: ]
[precise_float_parser: 0]
[parser_config_file: ]
[objective_seed: 16083]
[num_class: 1]
[is_unbalance: 0]
[scale_pos_weight: 1.44959]
[sigmoid: 1]
[boost_from_average: 1]
[reg_sqrt: 0]
[alpha: 0.9]
[fair_c: 1]
[poisson_max_delta_step: 0.7]
[tweedie_variance_power: 1.5]
[lambdarank_truncation_level: 30]
[lambdarank_norm: 1]
[label_gain: ]
[lambdarank_position_bias_regularization: 0]
[eval_at: ]
[multi_error_top_k: 1]
[auc_mu_weights: ]
[num_machines: 1]
[local_listen_port: 12400]
[time_out: 120]
[machine_list_filename: ]
[machines: ]
[gpu_platform_id: -1]
[gpu_device_id: -1]
[gpu_use_dp: 0]
[num_gpu: 1]

end of parameters

pandas_categorical:[]
