tree
version=v4
num_class=1
num_tree_per_iteration=1
label_index=0
max_feature_idx=28
objective=binary sigmoid:1
feature_names=daytimeevening_attendance displaced educational_special_needs gender scholarship_holder international is_single age_at_enrollment admission_grade previous_qualification_grade application_mode_risk previous_qualification_risk mothers_qualification_level fathers_qualification_level mothers_occupation_level fathers_occupation_level application_order debtor tuition_fees_up_to_date curricular_units_1st_sem_credited curricular_units_1st_sem_enrolled curricular_units_1st_sem_evaluations curricular_units_1st_sem_approved curricular_units_1st_sem_grade curricular_units_1st_sem_without_evaluations unemployment_rate inflation_rate gdp course_encoded
feature_infos=[0:1] [0:1] [0:1] [0:1] [0:1] [0:1] [0:1] [17:62] [95:190] [95:190] [0:2] [0:2] [0:5] [0:5] [0:3] [0:3] [0:9] [0:1] [0:1] [0:20] [0:26] [0:45] [0:26] [0:18] [0:12] [7.5999999999999996:16.199999999999999] [-0.80000000000000004:3.7000000000000002] [-4.0599999999999996:3.5099999999999998] [0.14778325123152711:0.56140350877192979]
tree_sizes=2658 2771 2463 2466 1829 3267 2436 2201 2752 3098 2641 3136 2404 3269 4501 2998 2306 4008 3269 3548 2419 3518 2622 3339 4168 3627 3286 3370

Tree=0
num_leaves=24
num_cat=0
split_feature=7 21 17 28 4 8 21 14 4 21 28 8 24 8 9 3 3 21 3 28 9 21 13
split_gain=354.846 147.203 114.654 75.9146 59.0419 25.4727 18.9995 16.7415 15.7449 6.51002 6.14369 5.87445 5.19329 4.94184 4.22396 2.8875 1.40059 1.28165 1.11991 0.416304 0.0866541 0.0604307 0.0383753
threshold=22.500000000000004 4.5000000000000009 1.0000000180025095e-35 0.36835729284445168 1.0000000180025095e-35 136.05000000000004 18.500000000000004 1.0000000180025095e-35 1.0000000180025095e-35 9.5000000000000018 0.21159309440559443 139.05000000000004 2.5000000000000004 162.40000000000003 136.50000000000003 1.0000000180025095e-35 1.0000000180025095e-35 5.5000000000000009 1.0000000180025095e-35 0.40142496392496402 143.50000000000003 5.5000000000000009 4.5000000000000009
decision_type=2 2 2 2 2 2 2 2 2 2 2 2 2 2 2 2 2 2 2 2 2 2 2
left_child=1 5 3 7 6 -1 13 -3 9 15 -4 -12 16 17 -11 21 -9 -2 19 -6 -7 -5 -22
right_child=4 2 10 8 18 20 -8 12 -10 14 11 -13 -14 -15 -16 -17 -18 -19 -20 -21 22 -23 -24
leaf_value=-0.44284083315502643 -0.37669207809030164 -0.73526434963353693 -0.74790850888939275 -0.74790850888939275 -0.79789380068832227 -0.74790850888939275 -0.74790850888939275 -0.93111496662459148 -0.83749156387879431 -0.63379037545924977 -0.5267501465556691 -0.74790850888939275 -0.74790850888939275 -0.74790850888939275 -0.74790850888939275 -0.71060144282320103 -0.82768089966801173 -0.53705704188816616 -0.74790850888939275 -0.74790850888939275 -0.73129427097185729 -0.78019735067599461 -0.74790850888939275
leaf_weight=35.994535058736801 48.199819326400757 7.554371401667594 7.9815262556076041 3.4978919178247443 13.698831707239153 7.8112615495920208 12.683218747377394 232.41116307675838 37.446261405944824 34.217210188508034 34.97294682264328 5.6306800097227088 4.4836343377828589 5.4693767577409735 10.218862697482107 32.654957294464111 65.250170588493347 175.88631942868233 8.1517909616231936 5.8487381637096396 7.3363132476806623 35.340357676148415 3.4978919178247452
leaf_count=138 182 31 34 15 61 34 54 1045 166 140 138 24 19 23 44 137 287 709 34 25 30 154 15
internal_value=-0.704677 -0.787545 -0.821194 -0.851818 -0.531272 -0.52101 -0.502282 -0.9039 -0.747909 -0.709742 -0.575022 -0.550118 -0.911612 -0.490354 -0.660041 -0.747909 -0.914593 -0.485923 -0.754907 -0.786099 -0.747909 -0.778255 -0.735392
internal_weight=836.238 566.3 511.66 463.075 269.938 54.64 242.239 309.699 153.376 115.929 48.5852 40.6036 302.145 229.556 44.4361 71.4932 297.661 224.086 27.6994 19.5476 18.6455 38.8382 10.8342
internal_count=3539 2451 2234 2038 1088 217 968 1382 656 490 196 162 1351 914 184 306 1332 891 120 86 79 169 45
is_linear=0
shrinkage=1


Tree=1
num_leaves=28
num_cat=0
split_feature=23 18 23 7 7 7 13 7 9 17 23 23 17 24 9 21 23 10 21 23 7 21 21 23 23 13 21
split_gain=629.796 355.194 57.4496 15.9542 13.2019 12.478 7.685 6.31057 6.45308 4.14531 3.78142 3.56608 3.5061 2.64085 1.50352 0.917735 0.859957 0.421502 0.281179 0.217377 0.14771 0.0343378 0.0322413 0.0218657 0.0522293 0.00622792 0.00577638
threshold=10.083333333333334 1.0000000180025095e-35 12.017857142857144 21.500000000000004 23.500000000000004 18.500000000000004 1.5000000000000002 31.500000000000004 135.50000000000003 1.0000000180025095e-35 10.759615384615387 14.170833333333336 1.0000000180025095e-35 1.0000000180025095e-35 138.30000000000004 14.500000000000002 14.142053571428573 1.5000000000000002 9.5000000000000018 15.696153846153846 43.500000000000007 9.5000000000000018 11.500000000000002 13.599166666666669 12.400714285714288 1.0000000180025095e-35 14.500000000000002
decision_type=2 2 2 2 2 2 2 2 2 2 2 2 2 2 2 2 2 2 2 2 2 2 2 2 2 2 2
left_child=5 11 3 9 12 14 13 8 17 10 21 -2 15 20 -1 19 -8 -5 25 -4 -6 -3 -12 24 -14 -9 -20
right_child=1 2 4 7 6 -7 16 18 -10 -11 22 -13 23 -15 -16 -17 -18 -19 26 -21 -22 -23 -24 -25 -26 -27 -28
leaf_value=0.13386422291750383 0.35127128958878384 0 -0.16561178752296235 0.13621501283876475 -0.10196202879378484 0.36648438121186189 0.034751996807376791 -0.024065386008276925 0 0 -0.085374665631174074 0 0 0 0 0 0 0 0.0032364619018048065 0 0 0.0081868104370362814 0 0 -0.012060292205296044 0 0
leaf_weight=13.699768558144571 60.749317735433578 6.4163373857736579 280.18467819690704 28.005553275346756 46.053543493151665 152.93495513498783 18.352905258536342 8.8487246632576007 14.056395813822745 9.6539673805236799 77.570604160428047 3.9931031316518775 3.7431162893772152 5.5061910748481742 12.386163294315336 6.8026372939348212 7.8047301322221747 6.7677667886018744 10.776190131902693 7.5905151218175879 9.5601315051317197 9.4094853252172452 16.041563987731934 4.6339828819036475 9.9747727960348112 4.1875006556510916 5.0700656473636618
leaf_count=51 221 29 1319 107 194 543 72 37 57 38 354 16 15 22 51 30 32 27 42 35 39 39 70 19 42 17 21
internal_value=0.0361958 -0.0475502 -0.0953127 -0.00652972 -0.135449 0.339324 -0.0461107 0.0501256 0.0873148 -0.0523258 -0.0647278 0.33906 -0.155335 -0.0821385 0.0998979 -0.161226 0.00828509 0.123738 0 -0.163398 -0.0936221 0 -0.0783105 -0.00190107 -0.00622612 -0.0213617 0
internal_weight=840.775 661.754 597.011 196.804 400.207 179.021 87.2775 77.7122 48.8297 119.092 109.438 64.7424 312.93 61.1199 26.0859 294.578 26.1576 34.7733 28.8825 287.775 55.6137 15.8258 93.6122 18.3519 13.7179 13.0362 15.8463
internal_count=3539 2894 2657 838 1819 645 359 308 191 530 492 237 1460 255 102 1384 104 134 117 1354 233 68 424 76 57 54 63
is_linear=0
shrinkage=0.186866


Tree=2
num_leaves=25
num_cat=0
split_feature=22 18 22 20 20 28 23 15 23 4 21 15 7 8 8 7 8 23 23 28 7 21 21 7
split_gain=702.237 102.46 52.5405 75.786 22.6139 19.6348 7.75854 7.00229 6.07919 4.54759 4.13422 2.03332 1.94619 1.66329 1.17997 0.88154 0.357501 0.207861 0.255327 0.18891 0.151623 0.00823992 0.0308519 0.00237798
threshold=4.5000000000000009 1.0000000180025095e-35 3.5000000000000004 1.0000000180025095e-35 5.5000000000000009 0.41492342782665365 13.195000000000002 1.0000000180025095e-35 13.370714285714287 1.0000000180025095e-35 7.5000000000000009 2.5000000000000004 28.500000000000004 136.05000000000004 146.05000000000004 44.500000000000007 155.40000000000003 11.225000000000001 13.490000000000002 0.51757543139695261 18.500000000000004 11.500000000000002 8.5000000000000018 48.500000000000007
decision_type=2 2 2 2 2 2 2 2 2 2 2 2 2 2 2 2 2 2 2 2 2 2 2 2
left_child=2 8 3 13 12 7 9 -3 -2 -6 19 15 14 20 17 -9 -15 -4 -19 -7 -1 22 -12 -17
right_child=1 5 4 -5 6 10 -8 11 -10 -11 21 -13 -14 16 -16 23 -18 18 -20 -21 -22 -23 -24 -25
leaf_value=0 0.18733592506974786 0 0 0.29476633167978655 0.19210356967486125 -0.090825823796930508 0 -0.17279074722288115 0 0 0 0 0 -0.035629665826551561 0 0 0 -0.083061356524287339 0 0 0.044259511348194058 0.0035634727179651177 -0.0064828055572456007 -0.0025382447912172014
leaf_weight=5.0456686466932323 25.986186951398849 8.2012752592563611 4.6485669165849748 250.72955903410912 32.018709048628807 18.019433379173282 6.4641899466514579 341.67268209159374 7.0526223033666602 6.4739200770854941 12.474703952670099 3.9500823915004721 7.2181634604930869 12.870515853166582 3.4622740000486365 5.4990523010492307 4.2663519680500022 15.251194819808008 3.7659483551979056 6.0395258814096442 16.408328220248222 14.1785581856966 17.153795793652534 4.4082497805356979
leaf_count=19 89 35 20 880 124 81 29 1672 28 29 56 18 28 53 15 22 17 71 17 27 57 57 76 19
internal_value=0.0297074 -0.120849 0.220618 0.258344 0.0597687 -0.146849 0.141164 -0.164793 0.154986 0.168633 -0.0297663 -0.168643 -0.0299408 0 -0.0546505 -0.170146 -0.0238901 -0.0677504 -0.0750337 -0.0807184 0.0381031 0 0 0
internal_weight=833.26 464.636 368.623 289.32 79.303 431.597 44.9568 363.731 33.0388 38.4926 67.866 355.53 34.3461 38.5909 27.128 351.58 17.1369 23.6657 19.0171 24.059 21.454 43.8071 29.6285 9.9073
internal_count=3539 2180 1359 1026 333 2063 182 1766 117 153 297 1731 151 146 123 1713 70 108 88 108 76 189 132 41
is_linear=0
shrinkage=0.186866


Tree=3
num_leaves=24
num_cat=0
split_feature=18 4 21 28 20 3 14 9 28 27 20 21 21 17 28 28 28 27 13 28 21 10 28
split_gain=279.161 66.4472 52.287 44.0629 31.9894 28.2047 14.0037 4.2584 4.17301 2.42027 2.02179 2.96843 1.88326 0.881743 1.08932 0.436461 0.396165 0.320841 0.147367 0.131068 0.0642859 0.010313 0.00478395
threshold=1.0000000180025095e-35 1.0000000180025095e-35 4.5000000000000009 0.40142496392496402 1.0000000180025095e-35 1.0000000180025095e-35 1.0000000180025095e-35 133.45000000000002 0.51757543139695261 2.7650000000000001 7.5000000000000009 7.5000000000000009 7.5000000000000009 1.0000000180025095e-35 0.40142496392496402 0.36835729284445168 0.38483522548092092 1.7650000000000003 4.5000000000000009 0.32336049196526956 12.500000000000002 1.0000000180025095e-35 0.36835729284445168
decision_type=2 2 2 2 2 2 2 2 2 2 2 2 2 2 2 2 2 2 2 2 2 2 2
left_child=-1 2 4 5 18 6 -4 9 13 -5 11 19 -9 14 -3 20 17 -13 -2 21 -12 -7 -21
right_child=1 8 3 7 -6 10 -8 12 -10 -11 15 16 -14 -15 -16 -17 -18 -19 -20 22 -22 -23 -24
leaf_value=0.27210848062997106 0 -0.14663054228534653 0.03822382387827776 0.0967093042996333 0.24914347458554711 0 -0.10701433412479724 -0.026000965488966993 0 0 -0.034843540947317779 0.073479175650506642 0.036987544960398029 0 -0.018533949124106355 0 0 0 -0.019049611854406543 0.0031647936087245937 0 -0.013768077909440336 0
leaf_weight=125.12493298947811 19.2778983861208 122.67018550634384 10.920423671603201 93.168678447604179 38.543803215026855 3.7442934960126903 193.13722990453243 15.236599266529081 5.3796463161706916 7.5655682981014243 8.8925493210554141 32.248535931110382 27.868207350373268 10.19315731525421 24.615973502397537 6.3892768770456305 10.774979740381239 11.981589630246161 5.7001760751008979 8.1982643604278582 5.4059105366468421 17.563566133379936 10.570306926965712
leaf_count=414 71 652 42 362 125 15 954 66 22 32 44 129 113 44 118 27 44 52 24 34 24 86 45
internal_value=0.024227 -0.0220264 0.00891107 -0.0118659 0.158193 -0.0519966 -0.0932538 0.0686321 -0.123578 0.089056 0.0139613 0.0296772 0 -0.129014 -0.133909 -0.0111193 0.0554026 0.0629234 0 0 -0.0287645 -0.0123953 0
internal_weight=815.172 690.047 527.188 463.666 63.5219 319.827 204.058 143.839 162.859 100.734 115.769 95.0815 43.1048 157.479 147.286 20.6877 55.0051 44.2301 24.9781 40.0764 14.2985 21.3079 18.7686
internal_count=3539 3125 2289 2069 220 1496 996 573 836 394 500 405 179 814 770 95 225 181 95 180 68 101 79
is_linear=0
shrinkage=0.186866


Tree=4
num_leaves=18
num_cat=0
split_feature=22 17 22 28 14 21 8 22 8 7 7 21 21 21 7 13 7
split_gain=412.217 38.9219 36.1261 10.3708 9.34275 5.61765 4.83382 4.46123 2.984 1.96265 1.26195 0.691279 0.112333 0.107986 0.104655 0.641226 0.276173
threshold=4.5000000000000009 1.0000000180025095e-35 2.5000000000000004 0.41492342782665365 1.0000000180025095e-35 7.5000000000000009 163.35000000000005 5.5000000000000009 142.10000000000002 25.500000000000004 45.500000000000007 22.500000000000004 11.500000000000002 8.5000000000000018 24.500000000000004 1.5000000000000002 19.500000000000004
decision_type=2 2 2 2 2 2 2 2 2 2 2 2 2 2 2 2 2
left_child=2 3 6 4 -2 -5 -1 -3 9 -4 11 -6 13 -7 15 16 -9
right_child=1 7 8 5 10 12 -8 14 -10 -11 -12 -13 -14 -15 -16 -17 -18
leaf_value=0.21409256978908645 0 0.093254742873286958 0.038910066130609947 -0.090254244457135646 -0.14747167527695051 0 0 0 0 0.13309780087818446 0 0 0.013213958616128887 -0.012344884486882686 0 0 -0.04767742795676546
leaf_weight=229.49879431724548 9.0294656902551633 18.354312866926193 92.451873987913132 23.183002188801765 292.06528447568417 12.799152269959452 4.6576457917690268 4.6971502453088814 12.371946752071379 32.416241228580475 7.719608098268508 3.1808471828699103 13.984533503651617 16.262844607234001 7.9787327349185935 8.2939286679029447 7.220094308257103
leaf_count=793 38 69 381 106 1622 56 18 20 51 116 32 15 54 71 31 34 32
internal_value=0.0207934 -0.102591 0.163719 -0.122905 -0.138436 -0.0287521 0.210381 0.0375498 0.0695343 0.0778782 -0.14411 -0.146426 0 0 0 -0.0112858 -0.0357336
internal_weight=796.165 424.769 371.397 378.225 311.995 66.2295 234.156 46.5442 137.24 124.868 302.966 295.246 43.0465 29.062 28.1899 20.2112 11.9172
internal_count=3539 2180 1359 1994 1707 287 811 186 548 497 1669 1637 181 127 117 86 52
is_linear=0
shrinkage=0.186866


Tree=5
num_leaves=34
num_cat=0
split_feature=7 4 17 4 20 3 27 17 16 7 27 14 8 27 8 8 9 9 27 8 3 24 9 9 27 20 8 8 8 8 8 12 12
split_gain=80.7964 30.7477 15.7659 15.1139 12.096 8.22208 5.99558 5.86777 4.7148 3.47301 2.80706 2.543 1.61274 1.77484 1.26444 1.11481 2.65216 0.910126 1.30625 0.806547 0.652095 0.597066 0.4485 1.36527 0.2354 0.231163 0.0147622 0.0121861 1.0464 0.0264773 0.0109493 0.00841999 0.323962
threshold=23.500000000000004 1.0000000180025095e-35 1.0000000180025095e-35 1.0000000180025095e-35 7.5000000000000009 1.0000000180025095e-35 1.9050000000000002 1.0000000180025095e-35 4.5000000000000009 20.500000000000004 -3.5899999999999994 1.0000000180025095e-35 128.55000000000004 -2.4099999999999997 109.95000000000002 163.35000000000005 153.50000000000003 141.50000000000003 2.7650000000000001 107.55000000000001 1.0000000180025095e-35 1.0000000180025095e-35 119.05000000000001 139.50000000000003 -1.3099999999999998 9.5000000000000018 124.35000000000001 126.95000000000002 132.45000000000002 109.55000000000001 106.45000000000002 4.5000000000000009 1.5000000000000002
decision_type=2 2 2 2 2 2 2 2 2 2 2 2 2 2 2 2 2 2 2 2 2 2 2 2 2 2 2 2 2 2 2 2 2
left_child=1 2 5 4 15 8 -4 19 9 10 26 -12 13 -7 -13 16 -2 18 30 -3 -5 -21 -6 25 -10 -24 -1 29 -29 -11 -15 32 -14
right_child=3 7 6 20 22 12 -8 -9 24 27 11 14 31 17 -16 -17 -18 -19 -20 21 -22 -23 23 -25 -26 -27 -28 28 -30 -31 -32 -33 -34
leaf_value=0.006006243035507744 0.1440234039111897 0 0.12763438235792565 -0.03085176506935499 0 0 0 0 0.034414500684870349 0 0 0 0 0 -0.076508896146282659 0 0 0 0 -0.11572228022728871 0 0 0 0 0 0.050847738130937216 0 0.048178957363457897 0 -0.0061793916256260668 0.069311339677234449 -0.0036652592858984435 0.020903514734401402
leaf_weight=5.8088965117931348 177.87223957479 4.2587483525276175 35.540991991758347 15.957847684621813 6.2437973022460929 15.690087676048277 13.611700817942618 11.507349103689192 6.387665361166003 4.11924780905247 4.4840778708457938 8.7743238359689695 18.741508021950722 4.7730060368776313 124.90965715050697 4.5978352576494208 9.9567812681198102 3.1412058323621741 8.4000010788440687 112.17120389640331 7.4206408709287635 3.9120403677225104 7.6767764091491726 9.8236773610115034 11.578599363565443 19.138745561242104 6.0073895156383514 7.4445375502109554 9.3207222372293455 15.732486501336096 44.266736954450607 13.405579343438147 17.408813998103142
leaf_count=28 659 24 129 77 29 66 54 46 30 17 18 43 86 20 662 19 38 15 39 671 30 20 32 44 62 77 34 31 46 76 183 61 73
internal_value=0.0179865 -0.0235746 0.00142693 0.102085 0.116549 -0.0113362 0.0938638 -0.0985109 -0.0358177 -0.0468707 -0.0589051 -0.0664664 0.0206611 0.0366192 -0.0719844 0.136328 0.138632 0.0504284 0.056092 -0.110281 -0.00392378 -0.113153 0.000189414 0.0186318 0.018842 0.042361 0 0 0.00410554 0 0.0663233 0 0
internal_weight=770.085 511.397 379.547 258.688 235.31 330.395 49.1527 131.849 204.568 186.601 149.984 138.168 125.827 76.271 133.684 192.427 187.829 60.5809 57.4397 120.342 23.3785 116.083 42.883 36.6392 17.9663 26.8155 11.8163 36.617 16.7653 19.8517 49.0397 49.5559 36.1503
internal_count=3539 2534 1773 1005 898 1590 183 761 1047 955 785 723 543 323 705 716 697 257 242 715 107 691 182 153 92 109 62 170 77 93 203 220 159
is_linear=0
shrinkage=0.186866


Tree=6
num_leaves=24
num_cat=0
split_feature=22 20 7 22 23 28 24 28 7 15 20 20 23 22 20 23 22 23 22 21 21 23 23
split_gain=266.313 31.3932 24.5178 19.7719 13.869 7.30428 5.57836 5.11115 3.46829 3.39851 3.00085 1.75831 1.77682 0.916576 3.24523 1.07247 0.88573 0.276899 0.765623 0.554952 0.261459 0.143431 0.0495654
threshold=4.5000000000000009 5.5000000000000009 20.500000000000004 3.5000000000000004 12.205263157894739 0.51757543139695261 1.0000000180025095e-35 0.40142496392496402 21.500000000000004 2.5000000000000004 1.0000000180025095e-35 5.5000000000000009 10.845238095238097 2.5000000000000004 3.5000000000000004 12.741666666666669 1.5000000000000002 11.387500000000001 6.5000000000000009 8.5000000000000018 7.5000000000000009 12.996666666666668 10.992857142857146
decision_type=2 2 2 2 2 2 2 2 2 2 2 2 2 2 2 2 2 2 2 2 2 2 2
left_child=1 2 13 10 7 6 9 8 -2 -6 -4 -9 -13 14 -1 22 -16 -10 19 -19 -14 -3 -15
right_child=4 21 3 -5 5 -7 -8 11 17 -11 -12 12 20 15 16 -17 -18 18 -20 -21 -22 -23 -24
leaf_value=-0.013290704159602233 -0.078978245902022959 0.20416908793539454 0 -0.01427762654820772 -0.12964113173554967 0 0 -0.0079998310360583202 -0.02020962632590307 0 0.16744615097160717 0 0 0 0.073566376056972513 0 0 0 0 0.055157285306267366 0.064115632699452793 0.036042640916782692 -0.050761667369572772
leaf_weight=29.625507175922394 52.427737057209015 146.29290837049484 9.7190305888652784 15.884459674358366 237.4604736417532 12.838125571608542 13.055728346109388 9.0677461326122266 10.28088630735874 3.1371959149837485 83.194319128990173 4.0996147543191901 4.9316714107990292 6.4228521585464504 17.45868755877018 8.0391035228967649 8.8121271878480929 6.3187084794044512 9.3761299848556501 7.3364384919404984 24.705262765288353 19.65605440735817 18.034471213817596
leaf_count=114 302 527 35 64 1407 56 70 38 47 15 301 18 25 26 61 38 33 29 42 29 102 77 83
internal_value=0.0152241 0.130317 0.0670277 0.123203 -0.0885775 -0.113863 -0.120718 -0.0249506 -0.0524104 -0.126959 0.15594 0.00984406 0.0393125 0 0.00667032 -0.0266678 0.0561216 0 0.00797954 0.0360337 0.0577878 0.192791 -0.0449637
internal_weight=758.175 363.14 197.191 108.798 395.036 266.492 253.653 128.544 85.7399 240.598 92.9133 42.8043 33.7365 88.3927 55.8963 32.4964 26.2708 33.3122 23.0313 13.6551 29.6369 165.949 24.4573
internal_count=3539 1359 755 400 2180 1548 1492 632 449 1422 336 183 145 355 208 147 94 147 100 58 127 604 109
is_linear=0
shrinkage=0.186866


Tree=7
num_leaves=22
num_cat=0
split_feature=22 18 18 22 28 7 15 23 15 28 28 7 8 8 8 24 19 28 23 7 7
split_gain=189.544 43.6034 29.7635 24.9033 6.75094 6.36375 4.30205 3.33573 2.05172 1.77136 3.06367 0.928599 1.09082 1.23339 0.869386 0.379693 0.724959 0.0569485 0.216245 0.000337949 0.0570343
threshold=4.5000000000000009 1.0000000180025095e-35 1.0000000180025095e-35 2.5000000000000004 0.51757543139695261 18.500000000000004 1.0000000180025095e-35 13.370714285714287 2.5000000000000004 0.38483522548092092 0.464387367850366 22.500000000000004 111.95000000000002 138.05000000000004 132.55000000000004 1.0000000180025095e-35 8.5000000000000018 0.36835729284445168 12.996666666666668 36.500000000000007 19.500000000000004
decision_type=2 2 2 2 2 2 2 2 2 2 2 2 2 2 2 2 2 2 2 2 2
left_child=2 7 -1 5 6 14 -3 -2 15 11 -11 12 -5 -14 -4 16 -8 18 -13 20 -12
right_child=1 4 3 9 -6 -7 8 -9 -10 10 19 17 13 -15 -16 -17 -18 -19 -20 -21 -22
leaf_value=0.21363192623632923 0.12123217474558082 0 0.034991526336346605 0 0 0.13369995244296279 -0.11485451154067068 0 0 0.074152023814531717 0 0.021087483731461042 -0.052386313992867362 0 -0.003143025333847325 0 0 0 0 0 -0.0093055495677334087
leaf_weight=79.631723135709763 25.857149586081505 8.3461239933967573 16.157786279916767 6.4682542979717246 15.572589576244352 134.47704418003559 289.07686531543732 7.1393979787826529 3.9710452258586875 19.53597891330719 5.7760488241910997 12.972424179315572 38.296685427427292 3.7942256629467002 10.861150652170179 15.391622215509413 11.843098029494284 4.2994924783706656 4.1875141263008109 5.0383308678865424 14.65525248646736
leaf_count=297 89 37 58 26 68 492 1798 28 19 70 24 46 175 17 45 84 57 17 16 18 58
internal_value=0.0128042 -0.0771343 0.110418 0.071663 -0.0986045 0.117162 -0.104265 0.0967424 -0.107723 0 0.0296648 -0.0137246 -0.02877 -0.0410705 0 -0.109392 -0.112271 0 0.00880666 0 -0.000638882
internal_weight=733.35 377.198 356.152 276.52 344.201 161.496 328.629 32.9965 320.283 115.024 45.0056 70.0186 48.5592 42.0909 27.0189 316.312 300.92 21.4594 17.1599 25.4696 20.4313
internal_count=3539 2180 1359 1062 2063 595 1995 117 1958 467 170 297 218 192 103 1939 1855 79 62 100 82
is_linear=0
shrinkage=0.186866


Tree=8
num_leaves=28
num_cat=0
split_feature=18 4 7 21 20 13 27 25 14 17 13 7 21 13 8 25 7 8 8 8 8 7 7 25 21 8 8
split_gain=104.511 20.0903 11.1397 6.73678 13.0839 5.61375 4.38761 2.73527 2.32756 2.25119 2.40317 2.10903 1.91139 2.57952 1.86907 1.75931 0.98468 0.715897 0.617486 0.535611 0.527801 0.755626 0.42166 0.335738 0.0307404 0.02523 0.0178384
threshold=1.0000000180025095e-35 1.0000000180025095e-35 23.500000000000004 1.5000000000000002 1.0000000180025095e-35 1.0000000180025095e-35 1.9050000000000002 10.100000000000003 1.0000000180025095e-35 1.0000000180025095e-35 4.5000000000000009 36.500000000000007 11.500000000000002 1.0000000180025095e-35 145.65000000000001 8.2500000000000018 24.500000000000004 155.65000000000001 157.20000000000002 132.55000000000004 107.55000000000001 35.500000000000007 25.500000000000004 15.850000000000001 10.500000000000002 109.95000000000002 125.95000000000002
decision_type=2 2 2 2 2 2 2 2 2 2 2 2 2 2 2 2 2 2 2 2 2 2 2 2 2 2 2
left_child=6 2 3 4 19 7 -1 22 -5 10 12 14 13 -10 -9 -3 -7 -18 -15 -2 -17 -22 -4 -13 -11 -14 -27
right_child=1 15 5 8 -6 16 -8 11 9 24 -12 23 25 18 -16 20 17 -19 -20 -21 21 -23 -24 -25 -26 26 -28
leaf_value=0.19945774311552444 0 0 0 0 0.14007930385704251 0 0.020867511841912989 0.069897877419911755 0 0.0067350550419757477 0 -0.023377392503634929 0 -0.072228265143431877 0 0 0.078283250834336529 0 0 -0.042780529699364724 -0.093496832178899744 0 -0.050767859534896514 0 0 -0.0077304625050070167 0
leaf_weight=84.616908296942711 10.238303273916246 9.0644707009196264 3.583477750420573 8.8952994346618635 16.812548950314522 12.594973415136336 21.510299667716026 26.647820666432384 34.072969682514668 15.183741465210916 31.055180817842484 12.97183480858803 4.7419219762086859 131.25701584666967 3.6760397851467124 7.2134414538741103 75.152361303567886 6.0183943957090369 2.7228346914052954 13.142466261982916 105.4144858494401 4.5578123927116385 21.597673028707504 4.1582311689853659 6.4770115762948981 16.68548542261124 13.745289400219916
leaf_count=330 37 51 15 36 64 53 84 109 184 63 177 58 18 775 18 39 303 27 18 52 722 24 93 16 28 76 69
internal_value=0.011967 -0.017604 0 -0.0205093 0.0351964 0.0383435 0.176334 0 -0.0335048 -0.0383106 -0.0438461 0.0241842 -0.0509987 -0.0591367 0.052354 -0.0812476 0.0665723 0.073743 -0.0704688 -0.0255938 -0.0869839 -0.0904574 -0.0431924 0 0 0 -0.00475832
internal_weight=703.808 597.681 471.431 305.03 40.1933 166.401 106.127 72.6351 264.837 255.941 234.281 47.4539 203.226 168.053 30.3239 126.25 93.7657 81.1708 133.98 23.3808 117.186 109.972 25.1812 17.1301 21.6608 35.1727 30.4308
internal_count=3539 3125 2289 1597 153 692 414 309 1444 1408 1317 201 1140 977 127 836 383 330 793 89 785 746 108 74 91 163 145
is_linear=0
shrinkage=0.186866


Tree=9
num_leaves=32
num_cat=0
split_feature=18 28 3 21 14 8 7 13 24 20 27 27 7 7 28 8 8 21 13 8 26 20 8 13 8 8 8 7 7 28 8
split_gain=78.4598 19.9036 14.6322 13.8759 8.15356 4.17301 3.89696 3.30598 2.79683 2.67206 3.39678 2.57115 2.48317 2.22363 1.99701 2.01171 1.77392 1.28335 1.16806 0.777405 0.723099 1.05168 0.666335 0.570451 0.296322 0.248236 0.15249 0.122163 0.187918 0.0685114 0.0366295
threshold=1.0000000180025095e-35 0.40142496392496402 1.0000000180025095e-35 5.5000000000000009 1.0000000180025095e-35 109.95000000000002 23.500000000000004 3.5000000000000004 1.0000000180025095e-35 5.5000000000000009 1.7650000000000003 1.9050000000000002 18.500000000000004 18.500000000000004 0.36835729284445168 116.95000000000002 140.85000000000005 18.500000000000004 1.5000000000000002 148.55000000000004 -0.54999999999999993 6.5000000000000009 120.05000000000001 1.0000000180025095e-35 111.2 119.05000000000001 141.65000000000001 31.500000000000004 24.500000000000004 0.38483522548092092 119.95000000000002
decision_type=2 2 2 2 2 2 2 2 2 2 2 2 2 2 2 2 2 2 2 2 2 2 2 2 2 2 2 2 2 2 2
left_child=11 2 3 13 -5 -6 12 8 -7 18 20 -1 23 -2 15 -14 24 27 22 30 -11 -22 -3 -4 -15 -20 -25 28 -8 -16 -17
right_child=1 9 6 4 5 7 17 -9 -10 10 -12 -13 14 16 29 19 -18 -19 25 -21 21 -23 -24 26 -26 -27 -28 -29 -30 -31 -32
leaf_value=0.17862307098272057 0 0 0 0.0092024594751862043 0 -0.11398214444589509 0 0 0 0 0 0.018127629642666579 0 0 0.0099433917587267301 0 0 0 0 0 0.097823009617689471 0 -0.026766164373524137 0.03999366946920721 0.081578049587350737 0.039549333246284471 0 0 0.081960089781870527 0 -0.077798138598856245
leaf_weight=78.450176432728767 10.995604321360586 15.664074346423147 3.8430713489651707 10.661027327179907 20.436069667339325 162.46838115900755 4.3441155701875713 17.943565897643566 18.300750955939293 11.86333556473255 28.554314017295837 21.425210580229759 11.49463117867708 2.5715772211551728 15.716384880244732 6.2870040014386168 5.8689876049756995 4.1975196152925482 5.8394106775522259 4.5024160072207442 42.807516947388649 17.146189093589783 32.765742257237434 15.434683449566366 16.80059278011322 19.121601194143295 3.5565820187330237 17.016057595610619 18.806953504681587 8.1087661236524582 33.201830573379993
leaf_count=330 52 62 22 43 109 1133 19 116 92 54 142 84 57 11 68 31 24 19 24 21 189 75 137 84 75 77 19 73 75 41 181
internal_value=0.0106947 -0.0145269 -0.037864 -0.0636677 -0.0814036 -0.0904464 0.00336754 -0.0984415 -0.105922 0.0344988 0.0533835 0.157669 -0.00959073 0.0202329 -0.0309099 -0.0490045 0.0533428 0.0491502 0 -0.0653167 0.0730778 0.0814562 -0.0105065 0.0203809 0.075293 0.0321219 0.0346206 0.059543 0.0747493 0 -0.0723368
internal_weight=686.194 586.319 412.557 266.047 229.81 219.149 146.51 198.713 180.769 173.762 100.371 99.8754 102.145 36.2368 79.311 55.4859 25.2412 44.3646 73.3908 43.9913 71.817 59.9537 48.4298 22.8343 19.3722 24.961 18.9913 40.1671 23.1511 23.8252 39.4888
internal_count=3539 3125 2365 1655 1493 1450 710 1341 1225 760 460 414 524 162 399 290 110 186 300 233 318 264 199 125 86 101 103 167 94 109 212
is_linear=0
shrinkage=0.186866


Tree=10
num_leaves=26
num_cat=0
split_feature=22 18 22 14 28 7 8 18 23 17 23 23 28 28 8 8 28 28 9 23 17 9 8 8 8
split_gain=112.379 18.5487 14.8265 6.44437 4.43049 4.06419 9.96391 3.55956 2.31138 1.82177 1.68821 2.91178 0.80292 1.93756 0.138909 0.533121 0.801885 0.122269 0.173953 0.0460402 0.0365024 0.00122986 0.000494575 0.0920919 0.0438433
threshold=4.5000000000000009 1.0000000180025095e-35 2.5000000000000004 1.0000000180025095e-35 0.51757543139695261 24.500000000000004 132.45000000000002 1.0000000180025095e-35 12.996666666666668 1.0000000180025095e-35 11.672222222222222 11.387500000000001 0.38483522548092092 0.464387367850366 107.55000000000001 119.05000000000001 0.25676347173144881 0.28652253661694499 131.50000000000003 12.267857142857144 1.0000000180025095e-35 140.40000000000003 140.35000000000005 155.40000000000003 134.05000000000004
decision_type=2 2 2 2 2 2 2 2 2 2 2 2 2 2 2 2 2 2 2 2 2 2 2 2 2
left_child=2 8 5 -3 9 6 -1 -4 -2 10 11 -5 14 -14 -9 16 -16 18 -17 -11 -10 -19 24 -24 -8
right_child=1 3 7 4 -6 -7 22 12 20 19 -12 -13 13 -15 15 17 -18 21 -20 -21 -22 -23 23 -25 -26
leaf_value=0.10672119092071004 0.07735651697112908 0 0.089906046135127135 -0.058551731426410583 0 0.17189497936873313 0 0 -0.0094163394818484909 0 -0.10367984806252385 0.00033330910081283237 0.058536891459487338 0 0 0 -0.045258164141628324 0.012425794316499424 -0.018153167818083987 -0.0086589715197334955 0 0 -0.011717549708514722 0 0.00844842032853854
leaf_weight=84.039533138275146 20.175087630748752 9.6781255304813367 19.17513932287693 27.268031880259514 15.144882440567015 76.259041741490364 3.8302586674690273 8.5720190554857236 5.895092159509657 11.366692587733271 213.76930640637875 19.028595574200153 19.576583340764046 25.256583586335182 3.5701884180307415 6.1663215011358288 16.646695896983147 17.28752984106541 10.965649530291556 12.961764022707937 5.0838143825531006 4.0247997045516959 15.066714957356455 5.8217331916093817 12.969061911106108
leaf_count=324 75 41 81 157 67 336 16 33 24 51 1574 107 70 100 15 27 77 74 52 66 18 19 61 23 51
internal_value=0.0106068 -0.0622246 0.0885789 -0.0774895 -0.0832097 0.121895 0.0736254 0.0267111 0.0478542 -0.088375 -0.0935659 -0.0195253 0.00191887 0.0231131 0 -0.00849964 -0.028596 0 -0.00361057 0 0 0.0114935 0 -0.000766839 0
internal_weight=669.599 340.371 329.228 309.217 299.539 197.986 121.727 131.242 31.154 284.394 260.066 46.2966 112.066 44.8332 67.2332 58.6612 20.2169 38.4443 17.132 24.3285 10.9789 21.3123 37.6878 20.8884 16.7993
internal_count=3539 2180 1359 2063 2022 811 475 548 117 1955 1838 264 467 170 297 264 92 172 79 117 42 93 151 84 67
is_linear=0
shrinkage=0.186866


Tree=11
num_leaves=32
num_cat=0
split_feature=22 20 18 18 28 22 4 28 7 12 9 9 20 7 9 22 12 12 24 7 9 9 28 8 8 28 9 9 7 7 7
split_gain=81.5239 22.9584 14.0735 10.2201 7.3601 8.13008 5.96453 4.57345 3.56803 3.14099 4.0775 2.85538 2.83244 2.47555 2.02968 1.68337 1.57045 1.50683 0.775487 0.625875 0.444259 1.7194 1.07447 0.31852 0.301226 0.0967578 0.00480781 0.00996725 0.00171091 0.320273 0.0366127
threshold=4.5000000000000009 5.5000000000000009 1.0000000180025095e-35 1.0000000180025095e-35 0.35554587688734035 1.5000000000000002 1.0000000180025095e-35 0.41492342782665365 24.500000000000004 1.5000000000000002 133.05000000000004 137.50000000000003 5.5000000000000009 43.500000000000007 158.50000000000003 6.5000000000000009 2.5000000000000004 2.5000000000000004 2.5000000000000004 27.500000000000004 131.50000000000003 115.50000000000001 0.36835729284445168 101.15000000000002 116.55000000000001 0.51757543139695261 133.45000000000002 129.50000000000003 20.500000000000004 18.500000000000004 30.500000000000004
decision_type=2 2 2 2 2 2 2 2 2 2 2 2 2 2 2 2 2 2 2 2 2 2 2 2 2 2 2 2 2 2 2
left_child=1 3 11 -1 8 23 18 9 14 13 17 -2 -9 -4 24 16 -14 -11 -3 -17 21 -7 -23 -6 -5 -22 27 -8 29 -12 -30
right_child=2 6 7 4 5 20 26 12 -10 10 28 -13 15 -15 -16 19 -18 -19 -20 -21 25 22 -24 -25 -26 -27 -28 -29 30 -31 -32
leaf_value=0.11097387954330871 0.075163356212561566 0.14853060046801794 -0.11112672761400019 0 0 0 0 -0.061155901577849961 0 0 0 0 0.068715779004901792 0 0 -0.035406170217490103 0 -0.076231343603715057 0 0 0.011000360014850023 0 -0.0602692428740388 0.094951796309872258 -0.09365086301480309 0 0 0.0059573351028605528 0.007832726801932078 -0.020164953576082931 0
leaf_weight=28.31361647695303 21.004232749342922 124.071125254035 120.4527698084712 4.1970403641462317 3.8915352523326865 5.6502911597490302 7.2951494157314318 17.201853290200233 5.6038887649774543 4.1502046361565581 17.077785238623619 9.6955391019582731 16.192255228757862 9.2047601044177991 4.5776494890451422 9.1749967932701129 12.176921948790548 46.212792910635471 3.5460529923439017 7.1880254894495001 19.440889805555347 5.4746138304471996 22.652507320046425 34.58714970946312 33.672969043254852 7.0633962452411643 3.9164070487022391 6.057133823633194 13.332054786384107 19.023172803223133 3.1632596403360358
leaf_count=147 79 517 947 17 16 21 33 80 22 18 148 38 77 43 19 51 59 348 15 30 79 25 96 140 143 30 17 22 79 167 16
internal_value=0.0104734 0.0777054 -0.0529297 0.0228959 0 0.0294938 0.132411 -0.0669808 -0.0538151 -0.0793729 -0.0332002 0.0413117 -0.00207753 -0.104405 -0.0752407 0.00770316 0.0409064 -0.0671354 0.145903 -0.00334315 -0.000452737 -0.0191687 -0.045434 0.0896205 -0.0880305 0 0 0.00277301 0 0 0.00154663
internal_weight=645.262 320.011 325.251 175.126 146.812 98.7604 144.886 294.551 48.0515 232.617 102.959 30.6998 61.9341 129.658 42.4477 44.7322 28.3692 50.363 127.617 16.363 60.2817 33.7774 28.1271 38.4787 37.87 26.5043 17.2687 13.3523 52.5963 36.101 16.4953
internal_count=3539 1359 2180 755 608 407 604 2063 201 1766 776 117 297 990 179 217 136 366 532 81 251 142 121 156 160 109 72 55 410 315 95
is_linear=0
shrinkage=0.186866


Tree=12
num_leaves=24
num_cat=0
split_feature=22 20 18 22 23 14 9 17 23 9 23 9 9 9 19 28 20 9 7 23 23 28 23
split_gain=64.703 21.4517 15.1168 8.34071 6.83187 4.48547 4.42991 4.2119 2.222 1.66082 1.34614 1.11178 1.03637 1.7279 0.868056 0.678255 0.668761 0.705933 0.593912 0.00487182 0.00390944 0.00253612 0.00188843
threshold=3.5000000000000004 2.5000000000000004 1.0000000180025095e-35 2.5000000000000004 11.672222222222222 1.0000000180025095e-35 137.50000000000003 1.0000000180025095e-35 11.387500000000001 118.45000000000002 10.911538461538465 171.00000000000003 133.45000000000002 158.50000000000003 3.5000000000000004 0.21159309440559443 5.5000000000000009 118.45000000000002 18.500000000000004 12.267857142857144 10.747222222222224 0.32336049196526956 12.398333333333335
decision_type=2 2 2 2 2 2 2 2 2 2 2 2 2 2 2 2 2 2 2 2 2 2 2
left_child=1 12 6 -3 8 21 18 11 9 -4 20 -7 -1 -14 -12 -10 -17 -18 -2 -9 -11 -6 -8
right_child=2 3 4 -5 5 7 22 19 15 10 14 -13 13 -15 -16 16 17 -19 -20 -21 -22 -23 -24
leaf_value=0 0 0.13637715860999058 0 0.018549544561522458 0.0026577032069028802 -0.077083379584495737 0 0.0033645140509200853 0 -0.0011968668675306699 -0.074144456199867231 0 -0.064058565637636705 0 0 0 0 0.070879068630962952 0.099807005500440665 0 0.0026255878983052422 0 -0.0020640535577388206
leaf_weight=16.668363258242607 4.405633598566058 143.29551667720079 9.1689580380916578 52.744945645332336 4.0574346333742124 237.2093877196312 3.8537802398204786 6.5479726791381863 4.710996329784396 8.3510597720742243 22.141444586217407 2.0901072025299063 18.154250130057338 4.6530538797378531 2.7607658505439749 6.4096479713916805 3.6178950220346477 14.659120284020899 23.969066217541695 17.037207022309303 7.8248808979988089 4.0647089779376984 6.9978982210159302
leaf_count=65 17 652 44 215 18 1780 15 29 34 42 125 14 75 19 13 34 17 68 96 83 38 17 29
internal_value=0.00937492 0.0862796 -0.0353827 0.111719 -0.0494663 -0.0632279 0.0556635 -0.0685172 0 -0.023715 -0.0428564 -0.0757301 -0.0163177 -0.0395573 -0.064302 0.0342995 0.0453613 0.058509 0.0905977 0 0 0 0
internal_weight=625.394 235.516 389.878 196.04 350.652 271.007 39.2264 262.885 79.6448 50.2471 41.0782 239.299 39.4757 22.8073 24.9022 29.3977 24.6867 18.277 28.3747 23.5852 16.1759 8.12214 10.8517
internal_count=3539 1026 2513 867 2356 1941 157 1906 415 262 218 1794 159 94 138 153 119 85 113 112 80 35 44
is_linear=0
shrinkage=0.186866


Tree=13
num_leaves=34
num_cat=0
split_feature=4 7 21 8 20 12 7 17 7 8 8 8 12 8 3 26 8 7 26 12 8 5 21 20 12 26 8 8 8 8 8 8 8
split_gain=12.469 9.28244 2.79692 4.18643 2.02941 1.83935 1.48072 1.47323 1.14272 1.36233 1.29354 0.942502 0.678063 0.603155 1.75834 0.585831 0.549428 0.734116 0.469487 0.396847 2.04593 0.383145 0.246235 0.185625 0.17856 0.129638 0.105744 0.189854 0.0660132 0.0582035 0.0509244 0.608768 0.0111577
threshold=1.0000000180025095e-35 22.500000000000004 6.5000000000000009 139.85000000000005 15.500000000000002 1.5000000000000002 21.500000000000004 1.0000000180025095e-35 18.500000000000004 132.45000000000002 139.45000000000002 107.55000000000001 1.0000000180025095e-35 127.15000000000002 1.0000000180025095e-35 2.7000000000000006 162.40000000000003 49.500000000000007 2.0000000000000004 1.5000000000000002 119.85000000000001 1.0000000180025095e-35 7.5000000000000009 3.5000000000000004 4.5000000000000009 -0.54999999999999993 127.15000000000002 136.85000000000005 109.95000000000002 124.75000000000001 130.75000000000003 121.85000000000001 109.55000000000001
decision_type=2 2 2 2 2 2 2 2 2 2 2 2 2 2 2 2 2 2 2 2 2 2 2 2 2 2 2 2 2 2 2 2 2
left_child=1 2 3 6 16 7 24 11 10 13 19 -2 -11 14 15 32 17 21 -15 20 -4 -3 -12 -5 -1 -16 -7 -28 -27 -30 31 -21 -10
right_child=5 4 8 23 -6 26 -8 -9 9 12 22 -13 -14 18 25 -17 -18 -19 -20 30 -22 -23 -24 -25 -26 28 27 -29 29 -31 -32 -33 -34
leaf_value=0.066878925928001251 0 0.062123292769536612 0 -0.025341712583692902 0 -0.011194880662972282 0 0 0 0 0 -0.073101330212192103 -0.061127331322531384 0.031286608075632681 0 0 0 0 0 0 -0.057111564013916254 0 0.060156065310964339 0 0 0 0.019064610965197931 0 0.016527301113389157 0 0 0.034020206645596962 -0.045447630816103951
leaf_weight=52.711813114583492 4.0582265332341185 177.73661967366934 4.9485905691981342 9.8842482417821902 6.1054797470569602 20.734594464302063 4.305357225239276 9.3123531490564329 8.9479432106018049 4.5266378298401859 2.5635686069726926 60.103204652667046 27.362845942378044 11.905752077698709 3.9775210842490187 8.3917978405952436 4.7598809525370589 7.1458903178572646 8.9398763254284841 8.4599089473486 17.671265460550785 3.3686394542455664 6.3777464553713799 9.4447413459420186 12.192822359502314 6.5815464109182349 9.845319479703905 7.1763975694775572 23.971865825355057 4.2053557932376853 6.1007158085703841 11.423225127160547 39.812392987310886
leaf_count=292 23 862 27 41 32 158 21 44 49 24 20 507 180 67 19 52 24 34 50 50 123 16 33 58 68 30 81 55 120 23 41 71 244
internal_value=0.00884333 0.0229893 0 0.0277824 0.053293 -0.0426654 0.0526989 -0.0586744 -0.0103018 -0.0199747 0 -0.0677658 -0.0522596 -0.000111616 -0.0129497 -0.0346724 0.057253 0.058777 0.0110193 0 -0.0211087 0.0609931 0.0509187 -0.0138207 0.0603712 0 0 0.00110439 0.010232 0.0136518 0 0.00791798 -0.0416629
internal_weight=605.054 493.824 294.708 88.539 199.117 111.23 69.21 73.4738 206.169 148.624 57.545 64.1614 31.8895 116.734 95.8884 57.1521 193.011 188.251 20.8456 48.6037 22.6199 181.105 8.94132 19.329 64.9046 38.7363 37.7563 17.0217 34.7588 28.1772 25.9838 19.8831 48.7603
internal_count=3539 2671 1703 480 968 868 381 574 1223 858 365 530 204 654 537 345 936 912 117 312 150 878 53 99 360 192 294 136 173 143 162 121 293
is_linear=0
shrinkage=0.186866


Tree=14
num_leaves=48
num_cat=0
split_feature=18 14 25 28 27 7 14 19 9 8 11 9 9 28 7 25 9 16 7 10 20 14 9 20 9 20 25 16 20 9 8 16 8 8 7 9 14 20 8 8 7 9 28 25 8 16 28
split_gain=30.478 8.48337 8.20704 6.56327 4.71475 3.79246 3.55628 3.35951 2.1047 2.53284 1.92753 2.24366 1.76313 1.6588 1.66233 2.28471 1.79368 1.24614 1.14364 1.20519 1.10769 1.71104 1.05751 0.982551 0.921336 0.754158 0.75574 0.659327 0.842157 1.4751 0.827169 0.631132 0.796213 0.537568 0.639719 0.459652 0.395345 0.874129 0.382284 0.336116 0.193105 0.191151 0.130158 0.0730946 0.0524388 0.00470771 0.516566
threshold=1.0000000180025095e-35 1.0000000180025095e-35 10.950000000000001 0.35554587688734035 1.9050000000000002 24.500000000000004 2.5000000000000004 4.5000000000000009 145.35000000000002 139.85000000000005 1.5000000000000002 154.20000000000002 142.50000000000003 0.41492342782665365 18.500000000000004 13.300000000000002 125.50000000000001 4.5000000000000009 22.500000000000004 1.5000000000000002 5.5000000000000009 1.5000000000000002 118.45000000000002 6.5000000000000009 115.50000000000001 5.5000000000000009 15.850000000000001 4.5000000000000009 7.5000000000000009 126.30000000000001 137.45000000000002 1.5000000000000002 114.35000000000001 142.35000000000005 47.500000000000007 127.50000000000001 1.5000000000000002 10.500000000000002 122.05000000000001 150.05000000000004 31.500000000000004 114.50000000000001 0.54712511205019865 14.700000000000001 124.05000000000001 3.5000000000000004 0.464387367850366
decision_type=2 2 2 2 2 2 2 2 2 2 2 2 2 2 2 2 2 2 2 2 2 2 2 2 2 2 2 2 2 2 2 2 2 2 2 2 2 2 2 2 2 2 2 2 2 2 2
left_child=4 22 3 6 12 13 8 10 9 17 11 33 -1 14 25 18 41 -3 19 -16 21 24 -2 43 -5 -4 27 28 29 -27 44 32 -18 34 -7 45 37 38 -37 -34 -9 -17 -23 -15 -31 46 -22
right_child=1 2 5 20 -6 7 -8 40 -10 -11 -12 -13 -14 23 15 16 31 -19 -20 -21 35 42 -24 -25 -26 26 -28 -29 -30 30 -32 -33 39 -35 -36 36 -38 -39 -40 -41 -42 -43 -44 -45 -46 -47 -48
leaf_value=0.14589288817744195 0 -0.11456254542180462 -0.016502645452630499 0 0 0.087055889661854735 0 0 0 0 0 0 0 0.041218694670184131 -0.070580612895674508 0 0 0 0 0 -0.027665666346891937 0.01555433081744895 0.093657871155286301 0 -0.048286707298729886 0 0 0 0 0 0 0 -0.051320324864055501 0 0 0 0 0 0.056088220978413719 0 -0.021521925759188015 0.042677197047299303 0 0 0.09854304484909468 0 0
leaf_weight=51.651370085775852 3.4188501834869411 65.530968047678471 11.462909460067747 5.1525752544403067 19.232909247279167 47.569127939641476 5.5300260186195365 4.3402527421712858 15.32585535943508 9.2607843056321126 3.3162734284996978 4.9645193666219702 8.5762465223669988 18.3166798055172 48.163499422371387 2.9040300324559238 3.0894167795777348 5.9898141771554938 6.112903654575347 5.7288564741611472 15.301539845764642 10.305595926940439 19.270340576767921 11.164297454059122 46.891372382640839 6.5990751981735327 4.3375309556722632 3.4806213676929465 2.264183595776557 3.9452645257115391 3.5004384517669669 7.571493759751319 25.241008460521702 11.314298942685125 3.591866970062255 7.0004634261131384 4.3152520507574073 3.1143022477626792 15.637546002864836 3.3701135814189902 6.2180155962705612 14.619300253689287 3.4094997942447653 5.1676768511533728 10.256416544318197 3.5043492019176474 3.3001304268836966
leaf_count=288 14 459 67 23 84 217 28 21 106 59 16 24 42 79 366 17 18 47 32 40 84 48 82 62 224 51 41 34 25 31 36 62 183 57 16 35 24 16 81 23 34 84 16 24 91 15 13
internal_value=0.00674886 -0.0085065 -0.0158969 -0.0425662 0.109461 0.00222399 -0.0763394 0.0366743 -0.0855756 -0.0969736 0.054808 0.0634168 0.133161 -0.00797105 -0.0190852 -0.030998 0 -0.107694 -0.0540615 -0.0620431 -0.00226634 -0.0223804 0.0813937 0.0141746 -0.0400194 0 0.0220831 0.0350364 0.0447929 0.0551548 0.0760006 -0.0238822 -0.0350188 0.0735339 0.0821447 0.00594502 0.0217254 0.0305739 0.0448241 -0.0455855 -0.00184954 0.0368951 0 0.0366669 0.0891119 0 -0.00246375
internal_weight=600.33 520.869 498.18 219.57 79.4605 278.61 101.637 81.3144 96.1074 80.7816 70.7561 67.4398 60.2276 197.296 162.647 116.801 56.7954 71.5208 60.0053 53.8924 117.933 65.759 22.6892 34.6487 52.0439 45.8464 34.3835 30.046 26.5654 24.3012 17.7021 39.272 31.7005 62.4753 51.161 52.1736 30.0676 25.7523 22.638 28.6111 10.5583 17.5233 13.7151 23.4844 14.2017 22.106 18.6017
internal_count=3539 3125 3029 1278 414 1751 699 385 671 565 330 314 330 1366 1201 825 387 506 438 406 579 311 96 165 247 376 309 268 234 209 158 286 224 290 233 268 156 132 116 206 55 101 64 103 122 112 97
is_linear=0
shrinkage=0.186866


Tree=15
num_leaves=31
num_cat=0
split_feature=18 3 28 21 14 25 25 9 9 28 9 1 4 14 21 28 7 8 7 8 28 19 8 21 21 15 21 7 9 8
split_gain=23.4338 7.30362 6.0329 5.26318 3.81476 4.05907 3.34173 2.69786 2.25267 2.16745 3.67179 1.64434 1.6062 1.42786 1.19631 1.76912 1.18293 1.08111 0.942578 0.893073 0.889119 0.655312 0.52727 0.529321 0.482096 0.463582 0.380595 0.380461 0.194522 0.0544949
threshold=1.0000000180025095e-35 1.0000000180025095e-35 0.40142496392496402 5.5000000000000009 1.0000000180025095e-35 13.300000000000002 10.100000000000003 142.50000000000003 141.50000000000003 0.42613851992409874 128.50000000000003 1.0000000180025095e-35 1.0000000180025095e-35 2.5000000000000004 11.500000000000002 0.51757543139695261 18.500000000000004 144.35000000000005 34.500000000000007 101.15000000000002 0.35554587688734035 6.5000000000000009 136.05000000000004 1.5000000000000002 10.500000000000002 1.5000000000000002 5.5000000000000009 18.500000000000004 146.50000000000003 132.05000000000004
decision_type=2 2 2 2 2 2 2 2 2 2 2 2 2 2 2 2 2 2 2 2 2 2 2 2 2 2 2 2 2 2
left_child=7 2 3 22 -5 13 11 21 12 10 -4 18 17 25 15 26 -12 19 27 -8 28 -1 23 -2 -22 -6 -11 -3 -13 -7
right_child=1 6 9 4 5 29 8 -9 -10 14 16 20 -14 -15 -16 -17 -18 -19 -20 -21 24 -23 -24 -25 -26 -27 -28 -29 -30 -31
leaf_value=0.1165657097410594 0.040254171029941277 0 0 0 -0.090621266247634225 0 0 0 0 0 0 -0.017209078242385871 0 0 0 0 0.097923215818785103 0 0 0.067448534750313371 0.042095148071631318 0 0 0 0 0 -0.070852637673295943 -0.059481596004225118 0 -0.0092383877574333823
leaf_weight=60.446118161082268 14.460846751928335 4.2088309302926126 19.773789077997208 10.323266655206679 106.35638473182917 35.304058760404587 7.4345364421606055 11.354741103947161 24.262281969189644 5.4335525706410435 8.4701256975531596 14.455628819763662 14.456909105181692 3.0648701637983313 12.447450116276739 10.976670295000078 17.1069226115942 8.9170510098338109 5.9767084121704093 76.354350134730339 19.05369591712952 3.3267134130001059 11.543739050626753 5.7353207096457473 4.619810312986373 21.962875731289387 15.460889749228953 20.825513504445553 2.835611253976821 13.815612755715845
leaf_count=346 69 21 106 43 878 273 35 54 134 28 47 82 95 16 49 51 83 42 26 370 87 14 56 37 20 160 76 104 14 123
internal_value=0.00633817 -0.00661053 -0.0256737 -0.0425629 -0.0549619 -0.0623754 0.0177215 0.0990007 0.0360929 0.00596678 0.0375328 -0.00348411 0.0474996 -0.0791863 -0.0079618 -0.0334395 0.0774035 0.055972 -0.0381533 0.0620062 0.0042873 0.112451 0.00263213 0.0255297 0.0315253 -0.082313 -0.0603248 -0.0519359 0 0
internal_weight=590.765 515.637 312.236 222.567 190.827 180.504 203.401 75.1276 131.425 89.6694 45.3508 71.9758 107.163 131.384 44.3186 31.8711 25.577 92.7059 31.0111 83.7889 40.9647 63.7728 31.7399 20.1962 23.6735 128.319 20.8944 25.0343 17.2912 49.1197
internal_count=3539 3125 2095 1655 1493 1450 1030 414 676 440 236 354 542 1054 204 155 130 447 151 405 203 360 162 106 107 1038 104 125 96 396
is_linear=0
shrinkage=0.186866


Tree=16
num_leaves=23
num_cat=0
split_feature=22 20 22 20 23 21 28 15 14 23 16 18 23 23 18 22 10 23 13 23 23 23
split_gain=38.9779 14.6858 9.22998 19.5185 7.56589 7.45996 3.33753 2.56463 2.66672 2.4468 2.46503 2.06743 1.11082 1.19331 0.931112 0.290519 0.214476 0.155989 0.0280941 0.0120397 0.000160817 0.00888647
threshold=3.5000000000000004 2.5000000000000004 5.5000000000000009 5.5000000000000009 12.246428571428574 9.5000000000000018 0.464387367850366 1.5000000000000002 1.0000000180025095e-35 15.43888888888889 5.5000000000000009 1.0000000180025095e-35 14.992857142857146 10.992857142857146 1.0000000180025095e-35 2.5000000000000004 1.0000000180025095e-35 13.907142857142858 4.5000000000000009 12.130357142857145 13.160476190476194 12.267857142857144
decision_type=2 2 2 2 2 2 2 2 2 2 2 2 2 2 2 2 2 2 2 2 2 2
left_child=1 16 3 11 -5 -3 7 8 -4 10 14 -2 13 -13 -10 -7 -1 19 -18 -9 21 -6
right_child=2 5 6 4 20 15 -8 17 9 -11 -12 12 -14 -15 -16 -17 18 -19 -20 -21 -22 -23
leaf_value=0 0 0.12534933800131559 0 0.097943957391237513 0 0.031390545860809686 0 0 0 0 0 0 0 -0.091872054858034874 -0.093349038309296348 0 0 -0.017598860677219993 -0.033762299680020827 0.0040139827949126896 -0.00047105714435818213 0.0031206069101906569
leaf_weight=3.4204484373331061 3.65744824707508 104.40420896559954 6.5986779630184165 52.702828172594309 3.7002270668745068 43.724052704870701 15.679338723421095 7.2775770723819759 10.663311615586279 6.0552573800086966 5.2750613540410987 7.8399104923009864 3.3559269756078711 52.118036206811666 123.97257885336876 29.27691587805748 28.578720659017563 9.10647404193878 6.467369318008422 17.612774953246117 16.826996903866529 23.384618561714888
leaf_count=15 17 548 27 271 16 198 68 44 43 49 55 37 19 315 1118 121 116 70 28 132 101 131
internal_value=0.00549726 0.0684197 -0.0296316 0 0.0554159 0.0914475 -0.0555803 -0.0627299 -0.0729507 -0.0784353 -0.0835399 -0.0689619 -0.0774827 -0.0828536 -0.0885302 0.0225125 -0.0135097 0 -0.0192072 0 0 0
internal_weight=581.699 215.872 365.827 163.586 96.6147 177.405 202.241 186.562 152.565 145.966 139.911 66.9713 63.3139 59.9579 134.636 73.001 38.4665 33.9968 35.0461 24.8904 43.9118 27.0848
internal_count=3539 1026 2513 907 519 867 1606 1538 1292 1265 1216 388 371 352 1161 319 159 246 144 176 248 147
is_linear=0
shrinkage=0.186866


Tree=17
num_leaves=42
num_cat=0
split_feature=22 20 17 21 21 28 7 22 21 22 13 8 23 15 20 7 1 8 20 28 4 23 23 23 23 20 20 15 8 8 13 21 21 8 8 20 7 8 28 23 21
split_gain=27.6486 13.0546 6.46341 3.55323 3.34452 3.73952 3.12422 4.15954 2.01391 1.99875 1.42057 1.61413 1.402 1.44177 1.35462 1.34786 1.89484 1.18323 1.18386 1.12816 1.09132 1.72796 0.986665 0.928414 0.818074 0.458842 0.375494 0.358639 0.331933 0.297137 0.284674 0.658552 0.271606 1.47569 0.270318 0.302373 0.259168 0.115775 0.0470001 0.0413699 0.0113519
threshold=4.5000000000000009 5.5000000000000009 1.0000000180025095e-35 9.5000000000000018 7.5000000000000009 0.41492342782665365 20.500000000000004 3.5000000000000004 10.500000000000002 6.5000000000000009 1.5000000000000002 115.05000000000001 15.696153846153846 2.5000000000000004 1.0000000180025095e-35 45.500000000000007 1.0000000180025095e-35 111.2 5.5000000000000009 0.21159309440559443 1.0000000180025095e-35 12.246428571428574 13.782857142857145 13.320714285714288 15.072857142857144 7.5000000000000009 13.500000000000002 1.0000000180025095e-35 116.75000000000001 101.15000000000002 3.5000000000000004 8.5000000000000018 8.5000000000000018 119.95000000000002 112.45000000000002 6.5000000000000009 29.500000000000004 121.45000000000002 0.35554587688734035 13.160476190476194 12.500000000000002
decision_type=2 2 2 2 2 2 2 2 2 2 2 2 2 2 2 2 2 2 2 2 2 2 2 2 2 2 2 2 2 2 2 2 2 2 2 2 2 2 2 2 2
left_child=1 6 4 -3 12 15 10 8 14 19 11 -1 13 27 -8 16 24 -7 -19 -4 21 -5 -20 -21 26 32 -6 -2 -27 -16 31 -12 33 -18 -34 37 -30 -36 -32 -11 -23
right_child=2 3 9 20 5 17 7 -9 -10 39 30 -13 -14 -15 29 -17 25 18 22 23 -22 40 -24 -25 -26 28 -28 -29 36 -31 38 -33 34 -35 35 -37 -38 -39 -40 -41 -42
leaf_value=0 0 0.13099780022451429 0 0.059794005727859867 -0.081108266342543672 0 0 -0.012080010610734677 0 -0.0098464029687980945 0.038706250324325966 -0.050662163328252567 0 0 0 0 0 0 0.060232687160882807 0.07631670123695028 0 -0.0043341504160143247 0 0 0 0 0 -0.088618629786866243 -0.037372833423155047 0.087092176638423183 -0.010385555762248847 0 0 0.054351230896172373 0 0 0 -0.036091840211934692 0 0 0
leaf_weight=7.0207938551902762 1.8298480659723271 58.368049897253513 3.991483427584174 38.942900463938713 41.649274311959743 4.1754706725478163 8.7489979416131956 14.406390540301798 12.515422865748404 6.4198802113533002 13.504141606390478 40.204294286668301 4.5722970291972151 1.9861934036016453 3.4712737724184981 6.0817572250962249 4.94244381412864 3.7687260061502448 26.55184476077557 18.414006203413013 8.8554536923766118 12.6217013373971 3.6362455636262885 6.9770651161670676 3.6143471635878077 2.0912670083344009 5.0487641617655745 83.538390401750803 17.768848225474361 39.204373918473721 6.7357515469193476 5.8601193353533736 3.0186013653874424 12.173969395458696 3.1542673036456135 4.7395750172436228 1.9431935921311367 9.9752213358879072 4.8454659283161163 3.210959255695343 6.1215444132685652
leaf_count=32 10 310 24 173 328 22 35 64 57 33 58 185 33 12 20 28 46 18 122 82 40 57 19 33 26 14 28 784 191 224 32 27 25 115 27 54 11 81 21 14 24
internal_value=0.00460332 0.0469852 -0.0339031 0.0905696 -0.0463942 -0.0182582 0.00318701 0.0325127 0.0568053 0.0177901 -0.0148031 -0.0350906 -0.0779965 -0.0829732 0.0712385 -0.0374503 -0.0432585 0.014637 0.0347696 0.0473321 0.0307866 0.0406276 0.0489471 0.060559 -0.0700021 -6.23204e-06 -0.0757561 -0.0869868 -0.0230016 0.0828705 0 0.0188945 0 0.019249 0 -0.0189271 -0.0312962 -0.0304205 0 0 0
internal_weight=566.701 281.427 285.274 124.91 246.261 154.334 156.517 78.3465 63.9401 39.0134 78.1706 47.2251 91.9267 87.3544 51.4246 116.202 110.12 38.1323 33.9568 29.3826 66.5416 57.6861 30.1881 25.3911 50.3124 59.8074 46.698 85.3682 21.8033 42.6756 30.9455 19.3643 38.0041 17.1164 20.8877 17.8691 19.712 13.1295 11.5812 9.63084 18.7432
internal_count=3539 1359 2180 604 1994 1155 755 400 336 186 355 217 839 806 279 974 946 181 159 139 294 254 141 115 382 564 356 794 216 244 138 85 348 161 187 162 202 108 53 47 81
is_linear=0
shrinkage=0.186866


Tree=18
num_leaves=34
num_cat=0
split_feature=22 20 22 20 1 23 24 4 19 25 8 28 25 9 9 9 3 24 9 23 19 9 8 23 9 9 28 23 9 9 14 20 9
split_gain=21.6507 13.6716 6.82907 12.7748 4.87013 4.07722 3.35834 2.93113 2.61448 2.26234 2.2999 2.30736 2.18902 1.83957 1.69399 1.6174 1.35914 1.15922 0.622975 0.777785 0.606775 0.575104 1.38501 0.485437 0.379421 0.110651 0.519567 0.0857579 0.0645991 0.0720176 0.0563534 0.0272757 0.107669
threshold=2.5000000000000004 2.5000000000000004 5.5000000000000009 5.5000000000000009 1.0000000180025095e-35 13.160476190476194 4.5000000000000009 1.0000000180025095e-35 5.5000000000000009 13.300000000000002 141.45000000000002 0.51757543139695261 15.850000000000001 112.50000000000001 152.50000000000003 134.50000000000003 1.0000000180025095e-35 1.0000000180025095e-35 109.50000000000001 10.309523809523812 1.0000000180025095e-35 158.50000000000003 136.05000000000004 15.43888888888889 121.50000000000001 124.20000000000002 0.21159309440559443 10.747222222222224 136.50000000000003 147.50000000000003 1.0000000180025095e-35 10.500000000000002 133.45000000000002
decision_type=2 2 2 2 2 2 2 2 2 2 2 2 2 2 2 2 2 2 2 2 2 2 2 2 2 2 2 2 2 2 2 2 2
left_child=1 21 3 4 12 7 18 13 9 10 11 14 20 -5 17 -15 -6 23 -3 -20 -2 22 -1 30 -18 -11 28 -21 -27 -30 -4 -10 -33
right_child=2 6 8 5 16 -7 -8 -9 31 25 -12 -13 -14 15 -16 -17 24 -19 19 27 -22 -23 -24 -25 -26 26 -28 -29 29 -31 -32 32 -34
leaf_value=0 -0.096423307744519113 0 0 0 -0.024926113226697126 0 0 0 0.0082398776086808623 0 0 0 0 0.097743688989336233 0 0 0 0 0.12258801989165008 0 0 0 -0.060303779731354208 0 0.041645411030493386 0 -0.025881296468360935 0.024457411618043379 0.018736672349588809 0 -0.094427303029654755 0 -0.014746276650959707
leaf_weight=21.567633748054504 40.883702833205462 2.8398999795317641 2.7897157073020926 5.1665095537900916 21.887877028435469 20.042479902505875 2.7481872588396064 14.796789936721323 5.5477584898471823 8.5888315886259061 13.116546280682085 2.803479239344596 4.5403540357947341 56.484990190714598 2.7258514761924735 22.146458953619003 5.566612213850024 2.5190903916954985 74.934985496103764 4.8497730568051329 3.1945149749517432 4.569309562444686 12.138945937156675 2.0202907770872107 15.644498340785502 6.9845956452190858 24.373080860823393 31.032488934695721 5.1085231155157089 2.4952919073402882 82.787417810410261 18.977417185902599 8.8094014376401883
leaf_count=86 227 15 12 28 146 115 14 95 24 62 114 12 23 266 21 108 26 18 455 21 14 19 54 17 74 76 187 147 57 26 823 100 57
internal_value=0.00356324 0.06249 -0.0175647 0.00138804 -0.0436916 0.0448087 0.0941922 0.0609368 -0.0428665 -0.0525664 -0.0675109 -0.0768318 -0.07955 0.0736063 -0.082835 0.0804774 0 -0.0874716 0.10016 0.10224 -0.0912646 -0.0118246 -0.0251195 -0.0909572 0.0310316 0 -0.0090246 0.0215701 0 0.0118426 -0.0929039 0 0
internal_weight=554.683 154.681 400.002 210.355 91.7176 118.637 116.405 98.5947 189.647 156.313 108.762 95.6458 48.6186 83.798 92.8424 78.6314 43.099 90.1165 113.657 110.817 44.0782 38.2759 33.7066 87.5974 21.2111 47.5503 38.9615 35.8823 14.5884 7.60382 85.5771 33.3346 27.7868
internal_count=3539 811 2728 1122 510 612 652 497 1606 1425 1017 903 264 402 891 374 246 870 638 623 241 159 140 852 100 408 346 168 159 83 835 181 157
is_linear=0
shrinkage=0.186866


Tree=19
num_leaves=36
num_cat=0
split_feature=22 13 18 23 10 1 22 28 21 27 17 27 3 28 25 13 7 21 7 7 18 28 4 27 27 15 28 23 28 25 25 28 28 28 22
split_gain=15.7797 5.49222 4.29469 3.34827 3.07254 2.57841 2.9416 2.10102 1.93963 1.72646 2.35465 1.7054 1.56522 1.70336 1.2262 0.999883 1.63501 0.872141 0.751537 0.648356 0.582814 0.5839 0.570108 0.321094 0.304157 0.229828 0.0780546 0.0271397 0.0223695 0.857918 0.15778 0.00700719 0.000369965 0.00144547 0.000152853
threshold=3.5000000000000004 1.5000000000000002 1.0000000180025095e-35 11.715476190476194 1.0000000180025095e-35 1.0000000180025095e-35 5.5000000000000009 0.35554587688734035 12.500000000000002 1.9050000000000002 1.0000000180025095e-35 -1.3099999999999998 1.0000000180025095e-35 0.41492342782665365 14.700000000000001 4.5000000000000009 18.500000000000004 7.5000000000000009 46.500000000000007 32.500000000000007 1.0000000180025095e-35 0.25676347173144881 1.0000000180025095e-35 -2.4099999999999997 1.9050000000000002 2.5000000000000004 0.28652253661694499 11.904545454545456 0.33534094111017193 10.950000000000001 14.700000000000001 0.28652253661694499 0.21159309440559443 0.41492342782665365 1.0000000180025095e-35
decision_type=2 2 2 2 2 2 2 2 2 2 2 2 2 2 2 2 2 2 2 2 2 2 2 2 2 2 2 2 2 2 2 2 2 2 2
left_child=4 2 24 12 22 8 -7 20 11 10 18 32 13 14 -4 16 -9 -14 25 -13 -6 34 -1 -19 26 -5 -2 -10 29 31 -31 -8 -3 -34 -22
right_child=1 5 3 9 7 6 28 15 27 -11 -12 19 17 -15 -16 -17 -18 23 -20 -21 21 -23 -24 -25 -26 -27 -28 -29 -30 30 -32 -33 33 -35 -36
leaf_value=0.091040149160380293 0 0 -0.068582681487943414 -0.082027826315877725 0.02381780886445695 0.070922076306633608 -0.0040103581025661217 0 0 0 0 -0.066870340330764125 0 0 0 0 0.059962797170710326 0 0 0 0.00055395318200054163 -0.024288594347408765 0 0.061855328515756119 0 0 0.030351807884435856 0.012142678304242979 -0.0059264870751810925 0.041451477001243547 0 0 0.0022315009502444313 0 0
leaf_weight=52.080375410616398 4.5966258198022869 2.8539387136697751 19.63574126362801 104.42473490536213 8.5744847208261472 28.775061946362257 6.7335780896246451 12.513550363481043 3.7125066816806775 26.264036539942026 10.559897147119043 26.892799109220505 5.2130658850073841 12.385360702872275 3.8238174840807906 9.1111686229705793 51.129757277667522 3.7145511955022821 4.4343937262892714 5.2297871261835089 8.9132933989167196 44.178789667785168 5.7083905562758437 8.8673833087086642 6.7057515680789939 2.0485689789056769 9.3311608880758268 7.8157090917229652 13.051288947463034 12.175921946763994 4.5995083339512339 2.6143938340246677 4.2503216713666916 2.9639437347650528 6.5976683795452109
leaf_count=341 22 26 137 961 55 159 71 53 18 226 51 195 29 53 25 43 247 16 21 24 47 189 25 39 28 13 47 37 89 124 43 19 26 14 26
internal_value=0.00280999 -0.0193355 -0.0372079 -0.0471231 0.0452111 0.00578086 0.0332847 0.0180962 -0.0124946 -0.0610864 -0.0703539 -0.0387243 0 -0.0259935 -0.0529141 0.0388045 0.0466916 0.0306645 -0.0779497 -0.0577762 0 -0.0125145 0.0852875 0.0511759 0.0102554 -0.0808631 0.0247108 0.00852774 0 0.0008476 0.0344551 0 0 0.000907271 0
internal_weight=542.481 343.674 222.005 201.372 198.807 121.669 67.9498 141.019 53.719 147.732 121.468 42.1908 53.6399 35.8449 23.4596 72.7545 63.6433 17.795 110.908 32.1226 68.2642 59.6898 57.7888 12.5819 20.6335 106.473 13.9278 11.5282 39.1747 26.1234 16.7754 9.34797 10.0682 7.21427 15.511
internal_count=3539 2513 1668 1571 1026 845 505 660 340 1272 1046 285 299 215 162 343 300 84 995 219 317 262 366 55 97 974 69 55 346 257 167 90 66 40 73
is_linear=0
shrinkage=0.186866


Tree=20
num_leaves=24
num_cat=0
split_feature=22 17 27 28 3 28 13 22 19 13 16 24 28 10 9 27 19 28 10 10 16 19 16
split_gain=12.4698 4.78923 3.64475 3.98767 3.27594 3.3405 4.11393 2.55012 3.36074 2.39644 2.33387 1.42008 1.22396 0.964369 0.834073 0.737095 0.295453 0.262766 0.165777 0.0523537 0.0454061 0.427934 0.210812
threshold=2.5000000000000004 1.0000000180025095e-35 1.7650000000000003 0.21159309440559443 1.0000000180025095e-35 0.41492342782665365 1.5000000000000002 4.5000000000000009 1.0000000180025095e-35 4.5000000000000009 5.5000000000000009 4.5000000000000009 0.42613851992409874 1.5000000000000002 110.50000000000001 -3.5899999999999994 12.500000000000002 0.54712511205019865 1.0000000180025095e-35 1.0000000180025095e-35 1.5000000000000002 9.5000000000000018 4.5000000000000009
decision_type=2 2 2 2 2 2 2 2 2 2 2 2 2 2 2 2 2 2 2 2 2 2 2
left_child=9 4 3 -3 5 6 10 15 13 11 -2 14 -7 -9 -1 -6 -10 -14 -4 -11 21 -8 -22
right_child=1 2 18 -5 7 12 20 8 16 19 -12 -13 17 -15 -16 -17 -18 -19 -20 -21 22 -23 -24
leaf_value=0 -0.076403135023914895 0 0 0.09424045492028614 0 0.031787125160034069 -0.020560218178984613 -0.054809689522429594 0.024359668287480488 0 0 0 -0.026353127353870326 0 0.065162413618266357 0.041758516891436295 0 0 -0.014891319727896285 -0.0092435857030466594 0.017173829821918139 0 0
leaf_weight=6.6391075886785975 99.597266566008329 4.9487461373209944 5.0077503919601467 27.444114036858082 5.7969332188367835 21.658238336443901 30.619923107326031 49.748644843697548 18.409564964473251 4.0159072056412723 3.3802078813314429 2.5270254611968985 22.42379450052977 5.9198032207787028 119.55746106058359 40.40741353482008 2.7211577594280234 7.7709479779005042 17.624425292015076 12.915503054857252 16.478403519839052 2.6450310200452796 4.4608208760619155
leaf_count=45 960 27 22 128 23 112 264 376 99 28 43 13 111 36 661 169 14 38 92 64 157 12 45
internal_value=0.00328818 -0.0123173 0.0287628 0.0663264 -0.0226509 -0.0364568 -0.0494898 0 -0.0186106 0.0497355 -0.0702084 0.0582132 0 -0.0469247 0.0618107 0.0329886 0.0138003 -0.0178241 0 0 0 -0.00616289 0
internal_weight=532.718 387.063 55.025 32.3929 332.038 209.035 157.182 123.004 76.7992 145.655 102.977 128.724 51.853 55.6684 126.197 46.2043 21.1307 30.1947 22.6322 16.9314 54.2042 33.265 20.9392
internal_count=3539 2728 269 155 2459 1742 1481 717 525 811 1003 719 261 412 706 192 113 149 114 92 478 276 202
is_linear=0
shrinkage=0.186866


Tree=21
num_leaves=37
num_cat=0
split_feature=18 20 23 7 28 23 9 28 23 9 9 9 28 9 23 21 8 7 7 12 28 9 21 8 9 21 10 9 23 9 9 23 21 8 7 7
split_gain=9.98569 4.25544 6.18678 3.98397 3.9389 3.38033 2.62975 2.16819 2.09128 2.61276 2.68251 1.94524 1.66447 1.97024 1.34128 1.04852 0.816569 0.788621 0.651875 0.646986 0.918486 1.01868 0.562446 0.549337 0.896094 0.443988 0.409247 0.361127 0.218971 0.139473 0.513642 0.206189 0.137486 0.0691136 0.0404813 0.0196187
threshold=1.0000000180025095e-35 5.5000000000000009 12.205263157894739 18.500000000000004 0.40142496392496402 10.992857142857146 139.50000000000003 0.41492342782665365 14.388750000000002 147.50000000000003 114.50000000000001 141.50000000000003 0.38483522548092092 146.50000000000003 10.309523809523812 17.500000000000004 123.55000000000001 18.500000000000004 24.500000000000004 1.5000000000000002 0.33534094111017193 121.50000000000001 12.500000000000002 116.95000000000002 158.50000000000003 11.500000000000002 1.5000000000000002 116.50000000000001 12.492261904761907 133.05000000000004 134.50000000000003 11.741666666666669 6.5000000000000009 119.95000000000002 49.500000000000007 40.500000000000007
decision_type=2 2 2 2 2 2 2 2 2 2 2 2 2 2 2 2 2 2 2 2 2 2 2 2 2 2 2 2 2 2 2 2 2 2 2 2
left_child=6 5 4 12 14 18 17 11 9 10 -7 15 13 16 22 32 -4 -1 23 20 21 -16 26 -2 -25 -23 -3 -6 -18 31 -31 -21 -5 -9 -34 -20
right_child=1 2 3 7 27 8 -8 33 -10 -11 -12 -13 -14 -15 19 -17 28 -19 35 29 -22 25 -24 24 -26 -27 -28 -29 -30 30 -32 -33 34 -35 -36 -37
leaf_value=0 0 0.056071692788785404 0 0 0 0 0 0 0 0 -0.088547647683455702 0 0 0 0 0 0 0.099928167287378356 0.02501557481273067 -0.019140219709749728 0 -0.065890026392388612 0 -0.033744539003229185 0 0 0 0.082158773731846352 0.087692031836912473 0.038845029344777814 0 0 -0.071151111887367877 0.010063343908773911 0 0
leaf_weight=7.4310207217931739 11.812156632542608 17.116203367710121 6.3574841096997323 11.527347050607203 5.200763374567031 4.4735495299100867 16.928340960294008 8.3751432076096552 8.9548660553991777 9.9664351008832437 58.892398126423359 17.393419943749905 9.8955968320369703 6.6408535465598098 7.9899797551333931 5.7022125720977774 1.9991524070501352 37.558302138000727 16.012179568409923 11.172971926629545 7.4108590707182875 15.944972056895496 2.6169825643301001 42.976881392300129 4.7974687218666068 5.8559919446706763 3.0334570333361617 41.14906832575798 15.118710193783043 6.6337695121765128 9.0664731748402101 7.6834937185049048 60.073678467422724 15.350617177784441 2.4089118689298621 2.3957156538963309
leaf_count=38 50 110 74 129 28 21 97 45 52 54 348 180 63 84 50 35 23 279 91 70 41 131 12 184 20 31 16 199 190 30 57 50 555 75 12 15
internal_value=0.0027564 -0.00512887 0.00529331 -0.0153442 0.0351814 -0.0300389 0.0695326 -0.0352402 -0.0545723 -0.0647819 -0.0777735 -0.0473074 0.0194758 0.0445245 0.000346902 -0.058733 0.0674341 0.0899047 0 -0.00194214 -0.022387 -0.037898 0.0385955 -0.0109229 -0.0220307 -0.0546802 0.0480808 0.07668 0.0824053 0 0.014192 0 -0.0642796 0 -0.0697905 0.0233355
internal_weight=523.917 462 301.718 160.843 140.875 160.282 61.9177 120.831 82.2872 73.3324 63.3659 97.1056 40.0118 30.1162 94.5252 79.7121 23.4753 44.9893 77.9944 71.7585 37.2018 29.7909 22.7666 59.5865 47.7744 21.801 20.1497 46.3498 17.1179 34.5567 15.7002 18.8565 74.0099 23.7258 62.4826 18.4079
internal_count=3539 3125 2290 1465 825 835 414 1031 475 423 369 911 434 371 598 731 287 317 360 460 253 212 138 254 204 162 126 227 213 207 87 120 696 120 567 106
is_linear=0
shrinkage=0.186866


Tree=22
num_leaves=27
num_cat=0
split_feature=18 27 14 25 23 20 5 9 0 23 20 14 7 9 23 9 9 11 26 9 9 27 20 23 26 23
split_gain=7.40921 3.97606 3.74324 5.55677 2.50432 3.71163 2.43981 2.08245 2.73113 1.91388 1.76861 1.61174 1.4485 1.20306 0.958915 0.924949 0.884782 0.770705 0.889072 0.754463 0.71456 0.559151 0.452503 0.422437 0.221593 0.0797562
threshold=1.0000000180025095e-35 1.9050000000000002 1.0000000180025095e-35 10.100000000000003 13.907142857142858 5.5000000000000009 1.0000000180025095e-35 123.50000000000001 1.0000000180025095e-35 15.43888888888889 15.500000000000002 2.5000000000000004 24.500000000000004 145.35000000000002 14.992857142857146 116.50000000000001 158.50000000000003 1.0000000180025095e-35 1.0000000180025095e-35 118.45000000000002 148.45000000000002 1.9050000000000002 14.500000000000002 10.350877192982459 3.2500000000000004 12.595625000000002
decision_type=2 2 2 2 2 2 2 2 2 2 2 2 2 2 2 2 2 2 2 2 2 2 2 2 2 2
left_child=1 6 19 11 5 12 -1 -7 -9 17 20 13 15 14 22 -5 21 -6 -19 -2 -10 24 -4 -14 25 -17
right_child=2 -3 3 4 9 7 -8 8 10 -11 -12 -13 23 -15 -16 16 -18 18 -20 -21 -22 -23 -24 -25 -26 -27
leaf_value=0.099063309095043822 0 0 -0.056237751293146829 0 0 0 0 0 0.062042383502725687 0 0 0 0.030040871261731078 0 0 -0.06354045504228166 0 0 -0.072804579897176272 0.069225125534737433 0 0 0 0 0 0
leaf_weight=40.935347471386194 3.1475789248943356 16.563988052308559 110.71504112705588 4.8853054270148268 4.5167221054434767 47.280156787484884 2.1205201670527449 9.3361417204141599 99.030486721545458 8.3427794277667982 3.7173126563429824 6.4428869634866706 7.8652595356106785 19.042735747992992 3.0291387028992167 30.190035808831453 3.6776083707809439 3.686149779707196 24.055747076869011 17.36007384955883 14.299415692687033 6.7644346170127383 2.2401085048913947 14.065346091985701 9.9878295473754388 3.9167271926999083
leaf_count=318 14 84 740 21 24 328 12 56 796 64 20 35 50 122 19 158 16 34 248 82 109 35 11 64 50 29
internal_value=0.00345825 0.0618968 -0.00296685 -0.00915289 0.00253999 0.0125862 0.0880717 0.0295494 0.0414544 -0.0311643 0.0510492 -0.0391134 -0.0117039 -0.0446175 -0.0513109 -0.0304322 -0.0388645 -0.0530149 -0.0624821 0.0579909 0.0565026 -0.0460947 -0.0545365 1.9596e-05 -0.0526257 -0.0600056
internal_weight=517.215 59.6199 457.595 437.087 295.617 255.016 43.0559 173.664 126.383 40.6014 117.047 141.47 81.3525 135.027 115.984 59.4219 54.5366 32.2586 27.7419 20.5077 113.33 50.859 112.955 21.9306 44.0946 34.1068
internal_count=3539 414 3125 3029 2102 1732 330 1309 981 370 925 927 423 892 770 309 288 306 282 96 905 272 751 114 237 187
is_linear=0
shrinkage=0.186866


Tree=23
num_leaves=35
num_cat=0
split_feature=22 20 23 4 23 13 8 26 16 28 14 26 16 20 26 23 28 22 8 24 28 20 25 28 8 8 26 20 23 23 22 23 23 15
split_gain=9.80014 12.3452 3.13212 3.21057 2.68492 3.19476 2.67619 1.40304 1.79491 1.17418 1.03469 1.08297 0.732188 0.707427 0.52385 0.483012 0.391192 0.368876 0.460845 0.358703 0.420697 0.447529 0.350789 0.217046 0.205649 0.373941 0.14705 0.0582989 0.499643 0.0482939 0.0187313 0.0155998 0.00963826 0.00596517
threshold=5.5000000000000009 5.5000000000000009 13.160476190476194 1.0000000180025095e-35 10.992857142857146 1.5000000000000002 126.35000000000001 2.0000000000000004 1.5000000000000002 0.36835729284445168 1.0000000180025095e-35 2.7000000000000006 4.5000000000000009 7.5000000000000009 -0.54999999999999993 15.292857142857146 0.464387367850366 4.5000000000000009 143.45000000000002 1.0000000180025095e-35 0.42613851992409874 13.500000000000002 15.850000000000001 0.33534094111017193 155.40000000000003 131.35000000000005 -0.54999999999999993 6.5000000000000009 12.246428571428574 13.430952380952382 4.5000000000000009 15.43888888888889 15.096168831168834 1.5000000000000002
decision_type=2 2 2 2 2 2 2 2 2 2 2 2 2 2 2 2 2 2 2 2 2 2 2 2 2 2 2 2 2 2 2 2 2 2
left_child=1 4 3 26 9 15 10 8 27 23 -2 12 16 14 -10 22 -12 18 -11 20 21 33 -6 -1 25 -25 -3 28 -8 -29 -7 -30 -31 -9
right_child=6 2 -4 -5 5 30 7 19 13 17 11 -13 -14 -15 -16 -17 -18 -19 -20 -21 -22 -23 -24 24 -26 -27 -28 29 31 32 -32 -33 -34 -35
leaf_value=0 0 0 0 0 -0.063974766400119842 0.0045531910377913775 0 -0.059059668450498044 0 0.040056792794012759 -0.079182661014608094 0 0 0 0.074951123540119846 0 0 0 0 0 0 0 0 0 0 -0.033741980975748598 0.085542073407273711 0 -0.027753970818913717 0.010860501802526559 0 0 0 0
leaf_weight=5.428473148494958 2.9283279180526725 15.267226070165632 21.968239985406399 20.375700380653143 49.226499151438475 23.069622524082664 5.5672753825783756 16.620094101876035 1.4280276894569386 39.023124311119318 50.449979525059462 18.883239343762398 5.0009854696691027 3.4261039122939101 11.130002144724129 2.9602808579802504 5.4963307678699485 3.6557044759392729 4.0942680537700644 1.9023273661732663 1.8487736508250225 2.3253819569945327 3.2787090539932242 16.703692715615034 3.9446994662284842 15.952903762459753 105.39586874842644 14.666642390191557 17.519913133233789 8.670429088175295 7.5408792681992045 3.0971960239112368 2.1020197272300711 2.3376633487641802
leaf_count=37 12 80 128 123 319 115 38 186 18 229 494 160 56 48 118 15 24 20 24 12 10 13 21 73 17 70 610 99 182 74 52 23 18 21
internal_value=0.0028507 0.0230226 0.0594784 0.0692022 -0.00660526 -0.0317814 -0.0297607 0 0.00768432 0.00801349 -0.0530023 -0.0575458 -0.0689702 0.0523983 0.0660824 -0.0569046 -0.0743167 0.0292425 0.0341372 -0.0364387 -0.0424724 -0.0490869 -0.060596 0 -0.012966 -0.0189421 0.0800789 0 -0.00766333 0 0 -0.0258761 0.00935903 -0.0564205
internal_weight=513.287 337.886 163.007 141.039 174.879 86.076 175.401 92.6418 67.6076 88.8029 82.7589 79.8305 60.9473 15.9841 12.558 55.4655 55.9463 46.7731 43.1174 25.0342 23.1319 21.2831 52.5052 42.0298 36.6013 32.6566 120.663 51.6235 26.1844 25.4391 30.6105 20.6171 10.7724 18.9578
internal_count=3539 1933 941 813 992 522 1606 860 618 470 746 734 574 184 136 355 518 273 253 242 230 220 340 197 160 143 690 434 243 191 167 205 92 207
is_linear=0
shrinkage=0.186866


Tree=24
num_leaves=44
num_cat=0
split_feature=23 3 9 10 12 28 24 8 23 8 1 21 9 23 23 23 19 9 8 25 28 21 7 23 8 9 23 25 25 8 21 21 21 9 21 8 21 8 21 9 9 1 7
split_gain=4.17413 4.30586 3.28276 2.82423 2.69663 3.56314 2.3096 2.71201 2.21596 1.85746 1.61352 1.52674 1.33521 1.10279 1.2464 0.929865 0.91653 0.820115 0.698727 0.616087 0.421108 0.945725 0.405577 0.812154 0.848011 0.334105 0.302526 0.618445 0.96926 0.926227 0.228879 0.285681 0.18875 0.16214 0.153125 0.146011 0.107335 0.0962835 0.068533 0.0174542 0.00774383 0.00728879 0.448919
threshold=10.083333333333334 1.0000000180025095e-35 133.45000000000002 1.5000000000000002 1.5000000000000002 0.41492342782665365 1.0000000180025095e-35 101.15000000000002 12.792857142857146 118.85000000000001 1.0000000180025095e-35 5.5000000000000009 151.50000000000003 12.205263157894739 10.747222222222224 10.747222222222224 6.5000000000000009 110.50000000000001 138.05000000000004 14.700000000000001 0.42613851992409874 13.500000000000002 23.500000000000004 15.43888888888889 117.45000000000002 135.50000000000003 12.922708333333334 10.100000000000003 14.700000000000001 121.75000000000001 6.5000000000000009 12.500000000000002 7.5000000000000009 127.50000000000001 6.5000000000000009 116.15000000000002 7.5000000000000009 140.05000000000004 13.500000000000002 120.50000000000001 138.30000000000004 1.0000000180025095e-35 20.500000000000004
decision_type=2 2 2 2 2 2 2 2 2 2 2 2 2 2 2 2 2 2 2 2 2 2 2 2 2 2 2 2 2 2 2 2 2 2 2 2 2 2 2 2 2 2 2
left_child=2 4 3 17 5 6 7 -2 9 39 25 -9 -13 14 -12 -11 19 -1 -19 -17 36 32 23 24 -10 33 37 -28 29 -29 -26 -32 -22 -6 -24 -36 -7 -15 -37 -3 -41 -4 -43
right_child=1 8 41 -5 10 20 -8 11 22 15 13 12 -14 26 -16 16 -18 18 -20 -21 21 -23 34 -25 30 -27 27 28 -30 -31 31 -33 -34 -35 35 38 -38 -39 -40 40 -42 42 -44
leaf_value=0 0 0.00072820019205185882 0 0 -0.016425176570245743 0 0 0 0 0 0 -0.08207723296419768 0 -0.025365416019560279 0.057532362646584248 0.073366393188851034 0 0.087770982991864616 0 0 0 0 0 0 0 -0.043883635878111747 0 0 0 0.067249459591513697 -0.059284510572127337 0 -0.043696404578059449 0.0037994257103623657 0 0.024343747116851017 0.028388584403737874 0 0 -0.0064211054279840673 0 -0.023445297218338879 0
leaf_weight=4.5796395465731612 4.762162569910287 17.059339754283428 16.06492455303669 7.5530267693102351 11.295122623443605 3.6779658496379879 10.154476493597029 2.9760617464780799 5.6237664259970215 6.1353606544435015 2.5084595605731037 82.268585983663797 5.476639360189437 9.6162934452295286 24.269401803612709 41.673577025532722 4.702742598950862 44.114252466708422 4.0461459606885901 8.9740538224577886 4.6120120957493844 6.56130826473236 5.0865411460399654 2.4218569695949546 7.1892624907195595 13.142186295241116 8.2694730944931525 3.4923433400690582 4.6400581896305075 11.434985276311634 17.155676372349266 2.0097132548689833 12.591992087662218 14.146613661199806 3.7199939116835621 13.183990217745306 13.646838940680025 1.4299485571682442 2.9274514466524115 12.531958803534506 2.570352364331483 20.500643409788612 6.240497760474681
leaf_count=34 29 90 103 50 79 24 70 27 40 27 13 799 58 92 137 227 24 294 28 54 28 27 28 17 55 114 74 42 41 109 136 9 63 96 20 68 66 11 14 72 14 98 38
internal_value=0.00196212 -0.00463293 0.035281 0.0607149 -0.0212787 -0.0369267 -0.0542664 -0.0633104 0.0160777 0.0341512 0 -0.0718001 -0.0766076 0.018859 0.042896 0.0512782 0.0582313 0.0758419 0.0819918 0.0648217 0 -0.00438554 0 -0.0181734 -0.032419 -0.0252361 0 0.00792792 0.0291777 0.0496591 -0.0455052 -0.053836 -0.0361926 0 0 0.0137426 0.0233624 -0.0205938 0.0206097 0 -0.00502696 0 -0.00268816
internal_weight=507.038 403.939 103.099 60.2931 250.973 146.728 105.638 95.4834 152.966 93.6474 104.245 90.7213 87.7452 65.661 26.7779 61.4857 55.3504 52.74 48.1604 50.6476 41.0901 23.7653 59.3183 34.4003 31.9784 38.5839 38.8831 27.8369 19.5674 14.9273 26.3547 19.1654 17.204 25.4417 24.918 19.8314 17.3248 11.0462 16.1114 32.1617 15.1023 42.8061 26.7411
internal_count=3539 2894 645 406 1999 1191 983 913 895 508 808 884 857 519 150 332 305 356 322 281 208 118 387 257 240 289 369 266 192 151 200 145 91 175 130 102 90 103 82 176 86 239 136
is_linear=0
shrinkage=0.186866


Tree=25
num_leaves=38
num_cat=0
split_feature=22 16 19 23 9 9 9 21 9 8 26 23 9 8 8 8 8 22 23 25 23 9 26 12 9 21 12 9 8 8 9 9 8 23 23 9 9
split_gain=6.03098 2.3096 3.0868 1.95385 2.56341 2.26068 1.40161 2.47227 1.25937 1.15854 1.67322 1.15916 1.02072 0.880532 0.782139 0.754998 0.615371 0.592479 0.540777 0.410931 0.405619 0.567416 1.61521 0.214498 0.666464 0.0979734 0.431097 0.06969 0.0410911 0.126231 0.0361008 0.022946 0.015295 0.00230544 0.0332136 0.000790728 0.0174839
threshold=5.5000000000000009 1.5000000000000002 5.5000000000000009 13.160476190476194 134.50000000000003 131.50000000000003 141.50000000000003 11.500000000000002 124.20000000000002 121.75000000000001 1.0000000000000002 12.649166666666668 147.50000000000003 110.45000000000002 143.45000000000002 114.25000000000001 141.45000000000002 3.5000000000000004 15.519230769230772 15.850000000000001 14.388750000000002 141.50000000000003 2.7000000000000006 1.0000000180025095e-35 147.50000000000003 18.500000000000004 1.5000000000000002 125.50000000000001 132.85000000000005 113.05000000000001 148.45000000000002 139.50000000000003 120.85000000000001 13.50357142857143 12.922708333333334 164.50000000000003 157.50000000000003
decision_type=2 2 2 2 2 2 2 2 2 2 2 2 2 2 2 2 2 2 2 2 2 2 2 2 2 2 2 2 2 2 2 2 2 2 2 2 2
left_child=3 2 6 4 5 8 7 18 15 13 11 -11 -13 -3 -7 -1 -17 27 -2 32 21 22 -19 31 -25 26 -4 -5 29 -10 -8 -6 -15 34 -12 36 -26
right_child=1 9 25 17 23 14 30 -9 28 10 33 12 -14 19 -16 16 -18 20 -20 -21 -22 -23 -24 24 35 -27 -28 -29 -30 -31 -32 -33 -34 -35 -36 -37 -38
leaf_value=0 -0.083453734797610701 0 0 0 0 0.078812675559209094 0 0 0 0 0 0.093737079530918074 0 -0.0557527222063494 0 0.046484661490657463 0 -0.065696659234408081 0 0 0 0 0 -0.021722997225769716 0 0 0.032091307088829985 0.011392898349899212 0 -0.010474507353021351 -0.0071699531737825246 0.015172299608040776 0 -0.0024285735509920869 0.0096602266785388788 0 0.0064218185632571451
leaf_weight=35.516843982040882 54.905966743826866 4.4776755832135704 11.046044867485767 3.3933613449335089 3.257140792906287 48.28494606167078 6.8421134203672436 10.031999498605726 2.5933283492922774 3.5152177363634101 8.217315614223482 10.28029492869973 1.7355401813983906 9.4680463336408085 3.1075437255203715 45.590361937880516 2.8121716827154151 17.265810925513513 2.916016209870576 1.6322132274508483 8.8652909733355028 5.5053102485835543 2.7523172013461581 45.988961420953274 15.522809132933622 9.7217066511511785 9.4588102996349317 10.268110662698744 7.8820489235222331 44.773223020136356 16.041155986487865 16.976508051156998 1.2413478344678885 5.1691366285085669 3.9477973580360404 4.1657618284225455 6.9934297353029242
leaf_count=203 561 38 62 16 18 304 76 63 16 34 84 119 20 115 20 258 16 120 20 18 56 35 19 264 87 57 51 46 42 267 148 91 15 84 41 21 34
internal_value=0.00194646 -0.0234928 -0.0372397 0.0182844 0.024957 0.0369228 -0.0538113 -0.0663692 0.0130148 0 0.0270693 0.0607869 0.0793954 -0.020039 0.0737081 0.0273239 0.0409419 -0.000974102 -0.0798337 -0.0443237 -0.0219967 -0.0320397 -0.0438189 0 -0.00547345 0 0.0108642 0 0 -0.0050688 0 0.0132733 -0.0536606 0 0 0 0.000943817
internal_weight=502.164 170.648 120.964 331.515 283.465 190.56 90.7373 67.854 139.168 49.6846 32.8653 15.5311 12.0158 16.8193 51.3925 83.9194 48.4025 48.0502 57.822 12.3416 34.3887 25.5234 20.0181 92.9046 72.671 30.2266 20.5049 13.6615 55.2486 47.3666 22.8833 20.2336 10.7094 17.3342 12.1651 26.682 22.5162
internal_count=3539 1606 1038 1933 1641 1126 868 644 802 568 382 173 139 186 324 477 274 292 581 148 230 174 139 515 406 170 113 62 325 283 224 109 130 209 125 142 121
is_linear=0
shrinkage=0.186866


Tree=26
num_leaves=34
num_cat=0
split_feature=22 1 19 26 25 22 10 14 22 23 24 13 9 25 24 25 9 9 23 13 26 19 19 25 13 25 26 26 10 19 25 12 12
split_gain=4.54094 3.72309 5.12042 3.21377 2.85727 2.0844 1.60179 1.54819 1.533 1.4406 0.92275 0.877954 0.816296 1.11414 0.737118 0.834861 0.733607 0.722839 0.871566 0.877836 0.512856 0.458336 0.345492 0.336113 0.229468 0.22068 0.185168 0.183854 0.145962 0.0256784 0.219235 0.00225944 2.45063e-05
threshold=2.5000000000000004 1.0000000180025095e-35 2.5000000000000004 3.2500000000000004 15.850000000000001 6.5000000000000009 1.0000000180025095e-35 1.0000000180025095e-35 9.5000000000000018 13.875357142857144 1.5000000000000002 4.5000000000000009 135.50000000000003 8.2500000000000018 1.5000000000000002 8.2500000000000018 110.50000000000001 108.50000000000001 11.519230769230772 1.0000000180025095e-35 3.2500000000000004 3.5000000000000004 10.500000000000002 15.850000000000001 2.5000000000000004 15.850000000000001 -0.54999999999999993 3.2500000000000004 1.5000000000000002 6.5000000000000009 10.950000000000001 2.5000000000000004 1.0000000180025095e-35
decision_type=2 2 2 2 2 2 2 2 2 2 2 2 2 2 2 2 2 2 2 2 2 2 2 2 2 2 2 2 2 2 2 2 2
left_child=6 2 3 4 7 9 16 -2 21 17 -9 14 13 -7 15 -8 -1 -3 31 -20 23 -4 26 -21 -11 27 -15 -17 -10 30 -14 -19 -6
right_child=1 5 8 -5 32 12 11 10 28 24 -12 -13 29 22 -16 25 -18 18 19 20 -22 -23 -24 -25 -26 -27 -28 -29 -30 -31 -32 -33 -34
leaf_value=0 0 0 0 0 0.00024686658294522268 0 0 -0.073859334972002338 0 -0.020819428201630973 0 -0.0080531585341908386 0 0 0 0.042126775959526019 0.073519606498651829 0 0 0.056738823234658432 0 0.060270729491730513 0 0 0 0 -0.067864875833058294 0 -0.017670511661066358 0 0.023621170203778599 0.0018929158223071961 0
leaf_weight=2.8644786179065695 3.1311168968677512 4.2553413771092883 6.5721499808132675 13.48624701797962 5.5612633526325252 1.9134133905172372 17.668972790241241 101.93275244906545 7.8260685689747316 10.005825597792866 2.9227555096149436 12.383082594722508 5.0351463854312879 2.4064515791833463 5.5166738480329505 48.550562467426062 32.694055985659361 21.563013937324286 19.317633476108313 64.121539283543825 4.6306203603744498 13.575553517788647 2.1606898307800284 6.1038245484232894 12.011405900120733 5.065843239426612 13.690717924386261 8.2990671396255475 7.842834509909153 3.2922271117568007 6.8472107574343681 13.538802254945038 11.146887756884096
leaf_count=26 14 28 44 94 30 10 85 742 45 116 20 64 68 21 26 256 282 120 159 496 39 69 12 46 93 27 154 45 46 22 80 72 88
internal_value=0.00198242 -0.00668048 -0.0272833 -0.0455317 -0.0559083 0.00737246 0.0318863 -0.0665643 0.0154573 0.0202782 -0.070924 0.00522123 -0.0192098 -0.0394882 0.0185475 0.0256483 0.0668721 0.0287956 0.0322184 0.0411029 0.0494863 0.0473241 -0.05591 0.0531085 0 0.0351721 -0.0623827 0.0380914 0 0 0.00663586 0 0
internal_weight=497.934 364.891 173.998 138.181 124.695 190.894 133.043 107.987 35.8166 155.548 104.856 97.4842 35.3459 20.1713 85.1011 79.5844 35.5585 133.531 129.275 94.1736 74.856 20.1477 18.2579 70.2254 22.0172 61.9155 16.0972 56.8496 15.6689 15.1746 11.8824 35.1018 16.7082
internal_count=3539 2728 1192 988 894 1536 811 776 204 1169 762 503 367 197 439 413 308 960 932 740 581 113 187 542 209 328 175 301 91 170 148 192 118
is_linear=0
shrinkage=0.186866


Tree=27
num_leaves=35
num_cat=0
split_feature=18 14 25 3 9 20 14 9 9 23 19 9 13 23 1 13 11 25 7 23 20 9 23 23 23 9 19 25 25 23 9 23 23 23
split_gain=4.4684 2.2459 3.90751 2.54722 2.03643 1.64279 1.54797 1.68665 1.41355 1.32098 1.10791 0.860053 0.775771 0.754791 0.684819 1.7422 0.931013 0.663526 0.638608 0.635398 0.619344 0.570464 0.471999 0.394926 0.572306 0.390552 0.289078 0.277871 0.0971269 0.235394 0.279789 0.0422796 0.00483542 0.103912
threshold=1.0000000180025095e-35 1.0000000180025095e-35 10.950000000000001 1.0000000180025095e-35 137.50000000000003 5.5000000000000009 2.5000000000000004 145.35000000000002 133.45000000000002 13.823376623376625 6.5000000000000009 109.50000000000001 4.5000000000000009 1.0000000180025095e-35 1.0000000180025095e-35 2.5000000000000004 1.0000000180025095e-35 15.850000000000001 18.500000000000004 10.350877192982459 7.5000000000000009 118.45000000000002 14.992857142857146 12.831041666666669 12.286857142857146 117.20000000000002 5.5000000000000009 15.850000000000001 13.300000000000002 10.083333333333334 133.05000000000004 13.907142857142858 13.875357142857144 12.164583333333335
decision_type=2 2 2 2 2 2 2 2 2 2 2 2 2 2 2 2 2 2 2 2 2 2 2 2 2 2 2 2 2 2 2 2 2 2
left_child=4 21 6 5 11 13 7 10 9 12 22 -1 26 -4 16 28 -7 20 -13 -18 -17 -2 23 24 -3 -21 -5 -15 29 -16 -31 -30 33 -9
right_child=1 2 3 8 -6 14 -8 32 -10 -11 -12 18 -14 27 15 17 19 -19 -20 25 -22 -23 -24 -25 -26 -27 -28 -29 31 30 -32 -33 -34 -35
leaf_value=0 0 -0.027430386497359568 0 0.065315490669221987 0 0 0 0 0 0 0 0 0 -0.063132796419518522 0 0.066082936699410372 0 0 0.085302899247792469 0 0 0.054310061478065684 0 -0.083232699867624466 0 -0.041564994757307072 0 0 0.0086073274185286472 -0.033400435205270453 0 0 0 0.014990738154616139
leaf_weight=1.6378410570323456 3.0304733067750957 91.706185426563025 12.442319296300413 43.255392912775278 16.821110475808382 8.7934382744133455 7.4399036467075339 12.199856951832777 36.330948039889336 7.4625319950282565 6.7270650938153258 6.4331237226724616 7.0984202474355689 16.431710641831163 1.8555039614439035 20.207450520247228 3.0291679576039305 3.3723866008222094 29.760330107063055 3.1748600453138343 1.6781306043267239 16.667787872254848 4.1141811497509471 32.683793686330318 16.228593941777945 33.543697912245989 2.7337531223893157 2.5359130501747122 11.447361305356024 10.685579672455789 6.8665986433625212 2.8806428872048846 4.5848623402416697 8.4177605584263784
leaf_count=12 14 513 60 246 101 52 43 59 220 50 38 36 37 106 14 169 27 27 265 26 19 82 30 338 146 321 14 17 107 116 83 40 46 65
internal_value=0.00189081 -0.00259163 -0.00796487 0.00450689 0.0495206 -0.00630943 -0.028703 -0.0338958 0.0289067 0.0446141 -0.0412093 0.069846 0.0545975 -0.0398144 0 0.0170634 -0.00865108 0.0488412 0.075694 -0.0276148 0.0584244 0.0438799 -0.045003 -0.0468156 -0.0218145 -0.0361188 0.0621826 -0.0571314 0 -0.0110279 -0.0211194 0 0 0.00240889
internal_weight=494.279 439.626 419.928 235.826 54.6524 138.945 184.102 176.662 96.881 60.5501 151.46 37.8313 53.0876 31.4099 107.535 58.9937 48.5412 25.258 36.1935 39.7477 21.8856 19.6983 144.733 140.619 107.935 36.7186 45.9891 18.9676 33.7357 19.4077 17.5522 14.328 25.2025 20.6176
internal_count=3539 3125 3029 1751 414 1184 1278 1235 567 347 1065 313 297 183 1001 575 426 215 301 374 188 96 1027 997 659 347 260 123 360 213 199 147 170 124
is_linear=0
shrinkage=0.186866


end of trees

feature_importances:
admission_grade=100
previous_qualification_grade=93
curricular_units_1st_sem_grade=93
course_encoded=69
age_at_enrollment=67
curricular_units_1st_sem_evaluations=58
curricular_units_1st_sem_enrolled=45
curricular_units_1st_sem_approved=40
unemployment_rate=30
fathers_qualification_level=24
mothers_occupation_level=22
tuition_fees_up_to_date=21
gdp=19
curricular_units_1st_sem_credited=17
inflation_rate=16
mothers_qualification_level=15
debtor=15
gender=14
scholarship_holder=14
curricular_units_1st_sem_without_evaluations=14
application_mode_risk=12
application_order=12
fathers_occupation_level=11
displaced=8
previous_qualification_risk=3
international=2
daytimeevening_attendance=1

parameters:
[boosting: gbdt]
[objective: binary]
[metric: binary_logloss]
[tree_learner: serial]
[device_type: cpu]
[data_sample_strategy: bagging]
[data: ]
[valid: ]
[num_iterations: 28]
[learning_rate: 0.186866]
[num_leaves: 121]
[num_threads: 22]
[seed: 42]
[deterministic: 0]
[force_col_wise: 0]
[force_row_wise: 0]
[histogram_pool_size: -1]
[max_depth: 0]
[min_data_in_leaf: 15]
[min_sum_hessian_in_leaf: 0.001]
[bagging_fraction: 0.874977]
[pos_bagging_fraction: 1]
[neg_bagging_fraction: 1]
[bagging_freq: 0]
[bagging_seed: 400]
[bagging_by_query: 0]
[feature_fraction: 0.622155]
[feature_fraction_bynode: 1]
[feature_fraction_seed: 30056]
[extra_trees: 0]
[extra_seed: 12879]
[early_stopping_round: 0]
[early_stopping_min_delta: 0]
[first_metric_only: 0]
[max_delta_step: 0]
[lambda_l1: 5.42859]
[lambda_l2: 8.48024]
[linear_lambda: 0]
[min_gain_to_split: 0]
[drop_rate: 0.1]
[max_drop: 50]
[skip_drop: 0.5]
[xgboost_dart_mode: 0]
[uniform_drop: 0]
[drop_seed: 17869]
[top_rate: 0.2]
[other_rate: 0.1]
[min_data_per_group: 100]
[max_cat_threshold: 32]
[cat_l2: 10]
[cat_smooth: 10]
[max_cat_to_onehot: 4]
[top_k: 20]
[monotone_constraints: ]
[monotone_constraints_method: basic]
[monotone_penalty: 0]
[feature_contri: ]
[forcedsplits_filename: ]
[refit_decay_rate: 0.9]
[cegb_tradeoff: 1]
[cegb_penalty_split: 0]
[cegb_penalty_feature_lazy: ]
[cegb_penalty_feature_coupled: ]
[path_smooth: 0]
[interaction_constraints: ]
[verbosity: -1]
[saved_feature_importance_type: 0]
[use_quantized_grad: 0]
[num_grad_quant_bins: 4]
[quant_train_renew_leaf: 0]
[stochastic_rounding: 1]
[linear_tree: 0]
[max_bin: 255]
[max_bin_by_feature: ]
[min_data_in_bin: 3]
[bin_construct_sample_cnt: 200000]
[data_random_seed: 175]
[is_enable_sparse: 1]
[enable_bundle: 1]
[use_missing: 1]
[zero_as_missing: 0]
[feature_pre_filter: 1]
[pre_partition: 0]
[two_round: 0]
[header: 0]
[label_column: ]
[weight_column: ]
[group_column: ]
[ignore_column: ]
[categorical_feature: ]
[forcedbins_filename: ]
[precise_float_parser: 0]
[parser_config_file: ]
[objective_seed: 16083]
[num_class: 1]
[is_unbalance: 0]
[scale_pos_weight: 1.26027]
[sigmoid: 1]
[boost_from_average: 1]
[reg_sqrt: 0]
[alpha: 0.9]
[fair_c: 1]
[poisson_max_delta_step: 0.7]
[tweedie_variance_power: 1.5]
[lambdarank_truncation_level: 30]
[lambdarank_norm: 1]
[label_gain: ]
[lambdarank_position_bias_regularization: 0]
[eval_at: ]
[multi_error_top_k: 1]
[auc_mu_weights: ]
[num_machines: 1]
[local_listen_port: 12400]
[time_out: 120]
[machine_list_filename: ]
[machines: ]
[gpu_platform_id: -1]
[gpu_device_id: -1]
[gpu_use_dp: 0]
[num_gpu: 1]

end of parameters

pandas_categorical:[]
